<?xml version="1.0"?>
<opencv_storage>
<EA-W08H08-01 type_id="opencv-haar-classifier">
  <size>
    8 8</size>
  <stages>
    <_>
      <!-- stage 0 -->
      <trees>
        <_>
          <!-- tree 0 -->
          <_>
            <!-- root node -->
            <feature>
              <rects>
                <_>
                  1 1 6 6 -1.</_>
                <_>
                  3 3 2 2 9.</_></rects>
              <tilted>0</tilted></feature>
            <threshold>-0.6463596820831299</threshold>
            <left_val>0.8655679821968079</left_val>
            <right_val>-0.7077329754829407</right_val></_></_>
        <_>
          <!-- tree 1 -->
          <_>
            <!-- root node -->
            <feature>
              <rects>
                <_>
                  0 2 8 6 -1.</_>
                <_>
                  0 5 8 3 2.</_></rects>
              <tilted>0</tilted></feature>
            <threshold>0.3748005926609039</threshold>
            <left_val>-0.5272703170776367</left_val>
            <right_val>0.6231827735900879</right_val></_></_>
        <_>
          <!-- tree 2 -->
          <_>
            <!-- root node -->
            <feature>
              <rects>
                <_>
                  4 1 4 1 -1.</_>
                <_>
                  5 2 2 1 2.</_></rects>
              <tilted>1</tilted></feature>
            <threshold>-0.0219370909035206</threshold>
            <left_val>0.3265587091445923</left_val>
            <right_val>-0.5197712182998657</right_val></_></_>
        <_>
          <!-- tree 3 -->
          <_>
            <!-- root node -->
            <feature>
              <rects>
                <_>
                  7 2 1 6 -1.</_>
                <_>
                  7 5 1 3 2.</_></rects>
              <tilted>0</tilted></feature>
            <threshold>1.7454279586672783e-003</threshold>
            <left_val>-0.4456216990947723</left_val>
            <right_val>0.2324741929769516</right_val></_></_>
        <_>
          <!-- tree 4 -->
          <_>
            <!-- root node -->
            <feature>
              <rects>
                <_>
                  0 6 1 2 -1.</_>
                <_>
                  0 7 1 1 2.</_></rects>
              <tilted>0</tilted></feature>
            <threshold>6.3220562878996134e-004</threshold>
            <left_val>-0.4207183122634888</left_val>
            <right_val>0.2944124937057495</right_val></_></_>
        <_>
          <!-- tree 5 -->
          <_>
            <!-- root node -->
            <feature>
              <rects>
                <_>
                  4 0 1 3 -1.</_>
                <_>
                  4 1 1 1 3.</_></rects>
              <tilted>0</tilted></feature>
            <threshold>6.6910199820995331e-003</threshold>
            <left_val>-0.3674514889717102</left_val>
            <right_val>0.3581315875053406</right_val></_></_>
        <_>
          <!-- tree 6 -->
          <_>
            <!-- root node -->
            <feature>
              <rects>
                <_>
                  1 0 6 6 -1.</_>
                <_>
                  3 0 2 6 3.</_></rects>
              <tilted>0</tilted></feature>
            <threshold>-0.0145344203338027</threshold>
            <left_val>0.2433433979749680</left_val>
            <right_val>-0.5766463875770569</right_val></_></_>
        <_>
          <!-- tree 7 -->
          <_>
            <!-- root node -->
            <feature>
              <rects>
                <_>
                  2 2 4 3 -1.</_>
                <_>
                  2 2 2 3 2.</_></rects>
              <tilted>0</tilted></feature>
            <threshold>-0.1301077008247376</threshold>
            <left_val>0.7495607137680054</left_val>
            <right_val>-0.1943596005439758</right_val></_></_>
        <_>
          <!-- tree 8 -->
          <_>
            <!-- root node -->
            <feature>
              <rects>
                <_>
                  2 3 4 2 -1.</_>
                <_>
                  4 3 2 2 2.</_></rects>
              <tilted>0</tilted></feature>
            <threshold>-0.1207221969962120</threshold>
            <left_val>0.7395542860031128</left_val>
            <right_val>-0.1810663938522339</right_val></_></_>
        <_>
          <!-- tree 9 -->
          <_>
            <!-- root node -->
            <feature>
              <rects>
                <_>
                  3 7 3 1 -1.</_>
                <_>
                  4 7 1 1 3.</_></rects>
              <tilted>0</tilted></feature>
            <threshold>-0.0157335400581360</threshold>
            <left_val>-0.7656701207160950</left_val>
            <right_val>0.1509252041578293</right_val></_></_>
        <_>
          <!-- tree 10 -->
          <_>
            <!-- root node -->
            <feature>
              <rects>
                <_>
                  0 2 1 6 -1.</_>
                <_>
                  0 5 1 3 2.</_></rects>
              <tilted>0</tilted></feature>
            <threshold>4.8233028501272202e-003</threshold>
            <left_val>-0.4473325908184052</left_val>
            <right_val>0.2628942131996155</right_val></_></_></trees>
      <stage_threshold>-1.8451429605484009</stage_threshold>
      <parent>-1</parent>
      <next>-1</next></_>
    <_>
      <!-- stage 1 -->
      <trees>
        <_>
          <!-- tree 0 -->
          <_>
            <!-- root node -->
            <feature>
              <rects>
                <_>
                  1 1 6 6 -1.</_>
                <_>
                  3 3 2 2 9.</_></rects>
              <tilted>0</tilted></feature>
            <threshold>-0.6873281002044678</threshold>
            <left_val>0.7697948813438416</left_val>
            <right_val>-0.6775575876235962</right_val></_></_>
        <_>
          <!-- tree 1 -->
          <_>
            <!-- root node -->
            <feature>
              <rects>
                <_>
                  5 2 2 6 -1.</_>
                <_>
                  5 5 2 3 2.</_></rects>
              <tilted>0</tilted></feature>
            <threshold>0.0692891627550125</threshold>
            <left_val>-0.6007707118988037</left_val>
            <right_val>0.4387868940830231</right_val></_></_>
        <_>
          <!-- tree 2 -->
          <_>
            <!-- root node -->
            <feature>
              <rects>
                <_>
                  0 1 8 4 -1.</_>
                <_>
                  0 2 8 2 2.</_></rects>
              <tilted>0</tilted></feature>
            <threshold>-0.1127142980694771</threshold>
            <left_val>0.4190607070922852</left_val>
            <right_val>-0.4872972965240479</right_val></_></_>
        <_>
          <!-- tree 3 -->
          <_>
            <!-- root node -->
            <feature>
              <rects>
                <_>
                  5 5 1 2 -1.</_>
                <_>
                  5 5 1 1 2.</_></rects>
              <tilted>1</tilted></feature>
            <threshold>-9.1537571279332042e-004</threshold>
            <left_val>0.3426572084426880</left_val>
            <right_val>-0.5130240917205811</right_val></_></_>
        <_>
          <!-- tree 4 -->
          <_>
            <!-- root node -->
            <feature>
              <rects>
                <_>
                  7 6 1 2 -1.</_>
                <_>
                  7 7 1 1 2.</_></rects>
              <tilted>0</tilted></feature>
            <threshold>5.6902068899944425e-004</threshold>
            <left_val>-0.4225696027278900</left_val>
            <right_val>0.2885896861553192</right_val></_></_>
        <_>
          <!-- tree 5 -->
          <_>
            <!-- root node -->
            <feature>
              <rects>
                <_>
                  3 3 3 3 -1.</_>
                <_>
                  4 4 1 1 9.</_></rects>
              <tilted>0</tilted></feature>
            <threshold>-0.0770169273018837</threshold>
            <left_val>0.3367694020271301</left_val>
            <right_val>-0.3570748865604401</right_val></_></_>
        <_>
          <!-- tree 6 -->
          <_>
            <!-- root node -->
            <feature>
              <rects>
                <_>
                  1 2 6 4 -1.</_>
                <_>
                  4 2 3 4 2.</_></rects>
              <tilted>0</tilted></feature>
            <threshold>0.3017666935920715</threshold>
            <left_val>-0.1678390949964523</left_val>
            <right_val>0.7513282895088196</right_val></_></_>
        <_>
          <!-- tree 7 -->
          <_>
            <!-- root node -->
            <feature>
              <rects>
                <_>
                  0 2 1 6 -1.</_>
                <_>
                  0 5 1 3 2.</_></rects>
              <tilted>0</tilted></feature>
            <threshold>4.1763600893318653e-004</threshold>
            <left_val>-0.5458539128303528</left_val>
            <right_val>0.2263600975275040</right_val></_></_>
        <_>
          <!-- tree 8 -->
          <_>
            <!-- root node -->
            <feature>
              <rects>
                <_>
                  0 2 8 2 -1.</_>
                <_>
                  2 2 4 2 2.</_></rects>
              <tilted>0</tilted></feature>
            <threshold>-5.6236638920381665e-004</threshold>
            <left_val>0.2021362930536270</left_val>
            <right_val>-0.6212040185928345</right_val></_></_>
        <_>
          <!-- tree 9 -->
          <_>
            <!-- root node -->
            <feature>
              <rects>
                <_>
                  7 5 1 2 -1.</_>
                <_>
                  7 6 1 1 2.</_></rects>
              <tilted>0</tilted></feature>
            <threshold>5.2102631889283657e-004</threshold>
            <left_val>-0.4409636855125427</left_val>
            <right_val>0.2546311020851135</right_val></_></_>
        <_>
          <!-- tree 10 -->
          <_>
            <!-- root node -->
            <feature>
              <rects>
                <_>
                  3 0 3 3 -1.</_>
                <_>
                  3 1 3 1 3.</_></rects>
              <tilted>0</tilted></feature>
            <threshold>0.0100154299288988</threshold>
            <left_val>-0.3781337141990662</left_val>
            <right_val>0.2681367099285126</right_val></_></_>
        <_>
          <!-- tree 11 -->
          <_>
            <!-- root node -->
            <feature>
              <rects>
                <_>
                  4 3 1 2 -1.</_>
                <_>
                  4 4 1 1 2.</_></rects>
              <tilted>0</tilted></feature>
            <threshold>1.1572970543056726e-003</threshold>
            <left_val>-0.4409401118755341</left_val>
            <right_val>0.2891354858875275</right_val></_></_>
        <_>
          <!-- tree 12 -->
          <_>
            <!-- root node -->
            <feature>
              <rects>
                <_>
                  0 4 6 1 -1.</_>
                <_>
                  3 4 3 1 2.</_></rects>
              <tilted>0</tilted></feature>
            <threshold>-8.0366339534521103e-004</threshold>
            <left_val>0.2496265023946762</left_val>
            <right_val>-0.6136078238487244</right_val></_></_>
        <_>
          <!-- tree 13 -->
          <_>
            <!-- root node -->
            <feature>
              <rects>
                <_>
                  4 1 3 4 -1.</_>
                <_>
                  4 1 3 2 2.</_></rects>
              <tilted>1</tilted></feature>
            <threshold>0.4996199011802673</threshold>
            <left_val>-0.0378023907542229</left_val>
            <right_val>-4.0584488281250000e+004</right_val></_></_></trees>
      <stage_threshold>-2.3486819267272949</stage_threshold>
      <parent>0</parent>
      <next>-1</next></_>
    <_>
      <!-- stage 2 -->
      <trees>
        <_>
          <!-- tree 0 -->
          <_>
            <!-- root node -->
            <feature>
              <rects>
                <_>
                  1 1 6 6 -1.</_>
                <_>
                  3 3 2 2 9.</_></rects>
              <tilted>0</tilted></feature>
            <threshold>-0.8172543048858643</threshold>
            <left_val>0.7291849255561829</left_val>
            <right_val>-0.5715898275375366</right_val></_></_>
        <_>
          <!-- tree 1 -->
          <_>
            <!-- root node -->
            <feature>
              <rects>
                <_>
                  1 0 7 6 -1.</_>
                <_>
                  1 2 7 2 3.</_></rects>
              <tilted>0</tilted></feature>
            <threshold>-0.3219332993030548</threshold>
            <left_val>0.4234364926815033</left_val>
            <right_val>-0.3410066962242127</right_val></_></_>
        <_>
          <!-- tree 2 -->
          <_>
            <!-- root node -->
            <feature>
              <rects>
                <_>
                  3 7 3 1 -1.</_>
                <_>
                  4 7 1 1 3.</_></rects>
              <tilted>0</tilted></feature>
            <threshold>0.0176954604685307</threshold>
            <left_val>0.1535647958517075</left_val>
            <right_val>-0.8717455863952637</right_val></_></_>
        <_>
          <!-- tree 3 -->
          <_>
            <!-- root node -->
            <feature>
              <rects>
                <_>
                  3 7 3 1 -1.</_>
                <_>
                  4 7 1 1 3.</_></rects>
              <tilted>0</tilted></feature>
            <threshold>-0.0169477201998234</threshold>
            <left_val>-0.8064228892326355</left_val>
            <right_val>0.1903281956911087</right_val></_></_>
        <_>
          <!-- tree 4 -->
          <_>
            <!-- root node -->
            <feature>
              <rects>
                <_>
                  3 0 3 2 -1.</_>
                <_>
                  4 0 1 2 3.</_></rects>
              <tilted>0</tilted></feature>
            <threshold>-0.0324766188859940</threshold>
            <left_val>-0.8112772703170776</left_val>
            <right_val>0.0719233974814415</right_val></_></_>
        <_>
          <!-- tree 5 -->
          <_>
            <!-- root node -->
            <feature>
              <rects>
                <_>
                  3 0 3 2 -1.</_>
                <_>
                  4 0 1 2 3.</_></rects>
              <tilted>0</tilted></feature>
            <threshold>0.0255627594888210</threshold>
            <left_val>0.1354942023754120</left_val>
            <right_val>-0.7078632712364197</right_val></_></_>
        <_>
          <!-- tree 6 -->
          <_>
            <!-- root node -->
            <feature>
              <rects>
                <_>
                  5 5 2 1 -1.</_>
                <_>
                  5 5 1 1 2.</_></rects>
              <tilted>1</tilted></feature>
            <threshold>-6.1912869568914175e-004</threshold>
            <left_val>0.1585471034049988</left_val>
            <right_val>-0.5359597802162170</right_val></_></_>
        <_>
          <!-- tree 7 -->
          <_>
            <!-- root node -->
            <feature>
              <rects>
                <_>
                  4 6 3 2 -1.</_>
                <_>
                  5 6 1 2 3.</_></rects>
              <tilted>0</tilted></feature>
            <threshold>0.0233410596847534</threshold>
            <left_val>0.1512092947959900</left_val>
            <right_val>-0.6715397834777832</right_val></_></_></trees>
      <stage_threshold>-1.0482809543609619</stage_threshold>
      <parent>1</parent>
      <next>-1</next></_>
    <_>
      <!-- stage 3 -->
      <trees>
        <_>
          <!-- tree 0 -->
          <_>
            <!-- root node -->
            <feature>
              <rects>
                <_>
                  1 1 6 6 -1.</_>
                <_>
                  3 3 2 2 9.</_></rects>
              <tilted>0</tilted></feature>
            <threshold>-0.7438948750495911</threshold>
            <left_val>0.4987367093563080</left_val>
            <right_val>-0.5816900730133057</right_val></_></_>
        <_>
          <!-- tree 1 -->
          <_>
            <!-- root node -->
            <feature>
              <rects>
                <_>
                  1 1 6 4 -1.</_>
                <_>
                  1 2 6 2 2.</_></rects>
              <tilted>0</tilted></feature>
            <threshold>-0.1318175047636032</threshold>
            <left_val>0.3554207086563110</left_val>
            <right_val>-0.2993617057800293</right_val></_></_>
        <_>
          <!-- tree 2 -->
          <_>
            <!-- root node -->
            <feature>
              <rects>
                <_>
                  2 7 3 1 -1.</_>
                <_>
                  3 7 1 1 3.</_></rects>
              <tilted>0</tilted></feature>
            <threshold>0.0142240095883608</threshold>
            <left_val>0.1241011023521423</left_val>
            <right_val>-0.7516555786132813</right_val></_></_>
        <_>
          <!-- tree 3 -->
          <_>
            <!-- root node -->
            <feature>
              <rects>
                <_>
                  2 7 3 1 -1.</_>
                <_>
                  3 7 1 1 3.</_></rects>
              <tilted>0</tilted></feature>
            <threshold>-0.0118898702785373</threshold>
            <left_val>-0.6794509887695313</left_val>
            <right_val>0.1692734956741333</right_val></_></_>
        <_>
          <!-- tree 4 -->
          <_>
            <!-- root node -->
            <feature>
              <rects>
                <_>
                  5 2 3 2 -1.</_>
                <_>
                  6 3 1 2 3.</_></rects>
              <tilted>1</tilted></feature>
            <threshold>-0.1121516004204750</threshold>
            <left_val>0.4512220919132233</left_val>
            <right_val>-0.2292059957981110</right_val></_></_>
        <_>
          <!-- tree 5 -->
          <_>
            <!-- root node -->
            <feature>
              <rects>
                <_>
                  4 0 3 2 -1.</_>
                <_>
                  5 0 1 2 3.</_></rects>
              <tilted>0</tilted></feature>
            <threshold>0.0305185094475746</threshold>
            <left_val>0.1162863969802856</left_val>
            <right_val>-0.7888491749763489</right_val></_></_>
        <_>
          <!-- tree 6 -->
          <_>
            <!-- root node -->
            <feature>
              <rects>
                <_>
                  4 0 3 2 -1.</_>
                <_>
                  5 0 1 2 3.</_></rects>
              <tilted>0</tilted></feature>
            <threshold>-0.0334490984678268</threshold>
            <left_val>-0.6993588805198669</left_val>
            <right_val>0.0973419770598412</right_val></_></_>
        <_>
          <!-- tree 7 -->
          <_>
            <!-- root node -->
            <feature>
              <rects>
                <_>
                  0 6 6 2 -1.</_>
                <_>
                  3 6 3 2 2.</_></rects>
              <tilted>0</tilted></feature>
            <threshold>0.1376587003469467</threshold>
            <left_val>0.0720919072628021</left_val>
            <right_val>-0.7755191922187805</right_val></_></_>
        <_>
          <!-- tree 8 -->
          <_>
            <!-- root node -->
            <feature>
              <rects>
                <_>
                  7 2 1 6 -1.</_>
                <_>
                  7 5 1 3 2.</_></rects>
              <tilted>0</tilted></feature>
            <threshold>6.9223687751218677e-004</threshold>
            <left_val>-0.5177481770515442</left_val>
            <right_val>0.1244833022356033</right_val></_></_>
        <_>
          <!-- tree 9 -->
          <_>
            <!-- root node -->
            <feature>
              <rects>
                <_>
                  0 1 6 6 -1.</_>
                <_>
                  2 3 2 2 9.</_></rects>
              <tilted>0</tilted></feature>
            <threshold>-0.9814395904541016</threshold>
            <left_val>0.4234198927879334</left_val>
            <right_val>-0.1523634940385819</right_val></_></_>
        <_>
          <!-- tree 10 -->
          <_>
            <!-- root node -->
            <feature>
              <rects>
                <_>
                  3 2 3 3 -1.</_>
                <_>
                  4 2 1 3 3.</_></rects>
              <tilted>0</tilted></feature>
            <threshold>-0.0420599393546581</threshold>
            <left_val>0.2979381978511810</left_val>
            <right_val>-0.2013472020626068</right_val></_></_>
        <_>
          <!-- tree 11 -->
          <_>
            <!-- root node -->
            <feature>
              <rects>
                <_>
                  4 6 2 2 -1.</_>
                <_>
                  5 6 1 2 2.</_></rects>
              <tilted>0</tilted></feature>
            <threshold>-0.0220156498253345</threshold>
            <left_val>-0.6888514757156372</left_val>
            <right_val>0.0997631773352623</right_val></_></_>
        <_>
          <!-- tree 12 -->
          <_>
            <!-- root node -->
            <feature>
              <rects>
                <_>
                  3 6 3 2 -1.</_>
                <_>
                  4 6 1 2 3.</_></rects>
              <tilted>0</tilted></feature>
            <threshold>-0.0195337198674679</threshold>
            <left_val>-0.5187175273895264</left_val>
            <right_val>0.1140350028872490</right_val></_></_>
        <_>
          <!-- tree 13 -->
          <_>
            <!-- root node -->
            <feature>
              <rects>
                <_>
                  0 0 2 2 -1.</_>
                <_>
                  1 0 1 2 2.</_></rects>
              <tilted>0</tilted></feature>
            <threshold>0.0255354698747396</threshold>
            <left_val>0.0841414630413055</left_val>
            <right_val>-0.6087467074394226</right_val></_></_>
        <_>
          <!-- tree 14 -->
          <_>
            <!-- root node -->
            <feature>
              <rects>
                <_>
                  1 1 5 3 -1.</_>
                <_>
                  1 2 5 1 3.</_></rects>
              <tilted>0</tilted></feature>
            <threshold>-0.1292683929204941</threshold>
            <left_val>0.4565168023109436</left_val>
            <right_val>-0.1315228044986725</right_val></_></_>
        <_>
          <!-- tree 15 -->
          <_>
            <!-- root node -->
            <feature>
              <rects>
                <_>
                  1 1 7 3 -1.</_>
                <_>
                  1 2 7 1 3.</_></rects>
              <tilted>0</tilted></feature>
            <threshold>0.0935441032052040</threshold>
            <left_val>-0.1186965033411980</left_val>
            <right_val>0.4458642899990082</right_val></_></_></trees>
      <stage_threshold>-1.3454220294952393</stage_threshold>
      <parent>2</parent>
      <next>-1</next></_>
    <_>
      <!-- stage 4 -->
      <trees>
        <_>
          <!-- tree 0 -->
          <_>
            <!-- root node -->
            <feature>
              <rects>
                <_>
                  1 1 6 6 -1.</_>
                <_>
                  3 3 2 2 9.</_></rects>
              <tilted>0</tilted></feature>
            <threshold>-0.9924187064170837</threshold>
            <left_val>0.6262062191963196</left_val>
            <right_val>-0.3984124064445496</right_val></_></_>
        <_>
          <!-- tree 1 -->
          <_>
            <!-- root node -->
            <feature>
              <rects>
                <_>
                  0 0 8 3 -1.</_>
                <_>
                  0 1 8 1 3.</_></rects>
              <tilted>0</tilted></feature>
            <threshold>0.0922205224633217</threshold>
            <left_val>-0.2239464968442917</left_val>
            <right_val>0.4394435882568359</right_val></_></_>
        <_>
          <!-- tree 2 -->
          <_>
            <!-- root node -->
            <feature>
              <rects>
                <_>
                  1 0 7 6 -1.</_>
                <_>
                  1 3 7 3 2.</_></rects>
              <tilted>0</tilted></feature>
            <threshold>0.6040462851524353</threshold>
            <left_val>0.1013280972838402</left_val>
            <right_val>-0.7532349824905396</right_val></_></_>
        <_>
          <!-- tree 3 -->
          <_>
            <!-- root node -->
            <feature>
              <rects>
                <_>
                  2 0 1 8 -1.</_>
                <_>
                  2 4 1 4 2.</_></rects>
              <tilted>0</tilted></feature>
            <threshold>1.5037689590826631e-003</threshold>
            <left_val>-0.4638370871543884</left_val>
            <right_val>0.2429466992616653</right_val></_></_>
        <_>
          <!-- tree 4 -->
          <_>
            <!-- root node -->
            <feature>
              <rects>
                <_>
                  5 1 3 2 -1.</_>
                <_>
                  6 2 1 2 3.</_></rects>
              <tilted>1</tilted></feature>
            <threshold>-0.0896044000983238</threshold>
            <left_val>0.2051140069961548</left_val>
            <right_val>-0.3265916109085083</right_val></_></_>
        <_>
          <!-- tree 5 -->
          <_>
            <!-- root node -->
            <feature>
              <rects>
                <_>
                  5 0 3 1 -1.</_>
                <_>
                  6 0 1 1 3.</_></rects>
              <tilted>0</tilted></feature>
            <threshold>0.0133412098512053</threshold>
            <left_val>0.1400485038757324</left_val>
            <right_val>-0.6195560097694397</right_val></_></_>
        <_>
          <!-- tree 6 -->
          <_>
            <!-- root node -->
            <feature>
              <rects>
                <_>
                  4 0 3 1 -1.</_>
                <_>
                  5 0 1 1 3.</_></rects>
              <tilted>0</tilted></feature>
            <threshold>0.0174910705536604</threshold>
            <left_val>0.0775074213743210</left_val>
            <right_val>-0.7410517930984497</right_val></_></_>
        <_>
          <!-- tree 7 -->
          <_>
            <!-- root node -->
            <feature>
              <rects>
                <_>
                  1 1 6 3 -1.</_>
                <_>
                  1 2 6 1 3.</_></rects>
              <tilted>0</tilted></feature>
            <threshold>-0.1167422011494637</threshold>
            <left_val>0.3476307094097138</left_val>
            <right_val>-0.1928607970476151</right_val></_></_>
        <_>
          <!-- tree 8 -->
          <_>
            <!-- root node -->
            <feature>
              <rects>
                <_>
                  2 0 3 2 -1.</_>
                <_>
                  3 0 1 2 3.</_></rects>
              <tilted>0</tilted></feature>
            <threshold>0.0258869305253029</threshold>
            <left_val>0.1313440948724747</left_val>
            <right_val>-0.6402469873428345</right_val></_></_>
        <_>
          <!-- tree 9 -->
          <_>
            <!-- root node -->
            <feature>
              <rects>
                <_>
                  0 1 8 3 -1.</_>
                <_>
                  0 2 8 1 3.</_></rects>
              <tilted>0</tilted></feature>
            <threshold>0.1201046034693718</threshold>
            <left_val>-0.1716884970664978</left_val>
            <right_val>0.4389773011207581</right_val></_></_>
        <_>
          <!-- tree 10 -->
          <_>
            <!-- root node -->
            <feature>
              <rects>
                <_>
                  2 7 6 1 -1.</_>
                <_>
                  5 7 3 1 2.</_></rects>
              <tilted>0</tilted></feature>
            <threshold>-0.0684086680412292</threshold>
            <left_val>-0.6127368211746216</left_val>
            <right_val>0.0856991931796074</right_val></_></_>
        <_>
          <!-- tree 11 -->
          <_>
            <!-- root node -->
            <feature>
              <rects>
                <_>
                  3 7 2 1 -1.</_>
                <_>
                  4 7 1 1 2.</_></rects>
              <tilted>0</tilted></feature>
            <threshold>0.0162671208381653</threshold>
            <left_val>0.0608886703848839</left_val>
            <right_val>-0.8206310868263245</right_val></_></_>
        <_>
          <!-- tree 12 -->
          <_>
            <!-- root node -->
            <feature>
              <rects>
                <_>
                  1 2 3 4 -1.</_>
                <_>
                  2 2 1 4 3.</_></rects>
              <tilted>0</tilted></feature>
            <threshold>0.0606904588639736</threshold>
            <left_val>-0.1249449029564858</left_val>
            <right_val>0.4254373013973236</right_val></_></_>
        <_>
          <!-- tree 13 -->
          <_>
            <!-- root node -->
            <feature>
              <rects>
                <_>
                  0 3 3 3 -1.</_>
                <_>
                  1 3 1 3 3.</_></rects>
              <tilted>0</tilted></feature>
            <threshold>0.0477464906871319</threshold>
            <left_val>-0.1409942060709000</left_val>
            <right_val>0.3786306083202362</right_val></_></_>
        <_>
          <!-- tree 14 -->
          <_>
            <!-- root node -->
            <feature>
              <rects>
                <_>
                  0 2 2 6 -1.</_>
                <_>
                  0 5 2 3 2.</_></rects>
              <tilted>0</tilted></feature>
            <threshold>0.0226941108703613</threshold>
            <left_val>-0.4048349857330322</left_val>
            <right_val>0.1384776979684830</right_val></_></_>
        <_>
          <!-- tree 15 -->
          <_>
            <!-- root node -->
            <feature>
              <rects>
                <_>
                  1 7 3 1 -1.</_>
                <_>
                  2 7 1 1 3.</_></rects>
              <tilted>0</tilted></feature>
            <threshold>0.0169226992875338</threshold>
            <left_val>0.0781007930636406</left_val>
            <right_val>-0.6604102253913879</right_val></_></_>
        <_>
          <!-- tree 16 -->
          <_>
            <!-- root node -->
            <feature>
              <rects>
                <_>
                  3 0 3 1 -1.</_>
                <_>
                  4 0 1 1 3.</_></rects>
              <tilted>0</tilted></feature>
            <threshold>0.0124053601175547</threshold>
            <left_val>0.0823288187384605</left_val>
            <right_val>-0.5054119825363159</right_val></_></_>
        <_>
          <!-- tree 17 -->
          <_>
            <!-- root node -->
            <feature>
              <rects>
                <_>
                  0 3 3 3 -1.</_>
                <_>
                  1 3 1 3 3.</_></rects>
              <tilted>0</tilted></feature>
            <threshold>-0.0341852791607380</threshold>
            <left_val>0.4052155911922455</left_val>
            <right_val>-0.1121110022068024</right_val></_></_>
        <_>
          <!-- tree 18 -->
          <_>
            <!-- root node -->
            <feature>
              <rects>
                <_>
                  1 3 4 2 -1.</_>
                <_>
                  2 3 2 2 2.</_></rects>
              <tilted>0</tilted></feature>
            <threshold>-0.0573292188346386</threshold>
            <left_val>0.4006519019603729</left_val>
            <right_val>-0.1116269975900650</right_val></_></_>
        <_>
          <!-- tree 19 -->
          <_>
            <!-- root node -->
            <feature>
              <rects>
                <_>
                  1 7 3 1 -1.</_>
                <_>
                  2 7 1 1 3.</_></rects>
              <tilted>0</tilted></feature>
            <threshold>-0.0122758103534579</threshold>
            <left_val>-0.4868440032005310</left_val>
            <right_val>0.0919804573059082</right_val></_></_>
        <_>
          <!-- tree 20 -->
          <_>
            <!-- root node -->
            <feature>
              <rects>
                <_>
                  7 6 1 2 -1.</_>
                <_>
                  7 7 1 1 2.</_></rects>
              <tilted>0</tilted></feature>
            <threshold>0.0247457996010780</threshold>
            <left_val>0.0789823085069656</left_val>
            <right_val>-0.5141000747680664</right_val></_></_>
        <_>
          <!-- tree 21 -->
          <_>
            <!-- root node -->
            <feature>
              <rects>
                <_>
                  7 6 1 2 -1.</_>
                <_>
                  7 7 1 1 2.</_></rects>
              <tilted>0</tilted></feature>
            <threshold>5.6888331891968846e-004</threshold>
            <left_val>-0.2857151925563812</left_val>
            <right_val>0.1754807978868485</right_val></_></_>
        <_>
          <!-- tree 22 -->
          <_>
            <!-- root node -->
            <feature>
              <rects>
                <_>
                  5 2 3 2 -1.</_>
                <_>
                  6 3 1 2 3.</_></rects>
              <tilted>1</tilted></feature>
            <threshold>-0.1365559995174408</threshold>
            <left_val>0.3923377096652985</left_val>
            <right_val>-0.1193284019827843</right_val></_></_>
        <_>
          <!-- tree 23 -->
          <_>
            <!-- root node -->
            <feature>
              <rects>
                <_>
                  4 3 3 2 -1.</_>
                <_>
                  5 3 1 2 3.</_></rects>
              <tilted>0</tilted></feature>
            <threshold>0.0552068613469601</threshold>
            <left_val>-0.0818410068750381</left_val>
            <right_val>0.5542898178100586</right_val></_></_>
        <_>
          <!-- tree 24 -->
          <_>
            <!-- root node -->
            <feature>
              <rects>
                <_>
                  2 1 6 5 -1.</_>
                <_>
                  4 1 2 5 3.</_></rects>
              <tilted>0</tilted></feature>
            <threshold>-0.1063920035958290</threshold>
            <left_val>0.1823496967554092</left_val>
            <right_val>-0.2237226068973541</right_val></_></_></trees>
      <stage_threshold>-1.3995679616928101</stage_threshold>
      <parent>3</parent>
      <next>-1</next></_>
    <_>
      <!-- stage 5 -->
      <trees>
        <_>
          <!-- tree 0 -->
          <_>
            <!-- root node -->
            <feature>
              <rects>
                <_>
                  1 1 6 6 -1.</_>
                <_>
                  3 3 2 2 9.</_></rects>
              <tilted>0</tilted></feature>
            <threshold>-1.1245499849319458</threshold>
            <left_val>0.4686881899833679</left_val>
            <right_val>-0.2473312020301819</right_val></_></_>
        <_>
          <!-- tree 1 -->
          <_>
            <!-- root node -->
            <feature>
              <rects>
                <_>
                  2 0 3 2 -1.</_>
                <_>
                  3 0 1 2 3.</_></rects>
              <tilted>0</tilted></feature>
            <threshold>-0.0240060593932867</threshold>
            <left_val>-0.6453542113304138</left_val>
            <right_val>0.1402049958705902</right_val></_></_>
        <_>
          <!-- tree 2 -->
          <_>
            <!-- root node -->
            <feature>
              <rects>
                <_>
                  2 0 3 1 -1.</_>
                <_>
                  3 0 1 1 3.</_></rects>
              <tilted>0</tilted></feature>
            <threshold>0.0127298198640347</threshold>
            <left_val>0.1719114929437637</left_val>
            <right_val>-0.6034470200538635</right_val></_></_>
        <_>
          <!-- tree 3 -->
          <_>
            <!-- root node -->
            <feature>
              <rects>
                <_>
                  4 7 3 1 -1.</_>
                <_>
                  5 7 1 1 3.</_></rects>
              <tilted>0</tilted></feature>
            <threshold>0.0138848600909114</threshold>
            <left_val>0.0290974695235491</left_val>
            <right_val>-0.7141441106796265</right_val></_></_>
        <_>
          <!-- tree 4 -->
          <_>
            <!-- root node -->
            <feature>
              <rects>
                <_>
                  4 7 3 1 -1.</_>
                <_>
                  5 7 1 1 3.</_></rects>
              <tilted>0</tilted></feature>
            <threshold>-0.0137803796678782</threshold>
            <left_val>-0.6340122818946838</left_val>
            <right_val>0.1419238001108170</right_val></_></_>
        <_>
          <!-- tree 5 -->
          <_>
            <!-- root node -->
            <feature>
              <rects>
                <_>
                  3 0 2 6 -1.</_>
                <_>
                  3 3 2 3 2.</_></rects>
              <tilted>0</tilted></feature>
            <threshold>0.1013495028018951</threshold>
            <left_val>0.1381009966135025</left_val>
            <right_val>-0.6168249845504761</right_val></_></_>
        <_>
          <!-- tree 6 -->
          <_>
            <!-- root node -->
            <feature>
              <rects>
                <_>
                  2 1 4 3 -1.</_>
                <_>
                  2 2 4 1 3.</_></rects>
              <tilted>0</tilted></feature>
            <threshold>-0.1034025028347969</threshold>
            <left_val>0.4421924948692322</left_val>
            <right_val>-0.1658295989036560</right_val></_></_>
        <_>
          <!-- tree 7 -->
          <_>
            <!-- root node -->
            <feature>
              <rects>
                <_>
                  6 0 2 8 -1.</_>
                <_>
                  6 4 2 4 2.</_></rects>
              <tilted>0</tilted></feature>
            <threshold>-0.0991541966795921</threshold>
            <left_val>-0.6281523108482361</left_val>
            <right_val>0.1081480011343956</right_val></_></_>
        <_>
          <!-- tree 8 -->
          <_>
            <!-- root node -->
            <feature>
              <rects>
                <_>
                  1 0 3 1 -1.</_>
                <_>
                  2 0 1 1 3.</_></rects>
              <tilted>0</tilted></feature>
            <threshold>0.0136435003951192</threshold>
            <left_val>0.0904266983270645</left_val>
            <right_val>-0.5716449022293091</right_val></_></_>
        <_>
          <!-- tree 9 -->
          <_>
            <!-- root node -->
            <feature>
              <rects>
                <_>
                  4 1 4 3 -1.</_>
                <_>
                  3 2 4 1 3.</_></rects>
              <tilted>1</tilted></feature>
            <threshold>-0.1207659989595413</threshold>
            <left_val>0.2222063988447189</left_val>
            <right_val>-0.2523896992206574</right_val></_></_>
        <_>
          <!-- tree 10 -->
          <_>
            <!-- root node -->
            <feature>
              <rects>
                <_>
                  2 6 3 2 -1.</_>
                <_>
                  3 6 1 2 3.</_></rects>
              <tilted>0</tilted></feature>
            <threshold>0.0202681291848421</threshold>
            <left_val>0.0983711332082748</left_val>
            <right_val>-0.6281061768531799</right_val></_></_>
        <_>
          <!-- tree 11 -->
          <_>
            <!-- root node -->
            <feature>
              <rects>
                <_>
                  2 6 3 2 -1.</_>
                <_>
                  3 6 1 2 3.</_></rects>
              <tilted>0</tilted></feature>
            <threshold>-0.0280654504895210</threshold>
            <left_val>-0.6126502156257629</left_val>
            <right_val>0.0932663381099701</right_val></_></_>
        <_>
          <!-- tree 12 -->
          <_>
            <!-- root node -->
            <feature>
              <rects>
                <_>
                  2 2 6 3 -1.</_>
                <_>
                  4 3 2 1 9.</_></rects>
              <tilted>0</tilted></feature>
            <threshold>-0.2254406958818436</threshold>
            <left_val>0.2320916056632996</left_val>
            <right_val>-0.2627539038658142</right_val></_></_>
        <_>
          <!-- tree 13 -->
          <_>
            <!-- root node -->
            <feature>
              <rects>
                <_>
                  5 0 2 1 -1.</_>
                <_>
                  6 0 1 1 2.</_></rects>
              <tilted>0</tilted></feature>
            <threshold>-0.0155498003587127</threshold>
            <left_val>-0.6280264854431152</left_val>
            <right_val>0.0714103579521179</right_val></_></_>
        <_>
          <!-- tree 14 -->
          <_>
            <!-- root node -->
            <feature>
              <rects>
                <_>
                  0 7 3 1 -1.</_>
                <_>
                  1 7 1 1 3.</_></rects>
              <tilted>0</tilted></feature>
            <threshold>0.0149856703355908</threshold>
            <left_val>0.0724434778094292</left_val>
            <right_val>-0.5210151076316834</right_val></_></_>
        <_>
          <!-- tree 15 -->
          <_>
            <!-- root node -->
            <feature>
              <rects>
                <_>
                  1 7 2 1 -1.</_>
                <_>
                  2 7 1 1 2.</_></rects>
              <tilted>0</tilted></feature>
            <threshold>0.0111464299261570</threshold>
            <left_val>0.0805510431528091</left_val>
            <right_val>-0.5426017045974731</right_val></_></_>
        <_>
          <!-- tree 16 -->
          <_>
            <!-- root node -->
            <feature>
              <rects>
                <_>
                  3 3 3 3 -1.</_>
                <_>
                  4 4 1 1 9.</_></rects>
              <tilted>0</tilted></feature>
            <threshold>-0.0878188163042068</threshold>
            <left_val>0.2138669043779373</left_val>
            <right_val>-0.2221401035785675</right_val></_></_>
        <_>
          <!-- tree 17 -->
          <_>
            <!-- root node -->
            <feature>
              <rects>
                <_>
                  0 4 2 1 -1.</_>
                <_>
                  1 4 1 1 2.</_></rects>
              <tilted>0</tilted></feature>
            <threshold>7.0987758226692677e-004</threshold>
            <left_val>-0.1746014058589935</left_val>
            <right_val>0.2640131115913391</right_val></_></_>
        <_>
          <!-- tree 18 -->
          <_>
            <!-- root node -->
            <feature>
              <rects>
                <_>
                  0 4 4 1 -1.</_>
                <_>
                  1 4 2 1 2.</_></rects>
              <tilted>0</tilted></feature>
            <threshold>-0.0266856197267771</threshold>
            <left_val>0.5592122077941895</left_val>
            <right_val>-0.0929624512791634</right_val></_></_>
        <_>
          <!-- tree 19 -->
          <_>
            <!-- root node -->
            <feature>
              <rects>
                <_>
                  3 7 3 1 -1.</_>
                <_>
                  4 7 1 1 3.</_></rects>
              <tilted>0</tilted></feature>
            <threshold>-9.6358265727758408e-003</threshold>
            <left_val>-0.3983671963214874</left_val>
            <right_val>0.0991906672716141</right_val></_></_>
        <_>
          <!-- tree 20 -->
          <_>
            <!-- root node -->
            <feature>
              <rects>
                <_>
                  3 7 2 1 -1.</_>
                <_>
                  4 7 1 1 2.</_></rects>
              <tilted>0</tilted></feature>
            <threshold>0.0108189601451159</threshold>
            <left_val>0.0824826806783676</left_val>
            <right_val>-0.5623648762702942</right_val></_></_>
        <_>
          <!-- tree 21 -->
          <_>
            <!-- root node -->
            <feature>
              <rects>
                <_>
                  2 1 3 7 -1.</_>
                <_>
                  3 1 1 7 3.</_></rects>
              <tilted>0</tilted></feature>
            <threshold>-0.0371638797223568</threshold>
            <left_val>0.2498884052038193</left_val>
            <right_val>-0.2089654058218002</right_val></_></_>
        <_>
          <!-- tree 22 -->
          <_>
            <!-- root node -->
            <feature>
              <rects>
                <_>
                  7 5 1 2 -1.</_>
                <_>
                  7 6 1 1 2.</_></rects>
              <tilted>0</tilted></feature>
            <threshold>5.5308698210865259e-004</threshold>
            <left_val>-0.3159820139408112</left_val>
            <right_val>0.1343948990106583</right_val></_></_>
        <_>
          <!-- tree 23 -->
          <_>
            <!-- root node -->
            <feature>
              <rects>
                <_>
                  0 4 8 4 -1.</_>
                <_>
                  0 6 8 2 2.</_></rects>
              <tilted>0</tilted></feature>
            <threshold>0.8331379294395447</threshold>
            <left_val>0.0530050210654736</left_val>
            <right_val>-0.7734212875366211</right_val></_></_>
        <_>
          <!-- tree 24 -->
          <_>
            <!-- root node -->
            <feature>
              <rects>
                <_>
                  3 4 4 1 -1.</_>
                <_>
                  4 4 2 1 2.</_></rects>
              <tilted>0</tilted></feature>
            <threshold>-0.0408671312034130</threshold>
            <left_val>0.3521350920200348</left_val>
            <right_val>-0.1220918968319893</right_val></_></_>
        <_>
          <!-- tree 25 -->
          <_>
            <!-- root node -->
            <feature>
              <rects>
                <_>
                  5 3 3 2 -1.</_>
                <_>
                  6 3 1 2 3.</_></rects>
              <tilted>0</tilted></feature>
            <threshold>-0.0366329811513424</threshold>
            <left_val>0.4690225124359131</left_val>
            <right_val>-0.0925850421190262</right_val></_></_>
        <_>
          <!-- tree 26 -->
          <_>
            <!-- root node -->
            <feature>
              <rects>
                <_>
                  5 7 3 1 -1.</_>
                <_>
                  6 7 1 1 3.</_></rects>
              <tilted>0</tilted></feature>
            <threshold>-0.0179842393845320</threshold>
            <left_val>-0.5780990719795227</left_val>
            <right_val>0.0756370276212692</right_val></_></_>
        <_>
          <!-- tree 27 -->
          <_>
            <!-- root node -->
            <feature>
              <rects>
                <_>
                  6 4 2 2 -1.</_>
                <_>
                  6 4 1 1 2.</_>
                <_>
                  7 5 1 1 2.</_></rects>
              <tilted>0</tilted></feature>
            <threshold>6.4556481083855033e-004</threshold>
            <left_val>-0.1647007018327713</left_val>
            <right_val>0.2219450026750565</right_val></_></_>
        <_>
          <!-- tree 28 -->
          <_>
            <!-- root node -->
            <feature>
              <rects>
                <_>
                  5 0 3 1 -1.</_>
                <_>
                  6 0 1 1 3.</_></rects>
              <tilted>0</tilted></feature>
            <threshold>0.0150151699781418</threshold>
            <left_val>0.0680384710431099</left_val>
            <right_val>-0.5153036713600159</right_val></_></_></trees>
      <stage_threshold>-1.3447109460830688</stage_threshold>
      <parent>4</parent>
      <next>-1</next></_>
    <_>
      <!-- stage 6 -->
      <trees>
        <_>
          <!-- tree 0 -->
          <_>
            <!-- root node -->
            <feature>
              <rects>
                <_>
                  2 0 4 3 -1.</_>
                <_>
                  2 1 4 1 3.</_></rects>
              <tilted>0</tilted></feature>
            <threshold>0.1155408024787903</threshold>
            <left_val>-0.2039916962385178</left_val>
            <right_val>0.5547930002212524</right_val></_></_>
        <_>
          <!-- tree 1 -->
          <_>
            <!-- root node -->
            <feature>
              <rects>
                <_>
                  5 1 3 4 -1.</_>
                <_>
                  6 2 1 4 3.</_></rects>
              <tilted>1</tilted></feature>
            <threshold>-0.1240731030702591</threshold>
            <left_val>0.2581458091735840</left_val>
            <right_val>-0.3106094896793366</right_val></_></_>
        <_>
          <!-- tree 2 -->
          <_>
            <!-- root node -->
            <feature>
              <rects>
                <_>
                  0 2 3 6 -1.</_>
                <_>
                  0 5 3 3 2.</_></rects>
              <tilted>0</tilted></feature>
            <threshold>0.0392923094332218</threshold>
            <left_val>-0.5202844738960266</left_val>
            <right_val>0.1240689978003502</right_val></_></_>
        <_>
          <!-- tree 3 -->
          <_>
            <!-- root node -->
            <feature>
              <rects>
                <_>
                  2 2 1 3 -1.</_>
                <_>
                  2 3 1 1 3.</_></rects>
              <tilted>0</tilted></feature>
            <threshold>-0.0356477685272694</threshold>
            <left_val>0.3932059109210968</left_val>
            <right_val>-0.1402664035558701</right_val></_></_>
        <_>
          <!-- tree 4 -->
          <_>
            <!-- root node -->
            <feature>
              <rects>
                <_>
                  1 0 6 6 -1.</_>
                <_>
                  3 0 2 6 3.</_></rects>
              <tilted>0</tilted></feature>
            <threshold>-0.0948534533381462</threshold>
            <left_val>0.1550526022911072</left_val>
            <right_val>-0.3431625962257385</right_val></_></_>
        <_>
          <!-- tree 5 -->
          <_>
            <!-- root node -->
            <feature>
              <rects>
                <_>
                  5 7 3 1 -1.</_>
                <_>
                  6 7 1 1 3.</_></rects>
              <tilted>0</tilted></feature>
            <threshold>0.0129647599533200</threshold>
            <left_val>0.0980387926101685</left_val>
            <right_val>-0.5284193158149719</right_val></_></_>
        <_>
          <!-- tree 6 -->
          <_>
            <!-- root node -->
            <feature>
              <rects>
                <_>
                  4 7 2 1 -1.</_>
                <_>
                  5 7 1 1 2.</_></rects>
              <tilted>0</tilted></feature>
            <threshold>-0.0134385395795107</threshold>
            <left_val>-0.7191321849822998</left_val>
            <right_val>0.0877557694911957</right_val></_></_>
        <_>
          <!-- tree 7 -->
          <_>
            <!-- root node -->
            <feature>
              <rects>
                <_>
                  3 0 4 8 -1.</_>
                <_>
                  3 4 4 4 2.</_></rects>
              <tilted>0</tilted></feature>
            <threshold>0.7747108936309815</threshold>
            <left_val>0.0553168505430222</left_val>
            <right_val>-0.7083114981651306</right_val></_></_>
        <_>
          <!-- tree 8 -->
          <_>
            <!-- root node -->
            <feature>
              <rects>
                <_>
                  6 6 1 2 -1.</_>
                <_>
                  6 7 1 1 2.</_></rects>
              <tilted>0</tilted></feature>
            <threshold>4.8230410902760923e-004</threshold>
            <left_val>-0.3245561122894287</left_val>
            <right_val>0.1609338968992233</right_val></_></_>
        <_>
          <!-- tree 9 -->
          <_>
            <!-- root node -->
            <feature>
              <rects>
                <_>
                  2 7 4 1 -1.</_>
                <_>
                  3 7 2 1 2.</_></rects>
              <tilted>0</tilted></feature>
            <threshold>-0.0168610308319330</threshold>
            <left_val>-0.5303593277931213</left_val>
            <right_val>0.0865663066506386</right_val></_></_>
        <_>
          <!-- tree 10 -->
          <_>
            <!-- root node -->
            <feature>
              <rects>
                <_>
                  5 2 3 1 -1.</_>
                <_>
                  6 3 1 1 3.</_></rects>
              <tilted>1</tilted></feature>
            <threshold>-0.0955041497945786</threshold>
            <left_val>0.4525546133518219</left_val>
            <right_val>-0.1083967015147209</right_val></_></_>
        <_>
          <!-- tree 11 -->
          <_>
            <!-- root node -->
            <feature>
              <rects>
                <_>
                  2 7 2 1 -1.</_>
                <_>
                  3 7 1 1 2.</_></rects>
              <tilted>0</tilted></feature>
            <threshold>9.8546538501977921e-003</threshold>
            <left_val>0.0916453525424004</left_val>
            <right_val>-0.5648440718650818</right_val></_></_>
        <_>
          <!-- tree 12 -->
          <_>
            <!-- root node -->
            <feature>
              <rects>
                <_>
                  5 3 3 2 -1.</_>
                <_>
                  6 3 1 2 3.</_></rects>
              <tilted>0</tilted></feature>
            <threshold>-0.0358137413859367</threshold>
            <left_val>0.4507158100605011</left_val>
            <right_val>-0.1072582006454468</right_val></_></_>
        <_>
          <!-- tree 13 -->
          <_>
            <!-- root node -->
            <feature>
              <rects>
                <_>
                  3 0 3 2 -1.</_>
                <_>
                  4 0 1 2 3.</_></rects>
              <tilted>0</tilted></feature>
            <threshold>-0.0282112993299961</threshold>
            <left_val>-0.5997589826583862</left_val>
            <right_val>0.0734321475028992</right_val></_></_>
        <_>
          <!-- tree 14 -->
          <_>
            <!-- root node -->
            <feature>
              <rects>
                <_>
                  1 3 3 2 -1.</_>
                <_>
                  2 3 1 2 3.</_></rects>
              <tilted>0</tilted></feature>
            <threshold>0.0652381032705307</threshold>
            <left_val>-0.0939167514443398</left_val>
            <right_val>0.5187230706214905</right_val></_></_>
        <_>
          <!-- tree 15 -->
          <_>
            <!-- root node -->
            <feature>
              <rects>
                <_>
                  1 4 3 1 -1.</_>
                <_>
                  2 4 1 1 3.</_></rects>
              <tilted>0</tilted></feature>
            <threshold>-0.0175812095403671</threshold>
            <left_val>0.4157718122005463</left_val>
            <right_val>-0.1198906004428864</right_val></_></_>
        <_>
          <!-- tree 16 -->
          <_>
            <!-- root node -->
            <feature>
              <rects>
                <_>
                  3 0 3 1 -1.</_>
                <_>
                  4 0 1 1 3.</_></rects>
              <tilted>0</tilted></feature>
            <threshold>0.0190517697483301</threshold>
            <left_val>0.0797226428985596</left_val>
            <right_val>-0.6938732862472534</right_val></_></_>
        <_>
          <!-- tree 17 -->
          <_>
            <!-- root node -->
            <feature>
              <rects>
                <_>
                  6 4 2 1 -1.</_>
                <_>
                  7 4 1 1 2.</_></rects>
              <tilted>0</tilted></feature>
            <threshold>-6.5694202203303576e-004</threshold>
            <left_val>0.2328141033649445</left_val>
            <right_val>-0.1810438930988312</right_val></_></_>
        <_>
          <!-- tree 18 -->
          <_>
            <!-- root node -->
            <feature>
              <rects>
                <_>
                  4 2 4 3 -1.</_>
                <_>
                  6 2 2 3 2.</_></rects>
              <tilted>0</tilted></feature>
            <threshold>4.9765710718929768e-003</threshold>
            <left_val>-0.3714934885501862</left_val>
            <right_val>0.1114607974886894</right_val></_></_>
        <_>
          <!-- tree 19 -->
          <_>
            <!-- root node -->
            <feature>
              <rects>
                <_>
                  1 5 2 2 -1.</_>
                <_>
                  1 5 1 1 2.</_>
                <_>
                  2 6 1 1 2.</_></rects>
              <tilted>0</tilted></feature>
            <threshold>-5.2848662016913295e-004</threshold>
            <left_val>0.2400992065668106</left_val>
            <right_val>-0.1633840948343277</right_val></_></_>
        <_>
          <!-- tree 20 -->
          <_>
            <!-- root node -->
            <feature>
              <rects>
                <_>
                  0 5 2 1 -1.</_>
                <_>
                  1 5 1 1 2.</_></rects>
              <tilted>0</tilted></feature>
            <threshold>4.5724090887233615e-004</threshold>
            <left_val>-0.1797190010547638</left_val>
            <right_val>0.2246253043413162</right_val></_></_>
        <_>
          <!-- tree 21 -->
          <_>
            <!-- root node -->
            <feature>
              <rects>
                <_>
                  1 5 2 1 -1.</_>
                <_>
                  1 5 1 1 2.</_></rects>
              <tilted>1</tilted></feature>
            <threshold>-0.0410111211240292</threshold>
            <left_val>-0.4490956962108612</left_val>
            <right_val>0.1081897020339966</right_val></_></_>
        <_>
          <!-- tree 22 -->
          <_>
            <!-- root node -->
            <feature>
              <rects>
                <_>
                  3 0 3 3 -1.</_>
                <_>
                  3 1 3 1 3.</_></rects>
              <tilted>0</tilted></feature>
            <threshold>-0.0561566688120365</threshold>
            <left_val>0.5079038739204407</left_val>
            <right_val>-0.0898280665278435</right_val></_></_>
        <_>
          <!-- tree 23 -->
          <_>
            <!-- root node -->
            <feature>
              <rects>
                <_>
                  7 0 1 8 -1.</_>
                <_>
                  7 4 1 4 2.</_></rects>
              <tilted>0</tilted></feature>
            <threshold>-0.0866213068366051</threshold>
            <left_val>-0.6156284213066101</left_val>
            <right_val>0.0673877224326134</right_val></_></_>
        <_>
          <!-- tree 24 -->
          <_>
            <!-- root node -->
            <feature>
              <rects>
                <_>
                  0 6 1 2 -1.</_>
                <_>
                  0 7 1 1 2.</_></rects>
              <tilted>0</tilted></feature>
            <threshold>6.0797261539846659e-004</threshold>
            <left_val>-0.2516962885856628</left_val>
            <right_val>0.1460455954074860</right_val></_></_>
        <_>
          <!-- tree 25 -->
          <_>
            <!-- root node -->
            <feature>
              <rects>
                <_>
                  1 1 3 6 -1.</_>
                <_>
                  1 4 3 3 2.</_></rects>
              <tilted>0</tilted></feature>
            <threshold>0.4026009142398834</threshold>
            <left_val>0.0543212890625000</left_val>
            <right_val>-0.6279301047325134</right_val></_></_>
        <_>
          <!-- tree 26 -->
          <_>
            <!-- root node -->
            <feature>
              <rects>
                <_>
                  6 6 2 2 -1.</_>
                <_>
                  7 6 1 2 2.</_></rects>
              <tilted>0</tilted></feature>
            <threshold>0.0257523506879807</threshold>
            <left_val>0.0806297734379768</left_val>
            <right_val>-0.4435814023017883</right_val></_></_>
        <_>
          <!-- tree 27 -->
          <_>
            <!-- root node -->
            <feature>
              <rects>
                <_>
                  0 3 3 2 -1.</_>
                <_>
                  1 3 1 2 3.</_></rects>
              <tilted>0</tilted></feature>
            <threshold>-0.0440708808600903</threshold>
            <left_val>0.4541285037994385</left_val>
            <right_val>-0.0826276466250420</right_val></_></_>
        <_>
          <!-- tree 28 -->
          <_>
            <!-- root node -->
            <feature>
              <rects>
                <_>
                  4 1 3 3 -1.</_>
                <_>
                  3 2 3 1 3.</_></rects>
              <tilted>1</tilted></feature>
            <threshold>-0.1211827024817467</threshold>
            <left_val>0.1882289052009583</left_val>
            <right_val>-0.2085227966308594</right_val></_></_>
        <_>
          <!-- tree 29 -->
          <_>
            <!-- root node -->
            <feature>
              <rects>
                <_>
                  5 0 3 2 -1.</_>
                <_>
                  6 0 1 2 3.</_></rects>
              <tilted>0</tilted></feature>
            <threshold>0.0207354705780745</threshold>
            <left_val>0.0783023163676262</left_val>
            <right_val>-0.5051844716072083</right_val></_></_>
        <_>
          <!-- tree 30 -->
          <_>
            <!-- root node -->
            <feature>
              <rects>
                <_>
                  2 1 4 3 -1.</_>
                <_>
                  2 2 4 1 3.</_></rects>
              <tilted>0</tilted></feature>
            <threshold>-0.1681042015552521</threshold>
            <left_val>0.5293772220611572</left_val>
            <right_val>-0.0760429725050926</right_val></_></_></trees>
      <stage_threshold>-1.2028030157089233</stage_threshold>
      <parent>5</parent>
      <next>-1</next></_>
    <_>
      <!-- stage 7 -->
      <trees>
        <_>
          <!-- tree 0 -->
          <_>
            <!-- root node -->
            <feature>
              <rects>
                <_>
                  2 1 3 6 -1.</_>
                <_>
                  3 3 1 2 9.</_></rects>
              <tilted>0</tilted></feature>
            <threshold>-0.3782956898212433</threshold>
            <left_val>0.2619878053665161</left_val>
            <right_val>-0.2771686017513275</right_val></_></_>
        <_>
          <!-- tree 1 -->
          <_>
            <!-- root node -->
            <feature>
              <rects>
                <_>
                  5 0 3 2 -1.</_>
                <_>
                  6 0 1 2 3.</_></rects>
              <tilted>0</tilted></feature>
            <threshold>-0.0315573289990425</threshold>
            <left_val>-0.6040999293327332</left_val>
            <right_val>0.0955871567130089</right_val></_></_>
        <_>
          <!-- tree 2 -->
          <_>
            <!-- root node -->
            <feature>
              <rects>
                <_>
                  5 1 2 2 -1.</_>
                <_>
                  5 1 1 1 2.</_>
                <_>
                  6 2 1 1 2.</_></rects>
              <tilted>0</tilted></feature>
            <threshold>6.0096092056483030e-004</threshold>
            <left_val>-0.2510001063346863</left_val>
            <right_val>0.2192333936691284</right_val></_></_>
        <_>
          <!-- tree 3 -->
          <_>
            <!-- root node -->
            <feature>
              <rects>
                <_>
                  6 2 2 1 -1.</_>
                <_>
                  7 2 1 1 2.</_></rects>
              <tilted>0</tilted></feature>
            <threshold>1.7761929484549910e-004</threshold>
            <left_val>-0.2440825998783112</left_val>
            <right_val>0.1947125047445297</right_val></_></_>
        <_>
          <!-- tree 4 -->
          <_>
            <!-- root node -->
            <feature>
              <rects>
                <_>
                  5 0 2 3 -1.</_>
                <_>
                  6 0 1 3 2.</_></rects>
              <tilted>0</tilted></feature>
            <threshold>0.0376425087451935</threshold>
            <left_val>0.0694743767380714</left_val>
            <right_val>-0.5326461791992188</right_val></_></_>
        <_>
          <!-- tree 5 -->
          <_>
            <!-- root node -->
            <feature>
              <rects>
                <_>
                  5 4 3 1 -1.</_>
                <_>
                  6 4 1 1 3.</_></rects>
              <tilted>0</tilted></feature>
            <threshold>0.0369628705084324</threshold>
            <left_val>-0.0910248681902885</left_val>
            <right_val>0.4434351921081543</right_val></_></_>
        <_>
          <!-- tree 6 -->
          <_>
            <!-- root node -->
            <feature>
              <rects>
                <_>
                  7 1 1 2 -1.</_>
                <_>
                  7 2 1 1 2.</_></rects>
              <tilted>0</tilted></feature>
            <threshold>-2.3220629373099655e-004</threshold>
            <left_val>0.1983980983495712</left_val>
            <right_val>-0.2377257943153381</right_val></_></_>
        <_>
          <!-- tree 7 -->
          <_>
            <!-- root node -->
            <feature>
              <rects>
                <_>
                  5 1 2 3 -1.</_>
                <_>
                  5 2 2 1 3.</_></rects>
              <tilted>0</tilted></feature>
            <threshold>0.0483188182115555</threshold>
            <left_val>-0.0940408110618591</left_val>
            <right_val>0.4828140139579773</right_val></_></_>
        <_>
          <!-- tree 8 -->
          <_>
            <!-- root node -->
            <feature>
              <rects>
                <_>
                  1 3 1 2 -1.</_>
                <_>
                  1 4 1 1 2.</_></rects>
              <tilted>0</tilted></feature>
            <threshold>5.7797122281044722e-004</threshold>
            <left_val>-0.3012220859527588</left_val>
            <right_val>0.1649633944034576</right_val></_></_>
        <_>
          <!-- tree 9 -->
          <_>
            <!-- root node -->
            <feature>
              <rects>
                <_>
                  4 0 3 2 -1.</_>
                <_>
                  5 0 1 2 3.</_></rects>
              <tilted>0</tilted></feature>
            <threshold>0.0216630902141333</threshold>
            <left_val>0.0810508504509926</left_val>
            <right_val>-0.5469701886177063</right_val></_></_>
        <_>
          <!-- tree 10 -->
          <_>
            <!-- root node -->
            <feature>
              <rects>
                <_>
                  3 0 3 3 -1.</_>
                <_>
                  3 1 3 1 3.</_></rects>
              <tilted>0</tilted></feature>
            <threshold>0.1215455979108810</threshold>
            <left_val>-0.1121981963515282</left_val>
            <right_val>0.4219827055931091</right_val></_></_>
        <_>
          <!-- tree 11 -->
          <_>
            <!-- root node -->
            <feature>
              <rects>
                <_>
                  6 6 2 2 -1.</_>
                <_>
                  7 6 1 2 2.</_></rects>
              <tilted>0</tilted></feature>
            <threshold>-0.0236085504293442</threshold>
            <left_val>-0.5808824896812439</left_val>
            <right_val>0.0788652002811432</right_val></_></_>
        <_>
          <!-- tree 12 -->
          <_>
            <!-- root node -->
            <feature>
              <rects>
                <_>
                  1 0 3 2 -1.</_>
                <_>
                  2 0 1 2 3.</_></rects>
              <tilted>0</tilted></feature>
            <threshold>0.0242232102900743</threshold>
            <left_val>0.0689090862870216</left_val>
            <right_val>-0.5586134791374207</right_val></_></_>
        <_>
          <!-- tree 13 -->
          <_>
            <!-- root node -->
            <feature>
              <rects>
                <_>
                  2 0 2 2 -1.</_>
                <_>
                  3 0 1 2 2.</_></rects>
              <tilted>0</tilted></feature>
            <threshold>0.0338413901627064</threshold>
            <left_val>0.0542957596480846</left_val>
            <right_val>-0.7437266707420349</right_val></_></_>
        <_>
          <!-- tree 14 -->
          <_>
            <!-- root node -->
            <feature>
              <rects>
                <_>
                  3 2 3 4 -1.</_>
                <_>
                  4 2 1 4 3.</_></rects>
              <tilted>0</tilted></feature>
            <threshold>-0.0591321885585785</threshold>
            <left_val>0.2330722063779831</left_val>
            <right_val>-0.1892115026712418</right_val></_></_>
        <_>
          <!-- tree 15 -->
          <_>
            <!-- root node -->
            <feature>
              <rects>
                <_>
                  3 6 2 1 -1.</_>
                <_>
                  4 6 1 1 2.</_></rects>
              <tilted>0</tilted></feature>
            <threshold>-0.0100102499127388</threshold>
            <left_val>-0.4412150084972382</left_val>
            <right_val>0.1060201972723007</right_val></_></_>
        <_>
          <!-- tree 16 -->
          <_>
            <!-- root node -->
            <feature>
              <rects>
                <_>
                  3 7 2 1 -1.</_>
                <_>
                  4 7 1 1 2.</_></rects>
              <tilted>0</tilted></feature>
            <threshold>0.0105162197723985</threshold>
            <left_val>0.0674036666750908</left_val>
            <right_val>-0.5369943976402283</right_val></_></_>
        <_>
          <!-- tree 17 -->
          <_>
            <!-- root node -->
            <feature>
              <rects>
                <_>
                  3 6 2 2 -1.</_>
                <_>
                  3 6 1 1 2.</_>
                <_>
                  4 7 1 1 2.</_></rects>
              <tilted>0</tilted></feature>
            <threshold>-0.0177901294082403</threshold>
            <left_val>-0.7015830278396606</left_val>
            <right_val>0.0497096292674541</right_val></_></_>
        <_>
          <!-- tree 18 -->
          <_>
            <!-- root node -->
            <feature>
              <rects>
                <_>
                  4 2 2 3 -1.</_>
                <_>
                  3 3 2 1 3.</_></rects>
              <tilted>1</tilted></feature>
            <threshold>-0.1213861033320427</threshold>
            <left_val>0.3412308096885681</left_val>
            <right_val>-0.1256331950426102</right_val></_></_>
        <_>
          <!-- tree 19 -->
          <_>
            <!-- root node -->
            <feature>
              <rects>
                <_>
                  0 0 3 1 -1.</_>
                <_>
                  1 0 1 1 3.</_></rects>
              <tilted>0</tilted></feature>
            <threshold>0.0154752200469375</threshold>
            <left_val>0.0802568420767784</left_val>
            <right_val>-0.4370473027229309</right_val></_></_>
        <_>
          <!-- tree 20 -->
          <_>
            <!-- root node -->
            <feature>
              <rects>
                <_>
                  0 0 5 8 -1.</_>
                <_>
                  0 4 5 4 2.</_></rects>
              <tilted>0</tilted></feature>
            <threshold>0.7827696800231934</threshold>
            <left_val>0.0785734131932259</left_val>
            <right_val>-0.4274855852127075</right_val></_></_>
        <_>
          <!-- tree 21 -->
          <_>
            <!-- root node -->
            <feature>
              <rects>
                <_>
                  4 0 2 8 -1.</_>
                <_>
                  4 4 2 4 2.</_></rects>
              <tilted>0</tilted></feature>
            <threshold>-0.0993069633841515</threshold>
            <left_val>-0.5086132287979126</left_val>
            <right_val>0.0743100121617317</right_val></_></_>
        <_>
          <!-- tree 22 -->
          <_>
            <!-- root node -->
            <feature>
              <rects>
                <_>
                  0 5 2 2 -1.</_>
                <_>
                  0 5 1 1 2.</_>
                <_>
                  1 6 1 1 2.</_></rects>
              <tilted>0</tilted></feature>
            <threshold>-5.0615362124517560e-004</threshold>
            <left_val>0.1960750967264175</left_val>
            <right_val>-0.1799360066652298</right_val></_></_>
        <_>
          <!-- tree 23 -->
          <_>
            <!-- root node -->
            <feature>
              <rects>
                <_>
                  0 4 3 1 -1.</_>
                <_>
                  1 4 1 1 3.</_></rects>
              <tilted>0</tilted></feature>
            <threshold>-0.0183681193739176</threshold>
            <left_val>0.3620175123214722</left_val>
            <right_val>-0.1035659983754158</right_val></_></_>
        <_>
          <!-- tree 24 -->
          <_>
            <!-- root node -->
            <feature>
              <rects>
                <_>
                  0 4 2 2 -1.</_>
                <_>
                  0 4 1 1 2.</_>
                <_>
                  1 5 1 1 2.</_></rects>
              <tilted>0</tilted></feature>
            <threshold>-1.9904259534087032e-004</threshold>
            <left_val>0.2615377902984619</left_val>
            <right_val>-0.1814341992139816</right_val></_></_>
        <_>
          <!-- tree 25 -->
          <_>
            <!-- root node -->
            <feature>
              <rects>
                <_>
                  0 7 2 1 -1.</_>
                <_>
                  1 7 1 1 2.</_></rects>
              <tilted>0</tilted></feature>
            <threshold>-0.0115087497979403</threshold>
            <left_val>-0.3448902070522308</left_val>
            <right_val>0.1087227985262871</right_val></_></_>
        <_>
          <!-- tree 26 -->
          <_>
            <!-- root node -->
            <feature>
              <rects>
                <_>
                  1 3 4 1 -1.</_>
                <_>
                  1 3 2 1 2.</_></rects>
              <tilted>1</tilted></feature>
            <threshold>-0.2033085972070694</threshold>
            <left_val>-0.7389249801635742</left_val>
            <right_val>0.0471440404653549</right_val></_></_>
        <_>
          <!-- tree 27 -->
          <_>
            <!-- root node -->
            <feature>
              <rects>
                <_>
                  0 7 3 1 -1.</_>
                <_>
                  1 7 1 1 3.</_></rects>
              <tilted>0</tilted></feature>
            <threshold>0.0121773304417729</threshold>
            <left_val>0.0717027634382248</left_val>
            <right_val>-0.4452512860298157</right_val></_></_>
        <_>
          <!-- tree 28 -->
          <_>
            <!-- root node -->
            <feature>
              <rects>
                <_>
                  5 3 3 3 -1.</_>
                <_>
                  6 4 1 1 9.</_></rects>
              <tilted>0</tilted></feature>
            <threshold>-0.1035799980163574</threshold>
            <left_val>0.3520607948303223</left_val>
            <right_val>-0.1034127026796341</right_val></_></_>
        <_>
          <!-- tree 29 -->
          <_>
            <!-- root node -->
            <feature>
              <rects>
                <_>
                  0 0 2 2 -1.</_>
                <_>
                  0 0 1 1 2.</_>
                <_>
                  1 1 1 1 2.</_></rects>
              <tilted>0</tilted></feature>
            <threshold>-5.4792629089206457e-004</threshold>
            <left_val>0.2053747028112412</left_val>
            <right_val>-0.1689288020133972</right_val></_></_>
        <_>
          <!-- tree 30 -->
          <_>
            <!-- root node -->
            <feature>
              <rects>
                <_>
                  3 0 3 1 -1.</_>
                <_>
                  4 0 1 1 3.</_></rects>
              <tilted>0</tilted></feature>
            <threshold>9.4103794544935226e-003</threshold>
            <left_val>0.0817772522568703</left_val>
            <right_val>-0.3464421033859253</right_val></_></_>
        <_>
          <!-- tree 31 -->
          <_>
            <!-- root node -->
            <feature>
              <rects>
                <_>
                  2 0 2 1 -1.</_>
                <_>
                  3 0 1 1 2.</_></rects>
              <tilted>0</tilted></feature>
            <threshold>6.4013537485152483e-004</threshold>
            <left_val>-0.1409406960010529</left_val>
            <right_val>0.2098574936389923</right_val></_></_>
        <_>
          <!-- tree 32 -->
          <_>
            <!-- root node -->
            <feature>
              <rects>
                <_>
                  2 0 3 2 -1.</_>
                <_>
                  3 0 1 2 3.</_></rects>
              <tilted>0</tilted></feature>
            <threshold>0.0180879794061184</threshold>
            <left_val>0.0859247520565987</left_val>
            <right_val>-0.4000242054462433</right_val></_></_>
        <_>
          <!-- tree 33 -->
          <_>
            <!-- root node -->
            <feature>
              <rects>
                <_>
                  3 2 3 3 -1.</_>
                <_>
                  4 3 1 1 9.</_></rects>
              <tilted>0</tilted></feature>
            <threshold>-0.1466570943593979</threshold>
            <left_val>0.2432043999433518</left_val>
            <right_val>-0.1368853002786636</right_val></_></_>
        <_>
          <!-- tree 34 -->
          <_>
            <!-- root node -->
            <feature>
              <rects>
                <_>
                  5 3 2 2 -1.</_>
                <_>
                  5 3 1 1 2.</_>
                <_>
                  6 4 1 1 2.</_></rects>
              <tilted>0</tilted></feature>
            <threshold>3.0239470652304590e-004</threshold>
            <left_val>-0.1607512980699539</left_val>
            <right_val>0.1951010972261429</right_val></_></_>
        <_>
          <!-- tree 35 -->
          <_>
            <!-- root node -->
            <feature>
              <rects>
                <_>
                  4 6 2 1 -1.</_>
                <_>
                  5 6 1 1 2.</_></rects>
              <tilted>0</tilted></feature>
            <threshold>0.0124416602775455</threshold>
            <left_val>0.0816833972930908</left_val>
            <right_val>-0.3945949077606201</right_val></_></_>
        <_>
          <!-- tree 36 -->
          <_>
            <!-- root node -->
            <feature>
              <rects>
                <_>
                  0 2 8 6 -1.</_>
                <_>
                  2 2 4 6 2.</_></rects>
              <tilted>0</tilted></feature>
            <threshold>-1.0674200057983398</threshold>
            <left_val>0.6796277165412903</left_val>
            <right_val>-0.0509721599519253</right_val></_></_>
        <_>
          <!-- tree 37 -->
          <_>
            <!-- root node -->
            <feature>
              <rects>
                <_>
                  4 6 3 1 -1.</_>
                <_>
                  5 6 1 1 3.</_></rects>
              <tilted>0</tilted></feature>
            <threshold>-0.0103162201121449</threshold>
            <left_val>-0.3144145905971527</left_val>
            <right_val>0.1029108017683029</right_val></_></_>
        <_>
          <!-- tree 38 -->
          <_>
            <!-- root node -->
            <feature>
              <rects>
                <_>
                  5 4 2 2 -1.</_>
                <_>
                  5 4 1 1 2.</_>
                <_>
                  6 5 1 1 2.</_></rects>
              <tilted>0</tilted></feature>
            <threshold>6.5848411759361625e-004</threshold>
            <left_val>-0.1405998021364212</left_val>
            <right_val>0.2426408976316452</right_val></_></_></trees>
      <stage_threshold>-1.2177840471267700</stage_threshold>
      <parent>6</parent>
      <next>-1</next></_>
    <_>
      <!-- stage 8 -->
      <trees>
        <_>
          <!-- tree 0 -->
          <_>
            <!-- root node -->
            <feature>
              <rects>
                <_>
                  4 4 1 4 -1.</_>
                <_>
                  4 6 1 2 2.</_></rects>
              <tilted>0</tilted></feature>
            <threshold>0.0376127287745476</threshold>
            <left_val>-0.6255223751068115</left_val>
            <right_val>0.3729459941387177</right_val></_></_>
        <_>
          <!-- tree 1 -->
          <_>
            <!-- root node -->
            <feature>
              <rects>
                <_>
                  1 2 6 3 -1.</_>
                <_>
                  3 2 2 3 3.</_></rects>
              <tilted>0</tilted></feature>
            <threshold>-0.1012075990438461</threshold>
            <left_val>0.2797445058822632</left_val>
            <right_val>-0.4655573964118958</right_val></_></_>
        <_>
          <!-- tree 2 -->
          <_>
            <!-- root node -->
            <feature>
              <rects>
                <_>
                  7 6 1 2 -1.</_>
                <_>
                  7 7 1 1 2.</_></rects>
              <tilted>0</tilted></feature>
            <threshold>2.0255050621926785e-003</threshold>
            <left_val>-0.3426406979560852</left_val>
            <right_val>0.2543706893920898</right_val></_></_>
        <_>
          <!-- tree 3 -->
          <_>
            <!-- root node -->
            <feature>
              <rects>
                <_>
                  5 3 2 2 -1.</_>
                <_>
                  5 4 2 1 2.</_></rects>
              <tilted>0</tilted></feature>
            <threshold>8.8554818648844957e-004</threshold>
            <left_val>-0.3632260859012604</left_val>
            <right_val>0.2241238951683044</right_val></_></_>
        <_>
          <!-- tree 4 -->
          <_>
            <!-- root node -->
            <feature>
              <rects>
                <_>
                  1 3 7 4 -1.</_>
                <_>
                  1 4 7 2 2.</_></rects>
              <tilted>0</tilted></feature>
            <threshold>0.3539524972438812</threshold>
            <left_val>0.0226889103651047</left_val>
            <right_val>-0.9589372277259827</right_val></_></_>
        <_>
          <!-- tree 5 -->
          <_>
            <!-- root node -->
            <feature>
              <rects>
                <_>
                  1 7 3 1 -1.</_>
                <_>
                  2 7 1 1 3.</_></rects>
              <tilted>0</tilted></feature>
            <threshold>0.0133647499606013</threshold>
            <left_val>0.0956006571650505</left_val>
            <right_val>-0.6152750253677368</right_val></_></_>
        <_>
          <!-- tree 6 -->
          <_>
            <!-- root node -->
            <feature>
              <rects>
                <_>
                  0 2 3 3 -1.</_>
                <_>
                  0 3 3 1 3.</_></rects>
              <tilted>0</tilted></feature>
            <threshold>-0.0114367799833417</threshold>
            <left_val>0.1573463976383209</left_val>
            <right_val>-0.2746927142143250</right_val></_></_>
        <_>
          <!-- tree 7 -->
          <_>
            <!-- root node -->
            <feature>
              <rects>
                <_>
                  2 6 3 2 -1.</_>
                <_>
                  3 6 1 2 3.</_></rects>
              <tilted>0</tilted></feature>
            <threshold>0.0387126617133617</threshold>
            <left_val>0.0387467294931412</left_val>
            <right_val>-0.9275771975517273</right_val></_></_>
        <_>
          <!-- tree 8 -->
          <_>
            <!-- root node -->
            <feature>
              <rects>
                <_>
                  3 6 3 2 -1.</_>
                <_>
                  4 6 1 2 3.</_></rects>
              <tilted>0</tilted></feature>
            <threshold>0.0255095995962620</threshold>
            <left_val>0.0513005405664444</left_val>
            <right_val>-0.7199990749359131</right_val></_></_>
        <_>
          <!-- tree 9 -->
          <_>
            <!-- root node -->
            <feature>
              <rects>
                <_>
                  3 3 3 2 -1.</_>
                <_>
                  4 3 1 2 3.</_></rects>
              <tilted>0</tilted></feature>
            <threshold>0.0453971810638905</threshold>
            <left_val>-0.0671769529581070</left_val>
            <right_val>0.7469124197959900</right_val></_></_>
        <_>
          <!-- tree 10 -->
          <_>
            <!-- root node -->
            <feature>
              <rects>
                <_>
                  7 6 1 2 -1.</_>
                <_>
                  7 7 1 1 2.</_></rects>
              <tilted>0</tilted></feature>
            <threshold>0.0374941006302834</threshold>
            <left_val>0.0622794702649117</left_val>
            <right_val>-0.8371313214302063</right_val></_></_>
        <_>
          <!-- tree 11 -->
          <_>
            <!-- root node -->
            <feature>
              <rects>
                <_>
                  0 4 2 2 -1.</_>
                <_>
                  1 4 1 2 2.</_></rects>
              <tilted>0</tilted></feature>
            <threshold>9.6606640145182610e-003</threshold>
            <left_val>-0.1620381027460098</left_val>
            <right_val>0.2682887911796570</right_val></_></_>
        <_>
          <!-- tree 12 -->
          <_>
            <!-- root node -->
            <feature>
              <rects>
                <_>
                  4 6 3 2 -1.</_>
                <_>
                  5 6 1 2 3.</_></rects>
              <tilted>0</tilted></feature>
            <threshold>0.0205860696732998</threshold>
            <left_val>0.0779822766780853</left_val>
            <right_val>-0.5545821189880371</right_val></_></_>
        <_>
          <!-- tree 13 -->
          <_>
            <!-- root node -->
            <feature>
              <rects>
                <_>
                  3 0 3 3 -1.</_>
                <_>
                  3 1 3 1 3.</_></rects>
              <tilted>0</tilted></feature>
            <threshold>0.0325646400451660</threshold>
            <left_val>-0.1959211975336075</left_val>
            <right_val>0.2009585946798325</right_val></_></_>
        <_>
          <!-- tree 14 -->
          <_>
            <!-- root node -->
            <feature>
              <rects>
                <_>
                  2 1 1 2 -1.</_>
                <_>
                  2 1 1 1 2.</_></rects>
              <tilted>1</tilted></feature>
            <threshold>0.0545243807137012</threshold>
            <left_val>0.0701104924082756</left_val>
            <right_val>-0.5980846881866455</right_val></_></_>
        <_>
          <!-- tree 15 -->
          <_>
            <!-- root node -->
            <feature>
              <rects>
                <_>
                  3 2 3 3 -1.</_>
                <_>
                  4 3 1 1 9.</_></rects>
              <tilted>0</tilted></feature>
            <threshold>-0.0966317877173424</threshold>
            <left_val>0.1980686932802200</left_val>
            <right_val>-0.1905490010976791</right_val></_></_>
        <_>
          <!-- tree 16 -->
          <_>
            <!-- root node -->
            <feature>
              <rects>
                <_>
                  5 2 3 2 -1.</_>
                <_>
                  6 3 1 2 3.</_></rects>
              <tilted>1</tilted></feature>
            <threshold>-0.1582120954990387</threshold>
            <left_val>0.3622885942459106</left_val>
            <right_val>-0.1037248000502586</right_val></_></_>
        <_>
          <!-- tree 17 -->
          <_>
            <!-- root node -->
            <feature>
              <rects>
                <_>
                  1 0 3 1 -1.</_>
                <_>
                  2 0 1 1 3.</_></rects>
              <tilted>0</tilted></feature>
            <threshold>-0.0198068395256996</threshold>
            <left_val>-0.5279263854026794</left_val>
            <right_val>0.0699982270598412</right_val></_></_>
        <_>
          <!-- tree 18 -->
          <_>
            <!-- root node -->
            <feature>
              <rects>
                <_>
                  1 3 3 2 -1.</_>
                <_>
                  2 3 1 2 3.</_></rects>
              <tilted>0</tilted></feature>
            <threshold>-0.0294795706868172</threshold>
            <left_val>0.3278202116489410</left_val>
            <right_val>-0.1144748032093048</right_val></_></_>
        <_>
          <!-- tree 19 -->
          <_>
            <!-- root node -->
            <feature>
              <rects>
                <_>
                  0 4 3 2 -1.</_>
                <_>
                  1 4 1 2 3.</_></rects>
              <tilted>0</tilted></feature>
            <threshold>-0.0142308697104454</threshold>
            <left_val>0.3061563074588776</left_val>
            <right_val>-0.1191957965493202</right_val></_></_>
        <_>
          <!-- tree 20 -->
          <_>
            <!-- root node -->
            <feature>
              <rects>
                <_>
                  0 4 8 3 -1.</_>
                <_>
                  0 5 8 1 3.</_></rects>
              <tilted>0</tilted></feature>
            <threshold>-0.2700287997722626</threshold>
            <left_val>-0.9468560814857483</left_val>
            <right_val>0.0398908406496048</right_val></_></_>
        <_>
          <!-- tree 21 -->
          <_>
            <!-- root node -->
            <feature>
              <rects>
                <_>
                  1 0 2 3 -1.</_>
                <_>
                  2 0 1 3 2.</_></rects>
              <tilted>0</tilted></feature>
            <threshold>0.0377406403422356</threshold>
            <left_val>0.0412980988621712</left_val>
            <right_val>-0.6340919733047485</right_val></_></_></trees>
      <stage_threshold>-1.4097399711608887</stage_threshold>
      <parent>7</parent>
      <next>-1</next></_>
    <_>
      <!-- stage 9 -->
      <trees>
        <_>
          <!-- tree 0 -->
          <_>
            <!-- root node -->
            <feature>
              <rects>
                <_>
                  1 3 6 2 -1.</_>
                <_>
                  3 3 2 2 3.</_></rects>
              <tilted>0</tilted></feature>
            <threshold>-0.0898924767971039</threshold>
            <left_val>0.3897714018821716</left_val>
            <right_val>-0.5127980113029480</right_val></_></_>
        <_>
          <!-- tree 1 -->
          <_>
            <!-- root node -->
            <feature>
              <rects>
                <_>
                  5 5 1 2 -1.</_>
                <_>
                  5 5 1 1 2.</_></rects>
              <tilted>1</tilted></feature>
            <threshold>6.1067678034305573e-003</threshold>
            <left_val>0.1864967942237854</left_val>
            <right_val>-0.6893925070762634</right_val></_></_>
        <_>
          <!-- tree 2 -->
          <_>
            <!-- root node -->
            <feature>
              <rects>
                <_>
                  0 4 8 4 -1.</_>
                <_>
                  0 5 8 2 2.</_></rects>
              <tilted>0</tilted></feature>
            <threshold>0.4431923031806946</threshold>
            <left_val>0.0482731610536575</left_val>
            <right_val>-0.9270911216735840</right_val></_></_>
        <_>
          <!-- tree 3 -->
          <_>
            <!-- root node -->
            <feature>
              <rects>
                <_>
                  1 2 7 6 -1.</_>
                <_>
                  1 4 7 2 3.</_></rects>
              <tilted>0</tilted></feature>
            <threshold>0.6023272275924683</threshold>
            <left_val>0.0682541728019714</left_val>
            <right_val>-0.8766376972198486</right_val></_></_>
        <_>
          <!-- tree 4 -->
          <_>
            <!-- root node -->
            <feature>
              <rects>
                <_>
                  3 7 3 1 -1.</_>
                <_>
                  4 7 1 1 3.</_></rects>
              <tilted>0</tilted></feature>
            <threshold>-0.0115385297685862</threshold>
            <left_val>-0.6055182814598084</left_val>
            <right_val>0.0993945971131325</right_val></_></_>
        <_>
          <!-- tree 5 -->
          <_>
            <!-- root node -->
            <feature>
              <rects>
                <_>
                  2 7 4 1 -1.</_>
                <_>
                  3 7 2 1 2.</_></rects>
              <tilted>0</tilted></feature>
            <threshold>0.0120764998719096</threshold>
            <left_val>0.0866733565926552</left_val>
            <right_val>-0.5564342141151428</right_val></_></_>
        <_>
          <!-- tree 6 -->
          <_>
            <!-- root node -->
            <feature>
              <rects>
                <_>
                  2 0 4 3 -1.</_>
                <_>
                  2 1 4 1 3.</_></rects>
              <tilted>0</tilted></feature>
            <threshold>0.1642574071884155</threshold>
            <left_val>-0.1252661049365997</left_val>
            <right_val>0.4406948089599609</right_val></_></_>
        <_>
          <!-- tree 7 -->
          <_>
            <!-- root node -->
            <feature>
              <rects>
                <_>
                  1 7 3 1 -1.</_>
                <_>
                  2 7 1 1 3.</_></rects>
              <tilted>0</tilted></feature>
            <threshold>0.0124176600947976</threshold>
            <left_val>0.0929829925298691</left_val>
            <right_val>-0.5604199171066284</right_val></_></_>
        <_>
          <!-- tree 8 -->
          <_>
            <!-- root node -->
            <feature>
              <rects>
                <_>
                  4 3 3 2 -1.</_>
                <_>
                  5 3 1 2 3.</_></rects>
              <tilted>0</tilted></feature>
            <threshold>-0.0446477904915810</threshold>
            <left_val>0.4467419981956482</left_val>
            <right_val>-0.1168602034449577</right_val></_></_>
        <_>
          <!-- tree 9 -->
          <_>
            <!-- root node -->
            <feature>
              <rects>
                <_>
                  2 1 3 1 -1.</_>
                <_>
                  3 1 1 1 3.</_></rects>
              <tilted>0</tilted></feature>
            <threshold>-0.0144912302494049</threshold>
            <left_val>-0.4712645113468170</left_val>
            <right_val>0.0945404171943665</right_val></_></_>
        <_>
          <!-- tree 10 -->
          <_>
            <!-- root node -->
            <feature>
              <rects>
                <_>
                  2 0 3 2 -1.</_>
                <_>
                  3 0 1 2 3.</_></rects>
              <tilted>0</tilted></feature>
            <threshold>0.0243047196418047</threshold>
            <left_val>0.0563340000808239</left_val>
            <right_val>-0.5613719820976257</right_val></_></_>
        <_>
          <!-- tree 11 -->
          <_>
            <!-- root node -->
            <feature>
              <rects>
                <_>
                  2 3 2 2 -1.</_>
                <_>
                  2 3 1 1 2.</_>
                <_>
                  3 4 1 1 2.</_></rects>
              <tilted>0</tilted></feature>
            <threshold>-0.0141255501657724</threshold>
            <left_val>0.2933635115623474</left_val>
            <right_val>-0.1206557974219322</right_val></_></_>
        <_>
          <!-- tree 12 -->
          <_>
            <!-- root node -->
            <feature>
              <rects>
                <_>
                  3 7 4 1 -1.</_>
                <_>
                  4 7 2 1 2.</_></rects>
              <tilted>0</tilted></feature>
            <threshold>0.0205118600279093</threshold>
            <left_val>0.0541200302541256</left_val>
