<?xml version="1.0"?>
<opencv_storage>
<ER-W06H06-02 type_id="opencv-haar-classifier">
  <size>
    6 6</size>
  <stages>
    <_>
      <!-- stage 0 -->
      <trees>
        <_>
          <!-- tree 0 -->
          <_>
            <!-- root node -->
            <feature>
              <rects>
                <_>
                  2 2 3 4 -1.</_>
                <_>
                  2 4 3 2 2.</_></rects>
              <tilted>0</tilted></feature>
            <threshold>0.3517651855945587</threshold>
            <left_val>-0.8166254162788391</left_val>
            <right_val>0.7500945925712585</right_val></_></_>
        <_>
          <!-- tree 1 -->
          <_>
            <!-- root node -->
            <feature>
              <rects>
                <_>
                  5 0 1 4 -1.</_>
                <_>
                  4 1 1 2 2.</_></rects>
              <tilted>1</tilted></feature>
            <threshold>-0.1233329996466637</threshold>
            <left_val>0.4830443859100342</left_val>
            <right_val>-0.8002290725708008</right_val></_></_>
        <_>
          <!-- tree 2 -->
          <_>
            <!-- root node -->
            <feature>
              <rects>
                <_>
                  5 2 1 4 -1.</_>
                <_>
                  5 4 1 2 2.</_></rects>
              <tilted>0</tilted></feature>
            <threshold>3.7069919053465128e-003</threshold>
            <left_val>-0.7626197934150696</left_val>
            <right_val>0.3075818121433258</right_val></_></_>
        <_>
          <!-- tree 3 -->
          <_>
            <!-- root node -->
            <feature>
              <rects>
                <_>
                  3 1 3 1 -1.</_>
                <_>
                  4 2 1 1 3.</_></rects>
              <tilted>1</tilted></feature>
            <threshold>-0.0592835284769535</threshold>
            <left_val>0.3298060894012451</left_val>
            <right_val>-0.7241392135620117</right_val></_></_>
        <_>
          <!-- tree 4 -->
          <_>
            <!-- root node -->
            <feature>
              <rects>
                <_>
                  0 2 1 4 -1.</_>
                <_>
                  0 4 1 2 2.</_></rects>
              <tilted>0</tilted></feature>
            <threshold>0.0181883592158556</threshold>
            <left_val>-0.5629794001579285</left_val>
            <right_val>0.2920129895210266</right_val></_></_>
        <_>
          <!-- tree 5 -->
          <_>
            <!-- root node -->
            <feature>
              <rects>
                <_>
                  5 1 1 2 -1.</_>
                <_>
                  5 2 1 1 2.</_></rects>
              <tilted>0</tilted></feature>
            <threshold>-4.4034919701516628e-003</threshold>
            <left_val>0.3451870977878571</left_val>
            <right_val>-0.4996375143527985</right_val></_></_>
        <_>
          <!-- tree 6 -->
          <_>
            <!-- root node -->
            <feature>
              <rects>
                <_>
                  0 0 6 6 -1.</_>
                <_>
                  0 2 6 2 3.</_></rects>
              <tilted>0</tilted></feature>
            <threshold>0.0353674516081810</threshold>
            <left_val>-0.2280243933200836</left_val>
            <right_val>0.7244529128074646</right_val></_></_>
        <_>
          <!-- tree 7 -->
          <_>
            <!-- root node -->
            <feature>
              <rects>
                <_>
                  3 2 1 4 -1.</_>
                <_>
                  3 4 1 2 2.</_></rects>
              <tilted>0</tilted></feature>
            <threshold>8.8418591767549515e-003</threshold>
            <left_val>-0.8594555258750916</left_val>
            <right_val>0.2138441950082779</right_val></_></_>
        <_>
          <!-- tree 8 -->
          <_>
            <!-- root node -->
            <feature>
              <rects>
                <_>
                  4 3 2 1 -1.</_>
                <_>
                  4 3 1 1 2.</_></rects>
              <tilted>1</tilted></feature>
            <threshold>-1.7262150067836046e-003</threshold>
            <left_val>0.1139874979853630</left_val>
            <right_val>-0.7627388834953308</right_val></_></_>
        <_>
          <!-- tree 9 -->
          <_>
            <!-- root node -->
            <feature>
              <rects>
                <_>
                  0 2 1 2 -1.</_>
                <_>
                  0 3 1 1 2.</_></rects>
              <tilted>0</tilted></feature>
            <threshold>4.1908780112862587e-003</threshold>
            <left_val>-0.4477990865707398</left_val>
            <right_val>0.2453275024890900</right_val></_></_></trees>
      <stage_threshold>-2.3134720325469971</stage_threshold>
      <parent>-1</parent>
      <next>-1</next></_>
    <_>
      <!-- stage 1 -->
      <trees>
        <_>
          <!-- tree 0 -->
          <_>
            <!-- root node -->
            <feature>
              <rects>
                <_>
                  5 0 1 4 -1.</_>
                <_>
                  4 1 1 2 2.</_></rects>
              <tilted>1</tilted></feature>
            <threshold>-0.1462900936603546</threshold>
            <left_val>0.5728679895401001</left_val>
            <right_val>-0.7844988703727722</right_val></_></_>
        <_>
          <!-- tree 1 -->
          <_>
            <!-- root node -->
            <feature>
              <rects>
                <_>
                  3 2 3 4 -1.</_>
                <_>
                  3 4 3 2 2.</_></rects>
              <tilted>0</tilted></feature>
            <threshold>0.3786635994911194</threshold>
            <left_val>-0.6515731215476990</left_val>
            <right_val>0.5024278163909912</right_val></_></_>
        <_>
          <!-- tree 2 -->
          <_>
            <!-- root node -->
            <feature>
              <rects>
                <_>
                  3 1 1 2 -1.</_>
                <_>
                  3 2 1 1 2.</_></rects>
              <tilted>0</tilted></feature>
            <threshold>-2.4039819836616516e-003</threshold>
            <left_val>0.3555684983730316</left_val>
            <right_val>-0.6283748745918274</right_val></_></_>
        <_>
          <!-- tree 3 -->
          <_>
            <!-- root node -->
            <feature>
              <rects>
                <_>
                  0 0 1 6 -1.</_>
                <_>
                  0 3 1 3 2.</_></rects>
              <tilted>0</tilted></feature>
            <threshold>3.2893340103328228e-003</threshold>
            <left_val>-0.7232294082641602</left_val>
            <right_val>0.2964271008968353</right_val></_></_>
        <_>
          <!-- tree 4 -->
          <_>
            <!-- root node -->
            <feature>
              <rects>
                <_>
                  4 3 2 1 -1.</_>
                <_>
                  4 3 1 1 2.</_></rects>
              <tilted>1</tilted></feature>
            <threshold>-0.0269623007625341</threshold>
            <left_val>0.1542581021785736</left_val>
            <right_val>-0.7252600193023682</right_val></_></_>
        <_>
          <!-- tree 5 -->
          <_>
            <!-- root node -->
            <feature>
              <rects>
                <_>
                  3 5 3 1 -1.</_>
                <_>
                  4 5 1 1 3.</_></rects>
              <tilted>0</tilted></feature>
            <threshold>0.0569231994450092</threshold>
            <left_val>0.0840501263737679</left_val>
            <right_val>-0.9367542266845703</right_val></_></_></trees>
      <stage_threshold>-1.5654250383377075</stage_threshold>
      <parent>0</parent>
      <next>-1</next></_>
    <_>
      <!-- stage 2 -->
      <trees>
        <_>
          <!-- tree 0 -->
          <_>
            <!-- root node -->
            <feature>
              <rects>
                <_>
                  4 0 2 3 -1.</_>
                <_>
                  3 1 2 1 3.</_></rects>
              <tilted>1</tilted></feature>
            <threshold>-0.2412603050470352</threshold>
            <left_val>0.4516350924968720</left_val>
            <right_val>-0.6430453062057495</right_val></_></_>
        <_>
          <!-- tree 1 -->
          <_>
            <!-- root node -->
            <feature>
              <rects>
                <_>
                  2 2 4 4 -1.</_>
                <_>
                  2 4 4 2 2.</_></rects>
              <tilted>0</tilted></feature>
            <threshold>0.5755246877670288</threshold>
            <left_val>-0.5671572089195252</left_val>
            <right_val>0.3715980947017670</right_val></_></_>
        <_>
          <!-- tree 2 -->
          <_>
            <!-- root node -->
            <feature>
              <rects>
                <_>
                  5 0 1 2 -1.</_>
                <_>
                  5 0 1 1 2.</_></rects>
              <tilted>1</tilted></feature>
            <threshold>1.1548260226845741e-003</threshold>
            <left_val>-0.6735808253288269</left_val>
            <right_val>0.2167579978704453</right_val></_></_>
        <_>
          <!-- tree 3 -->
          <_>
            <!-- root node -->
            <feature>
              <rects>
                <_>
                  2 5 3 1 -1.</_>
                <_>
                  3 5 1 1 3.</_></rects>
              <tilted>0</tilted></feature>
            <threshold>0.0457408688962460</threshold>
            <left_val>0.1140656992793083</left_val>
            <right_val>-0.8768429756164551</right_val></_></_>
        <_>
          <!-- tree 4 -->
          <_>
            <!-- root node -->
            <feature>
              <rects>
                <_>
                  2 5 3 1 -1.</_>
                <_>
                  3 5 1 1 3.</_></rects>
              <tilted>0</tilted></feature>
            <threshold>-0.0485931485891342</threshold>
            <left_val>-0.7425724864006043</left_val>
            <right_val>0.1981900930404663</right_val></_></_>
        <_>
          <!-- tree 5 -->
          <_>
            <!-- root node -->
            <feature>
              <rects>
                <_>
                  3 0 2 6 -1.</_>
                <_>
                  3 0 1 3 2.</_>
                <_>
                  4 3 1 3 2.</_></rects>
              <tilted>0</tilted></feature>
            <threshold>-0.1150657013058662</threshold>
            <left_val>-0.7612602710723877</left_val>
            <right_val>0.1564040035009384</right_val></_></_>
        <_>
          <!-- tree 6 -->
          <_>
            <!-- root node -->
            <feature>
              <rects>
                <_>
                  0 2 1 4 -1.</_>
                <_>
                  0 4 1 2 2.</_></rects>
              <tilted>0</tilted></feature>
            <threshold>6.7474460229277611e-003</threshold>
            <left_val>-0.5446658134460449</left_val>
            <right_val>0.1688060015439987</right_val></_></_>
        <_>
          <!-- tree 7 -->
          <_>
            <!-- root node -->
            <feature>
              <rects>
                <_>
                  0 3 4 1 -1.</_>
                <_>
                  2 3 2 1 2.</_></rects>
              <tilted>0</tilted></feature>
            <threshold>-1.7360469792038202e-003</threshold>
            <left_val>0.1700146049261093</left_val>
            <right_val>-0.5907337069511414</right_val></_></_>
        <_>
          <!-- tree 8 -->
          <_>
            <!-- root node -->
            <feature>
              <rects>
                <_>
                  1 5 3 1 -1.</_>
                <_>
                  2 5 1 1 3.</_></rects>
              <tilted>0</tilted></feature>
            <threshold>-0.0578460283577442</threshold>
            <left_val>-0.7402096986770630</left_val>
            <right_val>0.1016177013516426</right_val></_></_>
        <_>
          <!-- tree 9 -->
          <_>
            <!-- root node -->
            <feature>
              <rects>
                <_>
                  1 5 3 1 -1.</_>
                <_>
                  2 5 1 1 3.</_></rects>
              <tilted>0</tilted></feature>
            <threshold>0.0382076799869537</threshold>
            <left_val>0.1391959935426712</left_val>
            <right_val>-0.7294744849205017</right_val></_></_></trees>
      <stage_threshold>-1.5489610433578491</stage_threshold>
      <parent>1</parent>
      <next>-1</next></_>
    <_>
      <!-- stage 3 -->
      <trees>
        <_>
          <!-- tree 0 -->
          <_>
            <!-- root node -->
            <feature>
              <rects>
                <_>
                  2 2 2 4 -1.</_>
                <_>
                  2 4 2 2 2.</_></rects>
              <tilted>0</tilted></feature>
            <threshold>0.3612467050552368</threshold>
            <left_val>-0.5374017953872681</left_val>
            <right_val>0.4018544852733612</right_val></_></_>
        <_>
          <!-- tree 1 -->
          <_>
            <!-- root node -->
            <feature>
              <rects>
                <_>
                  1 1 5 3 -1.</_>
                <_>
                  1 2 5 1 3.</_></rects>
              <tilted>0</tilted></feature>
            <threshold>-0.3070380985736847</threshold>
            <left_val>0.4199309051036835</left_val>
            <right_val>-0.3819456100463867</right_val></_></_>
        <_>
          <!-- tree 2 -->
          <_>
            <!-- root node -->
            <feature>
              <rects>
                <_>
                  4 5 2 1 -1.</_>
                <_>
                  5 5 1 1 2.</_></rects>
              <tilted>0</tilted></feature>
            <threshold>-0.0355730988085270</threshold>
            <left_val>-0.8176025748252869</left_val>
            <right_val>0.1446554958820343</right_val></_></_>
        <_>
          <!-- tree 3 -->
          <_>
            <!-- root node -->
            <feature>
              <rects>
                <_>
                  1 3 2 3 -1.</_>
                <_>
                  2 3 1 3 2.</_></rects>
              <tilted>0</tilted></feature>
            <threshold>-1.8968200311064720e-003</threshold>
            <left_val>0.2561896145343781</left_val>
            <right_val>-0.4588308930397034</right_val></_></_>
        <_>
          <!-- tree 4 -->
          <_>
            <!-- root node -->
            <feature>
              <rects>
                <_>
                  3 5 2 1 -1.</_>
                <_>
                  4 5 1 1 2.</_></rects>
              <tilted>0</tilted></feature>
            <threshold>-0.0282555203884840</threshold>
            <left_val>-0.7187654972076416</left_val>
            <right_val>0.1239091977477074</right_val></_></_>
        <_>
          <!-- tree 5 -->
          <_>
            <!-- root node -->
            <feature>
              <rects>
                <_>
                  0 0 3 1 -1.</_>
                <_>
                  1 0 1 1 3.</_></rects>
              <tilted>0</tilted></feature>
            <threshold>-1.2760959798470140e-003</threshold>
            <left_val>0.1979282945394516</left_val>
            <right_val>-0.3621496856212616</right_val></_></_>
        <_>
          <!-- tree 6 -->
          <_>
            <!-- root node -->
            <feature>
              <rects>
                <_>
                  0 0 3 1 -1.</_>
                <_>
                  1 0 1 1 3.</_></rects>
              <tilted>0</tilted></feature>
            <threshold>-0.0558564513921738</threshold>
            <left_val>-0.6161183118820190</left_val>
            <right_val>0.1493321061134338</right_val></_></_>
        <_>
          <!-- tree 7 -->
          <_>
            <!-- root node -->
            <feature>
              <rects>
                <_>
                  5 0 1 2 -1.</_>
                <_>
                  5 0 1 1 2.</_></rects>
              <tilted>1</tilted></feature>
            <threshold>1.2952899560332298e-003</threshold>
            <left_val>-0.5735356807708740</left_val>
            <right_val>0.1224545985460281</right_val></_></_>
        <_>
          <!-- tree 8 -->
          <_>
            <!-- root node -->
            <feature>
              <rects>
                <_>
                  3 0 3 2 -1.</_>
                <_>
                  4 0 1 2 3.</_></rects>
              <tilted>0</tilted></feature>
            <threshold>0.1342854052782059</threshold>
            <left_val>0.0829911977052689</left_val>
            <right_val>-0.8881031274795532</right_val></_></_>
        <_>
          <!-- tree 9 -->
          <_>
            <!-- root node -->
            <feature>
              <rects>
                <_>
                  0 5 3 1 -1.</_>
                <_>
                  1 5 1 1 3.</_></rects>
              <tilted>0</tilted></feature>
            <threshold>0.0628872215747833</threshold>
            <left_val>0.0793417766690254</left_val>
            <right_val>-0.7461463809013367</right_val></_></_>
        <_>
          <!-- tree 10 -->
          <_>
            <!-- root node -->
            <feature>
              <rects>
                <_>
                  1 5 4 1 -1.</_>
                <_>
                  3 5 2 1 2.</_></rects>
              <tilted>0</tilted></feature>
            <threshold>0.1266549974679947</threshold>
            <left_val>0.0791315883398056</left_val>
            <right_val>-0.7634549140930176</right_val></_></_>
        <_>
          <!-- tree 11 -->
          <_>
            <!-- root node -->
            <feature>
              <rects>
                <_>
                  3 4 1 2 -1.</_>
                <_>
                  3 5 1 1 2.</_></rects>
              <tilted>0</tilted></feature>
            <threshold>1.9428250379860401e-003</threshold>
            <left_val>-0.4427837133407593</left_val>
            <right_val>0.1559399962425232</right_val></_></_>
        <_>
          <!-- tree 12 -->
          <_>
            <!-- root node -->
            <feature>
              <rects>
                <_>
                  1 3 4 2 -1.</_>
                <_>
                  1 3 2 1 2.</_>
                <_>
                  3 4 2 1 2.</_></rects>
              <tilted>0</tilted></feature>
            <threshold>1.8477210542187095e-003</threshold>
            <left_val>-0.3223266005516052</left_val>
            <right_val>0.1791981011629105</right_val></_></_>
        <_>
          <!-- tree 13 -->
          <_>
            <!-- root node -->
            <feature>
              <rects>
                <_>
                  2 0 3 2 -1.</_>
                <_>
                  3 0 1 2 3.</_></rects>
              <tilted>0</tilted></feature>
            <threshold>-0.0790539532899857</threshold>
            <left_val>-0.5661544203758240</left_val>
            <right_val>0.0990840867161751</right_val></_></_>
        <_>
          <!-- tree 14 -->
          <_>
            <!-- root node -->
            <feature>
              <rects>
                <_>
                  3 0 2 1 -1.</_>
                <_>
                  4 0 1 1 2.</_></rects>
              <tilted>0</tilted></feature>
            <threshold>1.5517140273004770e-003</threshold>
            <left_val>-0.2807708978652954</left_val>
            <right_val>0.2231162041425705</right_val></_></_>
        <_>
          <!-- tree 15 -->
          <_>
            <!-- root node -->
            <feature>
              <rects>
                <_>
                  2 0 2 2 -1.</_>
                <_>
                  3 0 1 2 2.</_></rects>
              <tilted>0</tilted></feature>
            <threshold>0.1030711010098457</threshold>
            <left_val>0.0847101733088493</left_val>
            <right_val>-0.7741678953170776</right_val></_></_></trees>
      <stage_threshold>-1.3000439405441284</stage_threshold>
      <parent>2</parent>
      <next>-1</next></_>
    <_>
      <!-- stage 4 -->
      <trees>
        <_>
          <!-- tree 0 -->
          <_>
            <!-- root node -->
            <feature>
              <rects>
                <_>
                  0 1 6 3 -1.</_>
                <_>
                  0 2 6 1 3.</_></rects>
              <tilted>0</tilted></feature>
            <threshold>-0.4039185047149658</threshold>
            <left_val>0.4920057058334351</left_val>
            <right_val>-0.3740724921226502</right_val></_></_>
        <_>
          <!-- tree 1 -->
          <_>
            <!-- root node -->
            <feature>
              <rects>
                <_>
                  1 2 4 2 -1.</_>
                <_>
                  2 2 2 2 2.</_></rects>
              <tilted>0</tilted></feature>
            <threshold>-0.0904618129134178</threshold>
            <left_val>0.2715224027633667</left_val>
            <right_val>-0.3969093859195709</right_val></_></_>
        <_>
          <!-- tree 2 -->
          <_>
            <!-- root node -->
            <feature>
              <rects>
                <_>
                  3 2 1 4 -1.</_>
                <_>
                  3 4 1 2 2.</_></rects>
              <tilted>0</tilted></feature>
            <threshold>0.1677847951650620</threshold>
            <left_val>-0.4429584145545960</left_val>
            <right_val>0.2103496044874191</right_val></_></_>
        <_>
          <!-- tree 3 -->
          <_>
            <!-- root node -->
            <feature>
              <rects>
                <_>
                  0 5 4 1 -1.</_>
                <_>
                  2 5 2 1 2.</_></rects>
              <tilted>0</tilted></feature>
            <threshold>0.1039320006966591</threshold>
            <left_val>0.1385799050331116</left_val>
            <right_val>-0.7790955901145935</right_val></_></_>
        <_>
          <!-- tree 4 -->
          <_>
            <!-- root node -->
            <feature>
              <rects>
                <_>
                  3 4 2 2 -1.</_>
                <_>
                  4 4 1 2 2.</_></rects>
              <tilted>0</tilted></feature>
            <threshold>-0.0588116310536861</threshold>
            <left_val>-0.8678873181343079</left_val>
            <right_val>0.0967943370342255</right_val></_></_>
        <_>
          <!-- tree 5 -->
          <_>
            <!-- root node -->
            <feature>
              <rects>
                <_>
                  2 0 2 1 -1.</_>
                <_>
                  3 0 1 1 2.</_></rects>
              <tilted>0</tilted></feature>
            <threshold>-0.0225879494100809</threshold>
            <left_val>-0.6666803956031799</left_val>
            <right_val>0.0896906927227974</right_val></_></_>
        <_>
          <!-- tree 6 -->
          <_>
            <!-- root node -->
            <feature>
              <rects>
                <_>
                  1 4 3 2 -1.</_>
                <_>
                  2 4 1 2 3.</_></rects>
              <tilted>0</tilted></feature>
            <threshold>-0.0744995698332787</threshold>
            <left_val>-0.4940162897109985</left_val>
            <right_val>0.1146961972117424</right_val></_></_>
        <_>
          <!-- tree 7 -->
          <_>
            <!-- root node -->
            <feature>
              <rects>
                <_>
                  1 0 3 1 -1.</_>
                <_>
                  2 0 1 1 3.</_></rects>
              <tilted>0</tilted></feature>
            <threshold>-0.0707055702805519</threshold>
            <left_val>-0.7120354771614075</left_val>
            <right_val>0.0578374713659287</right_val></_></_>
        <_>
          <!-- tree 8 -->
          <_>
            <!-- root node -->
            <feature>
              <rects>
                <_>
                  5 1 1 2 -1.</_>
                <_>
                  5 2 1 1 2.</_></rects>
              <tilted>0</tilted></feature>
            <threshold>-2.5929699186235666e-003</threshold>
            <left_val>0.1677400022745132</left_val>
            <right_val>-0.3137240111827850</right_val></_></_>
        <_>
          <!-- tree 9 -->
          <_>
            <!-- root node -->
            <feature>
              <rects>
                <_>
                  0 0 6 6 -1.</_>
                <_>
                  0 0 3 3 2.</_>
                <_>
                  3 3 3 3 2.</_></rects>
              <tilted>0</tilted></feature>
            <threshold>-0.7741271257400513</threshold>
            <left_val>-0.7040079236030579</left_val>
            <right_val>0.0997628122568130</right_val></_></_>
        <_>
          <!-- tree 10 -->
          <_>
            <!-- root node -->
            <feature>
              <rects>
                <_>
                  2 2 3 3 -1.</_>
                <_>
                  3 3 1 1 9.</_></rects>
              <tilted>0</tilted></feature>
            <threshold>-0.4016794860363007</threshold>
            <left_val>0.3393372893333435</left_val>
            <right_val>-0.1832870990037918</right_val></_></_>
        <_>
          <!-- tree 11 -->
          <_>
            <!-- root node -->
            <feature>
              <rects>
                <_>
                  0 2 2 2 -1.</_>
                <_>
                  0 3 2 1 2.</_></rects>
              <tilted>0</tilted></feature>
            <threshold>0.0403551198542118</threshold>
            <left_val>-0.3332046866416931</left_val>
            <right_val>0.1838086992502213</right_val></_></_>
        <_>
          <!-- tree 12 -->
          <_>
            <!-- root node -->
            <feature>
              <rects>
                <_>
                  0 4 3 2 -1.</_>
                <_>
                  0 5 3 1 2.</_></rects>
              <tilted>0</tilted></feature>
            <threshold>1.4391270233318210e-003</threshold>
            <left_val>-0.3602091073989868</left_val>
            <right_val>0.1348071992397308</right_val></_></_>
        <_>
          <!-- tree 13 -->
          <_>
            <!-- root node -->
            <feature>
              <rects>
                <_>
                  2 2 2 2 -1.</_>
                <_>
                  2 2 1 2 2.</_></rects>
              <tilted>1</tilted></feature>
            <threshold>-0.2238834053277969</threshold>
            <left_val>-0.5532749891281128</left_val>
            <right_val>0.0934352427721024</right_val></_></_>
        <_>
          <!-- tree 14 -->
          <_>
            <!-- root node -->
            <feature>
              <rects>
                <_>
                  2 0 3 2 -1.</_>
                <_>
                  3 0 1 2 3.</_></rects>
              <tilted>0</tilted></feature>
            <threshold>-0.1092872023582459</threshold>
            <left_val>-0.7669925093650818</left_val>
            <right_val>0.0563673116266727</right_val></_></_>
        <_>
          <!-- tree 15 -->
          <_>
            <!-- root node -->
            <feature>
              <rects>
                <_>
                  3 0 2 1 -1.</_>
                <_>
                  4 0 1 1 2.</_></rects>
              <tilted>0</tilted></feature>
            <threshold>-0.0427084192633629</threshold>
            <left_val>-0.6974344849586487</left_val>
            <right_val>0.0578954108059406</right_val></_></_>
        <_>
          <!-- tree 16 -->
          <_>
            <!-- root node -->
            <feature>
              <rects>
                <_>
                  2 5 2 1 -1.</_>
                <_>
                  3 5 1 1 2.</_></rects>
              <tilted>0</tilted></feature>
            <threshold>-0.0436662398278713</threshold>
            <left_val>-0.6661974787712097</left_val>
            <right_val>0.0574863813817501</right_val></_></_>
        <_>
          <!-- tree 17 -->
          <_>
            <!-- root node -->
            <feature>
              <rects>
                <_>
                  3 0 2 6 -1.</_>
                <_>
                  3 3 2 3 2.</_></rects>
              <tilted>0</tilted></feature>
            <threshold>0.7348051071166992</threshold>
            <left_val>0.0706157833337784</left_val>
            <right_val>-0.6550679206848145</right_val></_></_>
        <_>
          <!-- tree 18 -->
          <_>
            <!-- root node -->
            <feature>
              <rects>
                <_>
                  3 5 3 1 -1.</_>
                <_>
                  4 5 1 1 3.</_></rects>
              <tilted>0</tilted></feature>
            <threshold>0.0420756712555885</threshold>
            <left_val>0.0627683997154236</left_val>
            <right_val>-0.5963932871818543</right_val></_></_>
        <_>
          <!-- tree 19 -->
          <_>
            <!-- root node -->
            <feature>
              <rects>
                <_>
                  2 0 1 2 -1.</_>
                <_>
                  2 0 1 1 2.</_></rects>
              <tilted>1</tilted></feature>
            <threshold>0.1501311063766480</threshold>
            <left_val>0.0422989614307880</left_val>
            <right_val>-0.7159104943275452</right_val></_></_></trees>
      <stage_threshold>-1.2731250524520874</stage_threshold>
      <parent>3</parent>
      <next>-1</next></_>
    <_>
      <!-- stage 5 -->
      <trees>
        <_>
          <!-- tree 0 -->
          <_>
            <!-- root node -->
            <feature>
              <rects>
                <_>
                  5 0 1 4 -1.</_>
                <_>
                  4 1 1 2 2.</_></rects>
              <tilted>1</tilted></feature>
            <threshold>-0.2226251065731049</threshold>
            <left_val>0.3683032989501953</left_val>
            <right_val>-0.5250185132026672</right_val></_></_>
        <_>
          <!-- tree 1 -->
          <_>
            <!-- root node -->
            <feature>
              <rects>
                <_>
                  2 0 3 3 -1.</_>
                <_>
                  2 1 3 1 3.</_></rects>
              <tilted>0</tilted></feature>
            <threshold>0.1866656988859177</threshold>
            <left_val>-0.2221522927284241</left_val>
            <right_val>0.5485951900482178</right_val></_></_>
        <_>
          <!-- tree 2 -->
          <_>
            <!-- root node -->
            <feature>
              <rects>
                <_>
                  4 2 2 1 -1.</_>
                <_>
                  4 2 1 1 2.</_></rects>
              <tilted>1</tilted></feature>
            <threshold>-0.1372068971395493</threshold>
            <left_val>0.2935523092746735</left_val>
            <right_val>-0.3080857992172241</right_val></_></_>
        <_>
          <!-- tree 3 -->
          <_>
            <!-- root node -->
            <feature>
              <rects>
                <_>
                  3 0 2 2 -1.</_>
                <_>
                  4 0 1 2 2.</_></rects>
              <tilted>0</tilted></feature>
            <threshold>0.1015461012721062</threshold>
            <left_val>0.0885042399168015</left_val>
            <right_val>-0.7352511286735535</right_val></_></_>
        <_>
          <!-- tree 4 -->
          <_>
            <!-- root node -->
            <feature>
              <rects>
                <_>
                  0 0 2 4 -1.</_>
                <_>
                  0 0 1 2 2.</_>
                <_>
                  1 2 1 2 2.</_></rects>
              <tilted>0</tilted></feature>
            <threshold>0.0373126305639744</threshold>
            <left_val>-0.1739346981048584</left_val>
            <right_val>0.3355588912963867</right_val></_></_>
        <_>
          <!-- tree 5 -->
          <_>
            <!-- root node -->
            <feature>
              <rects>
                <_>
                  5 1 1 2 -1.</_>
                <_>
                  5 2 1 1 2.</_></rects>
              <tilted>0</tilted></feature>
            <threshold>-2.5671250186860561e-003</threshold>
            <left_val>0.1781228035688400</left_val>
            <right_val>-0.3156690895557404</right_val></_></_>
        <_>
          <!-- tree 6 -->
          <_>
            <!-- root node -->
            <feature>
              <rects>
                <_>
                  0 0 1 6 -1.</_>
                <_>
                  0 3 1 3 2.</_></rects>
              <tilted>0</tilted></feature>
            <threshold>-0.0961809828877449</threshold>
            <left_val>-0.7544766068458557</left_val>
            <right_val>0.1167521998286247</right_val></_></_>
        <_>
          <!-- tree 7 -->
          <_>
            <!-- root node -->
            <feature>
              <rects>
                <_>
                  0 4 6 2 -1.</_>
                <_>
                  3 4 3 2 2.</_></rects>
              <tilted>0</tilted></feature>
            <threshold>-0.4647094905376434</threshold>
            <left_val>-0.7670060992240906</left_val>
            <right_val>0.0701585933566093</right_val></_></_>
        <_>
          <!-- tree 8 -->
          <_>
            <!-- root node -->
            <feature>
              <rects>
                <_>
                  2 5 2 1 -1.</_>
                <_>
                  3 5 1 1 2.</_></rects>
              <tilted>0</tilted></feature>
            <threshold>0.0414725691080093</threshold>
            <left_val>0.0489862486720085</left_val>
            <right_val>-0.7971969246864319</right_val></_></_>
        <_>
          <!-- tree 9 -->
          <_>
            <!-- root node -->
            <feature>
              <rects>
                <_>
                  1 0 4 3 -1.</_>
                <_>
                  1 1 4 1 3.</_></rects>
              <tilted>0</tilted></feature>
            <threshold>-0.2549042999744415</threshold>
            <left_val>0.4408730864524841</left_val>
            <right_val>-0.1430218964815140</right_val></_></_>
        <_>
          <!-- tree 10 -->
          <_>
            <!-- root node -->
            <feature>
              <rects>
                <_>
                  0 0 6 1 -1.</_>
                <_>
                  3 0 3 1 2.</_></rects>
              <tilted>0</tilted></feature>
            <threshold>0.3652158081531525</threshold>
            <left_val>0.0596610307693481</left_val>
            <right_val>-0.7318450808525085</right_val></_></_>
        <_>
          <!-- tree 11 -->
          <_>
            <!-- root node -->
            <feature>
              <rects>
                <_>
                  0 0 3 1 -1.</_>
                <_>
                  1 0 1 1 3.</_></rects>
              <tilted>0</tilted></feature>
            <threshold>-1.4958420069888234e-003</threshold>
            <left_val>0.1555871069431305</left_val>
            <right_val>-0.2750551104545593</right_val></_></_>
        <_>
          <!-- tree 12 -->
          <_>
            <!-- root node -->
            <feature>
              <rects>
                <_>
                  0 0 3 2 -1.</_>
                <_>
                  1 0 1 2 3.</_></rects>
              <tilted>0</tilted></feature>
            <threshold>-0.1053925007581711</threshold>
            <left_val>-0.5006312131881714</left_val>
            <right_val>0.0991460084915161</right_val></_></_>
        <_>
          <!-- tree 13 -->
          <_>
            <!-- root node -->
            <feature>
              <rects>
                <_>
                  0 0 4 4 -1.</_>
                <_>
                  0 2 4 2 2.</_></rects>
              <tilted>0</tilted></feature>
            <threshold>0.6523274183273315</threshold>
            <left_val>0.0506242588162422</left_val>
            <right_val>-0.7558102011680603</right_val></_></_>
        <_>
          <!-- tree 14 -->
          <_>
            <!-- root node -->
            <feature>
              <rects>
                <_>
                  2 2 2 2 -1.</_>
                <_>
                  2 2 1 2 2.</_></rects>
              <tilted>1</tilted></feature>
            <threshold>-0.2039403021335602</threshold>
            <left_val>-0.4366377890110016</left_val>
            <right_val>0.0900470167398453</right_val></_></_>
        <_>
          <!-- tree 15 -->
          <_>
            <!-- root node -->
            <feature>
              <rects>
                <_>
                  0 4 1 2 -1.</_>
                <_>
                  0 5 1 1 2.</_></rects>
              <tilted>0</tilted></feature>
            <threshold>1.5829820185899734e-003</threshold>
            <left_val>-0.3432773947715759</left_val>
            <right_val>0.1660121977329254</right_val></_></_>
        <_>
          <!-- tree 16 -->
          <_>
            <!-- root node -->
            <feature>
              <rects>
                <_>
                  2 5 3 1 -1.</_>
                <_>
                  3 5 1 1 3.</_></rects>
              <tilted>0</tilted></feature>
            <threshold>-0.0452968999743462</threshold>
            <left_val>-0.5576444268226624</left_val>
            <right_val>0.0759238526225090</right_val></_></_>
        <_>
          <!-- tree 17 -->
          <_>
            <!-- root node -->
            <feature>
              <rects>
                <_>
                  3 5 2 1 -1.</_>
                <_>
                  4 5 1 1 2.</_></rects>
              <tilted>0</tilted></feature>
            <threshold>1.7213140381500125e-003</threshold>
            <left_val>-0.2246806025505066</left_val>
            <right_val>0.1958308070898056</right_val></_></_>
        <_>
          <!-- tree 18 -->
          <_>
            <!-- root node -->
            <feature>
              <rects>
                <_>
                  1 0 4 6 -1.</_>
                <_>
                  1 3 4 3 2.</_></rects>
              <tilted>0</tilted></feature>
            <threshold>-0.7142655253410339</threshold>
            <left_val>-0.8827958106994629</left_val>
            <right_val>0.0497348494827747</right_val></_></_>
        <_>
          <!-- tree 19 -->
          <_>
            <!-- root node -->
            <feature>
              <rects>
                <_>
                  2 3 3 1 -1.</_>
                <_>
                  3 3 1 1 3.</_></rects>
              <tilted>0</tilted></feature>
            <threshold>-0.0694350227713585</threshold>
            <left_val>0.2620742917060852</left_val>
            <right_val>-0.1641325950622559</right_val></_></_>
        <_>
          <!-- tree 20 -->
          <_>
            <!-- root node -->
            <feature>
              <rects>
                <_>
                  3 4 2 1 -1.</_>
                <_>
                  4 4 1 1 2.</_></rects>
              <tilted>0</tilted></feature>
            <threshold>0.0459692999720573</threshold>
            <left_val>0.1064174994826317</left_val>
            <right_val>-0.4212445020675659</right_val></_></_>
        <_>
          <!-- tree 21 -->
          <_>
            <!-- root node -->
            <feature>
              <rects>
                <_>
                  0 2 3 2 -1.</_>
                <_>
                  1 2 1 2 3.</_></rects>
              <tilted>0</tilted></feature>
            <threshold>-0.0953796431422234</threshold>
            <left_val>0.4571394920349121</left_val>
            <right_val>-0.0898231416940689</right_val></_></_>
        <_>
          <!-- tree 22 -->
          <_>
            <!-- root node -->
            <feature>
              <rects>
                <_>
                  1 3 3 1 -1.</_>
                <_>
                  2 3 1 1 3.</_></rects>
              <tilted>0</tilted></feature>
            <threshold>-0.0637016966938972</threshold>
            <left_val>0.3252637088298798</left_val>
            <right_val>-0.1269699931144714</right_val></_></_>
        <_>
          <!-- tree 23 -->
          <_>
            <!-- root node -->
            <feature>
              <rects>
                <_>
                  3 0 2 1 -1.</_>
                <_>
                  4 0 1 1 2.</_></rects>
              <tilted>0</tilted></feature>
            <threshold>1.5040040016174316e-003</threshold>
            <left_val>-0.2261265963315964</left_val>
            <right_val>0.1727674007415772</right_val></_></_>
        <_>
          <!-- tree 24 -->
          <_>
            <!-- root node -->
            <feature>
              <rects>
                <_>
                  0 4 1 2 -1.</_>
                <_>
                  0 5 1 1 2.</_></rects>
              <tilted>0</tilted></feature>
            <threshold>0.0512749888002872</threshold>
            <left_val>0.1118040978908539</left_val>
            <right_val>-0.3430823981761932</right_val></_></_>
        <_>
          <!-- tree 25 -->
          <_>
            <!-- root node -->
            <feature>
              <rects>
                <_>
                  2 0 4 6 -1.</_>
                <_>
                  2 0 2 3 2.</_>
                <_>
                  4 3 2 3 2.</_></rects>
              <tilted>0</tilted></feature>
            <threshold>-0.3865492045879364</threshold>
            <left_val>-0.6063982844352722</left_val>
            <right_val>0.0580927692353725</right_val></_></_>
        <_>
          <!-- tree 26 -->
          <_>
            <!-- root node -->
            <feature>
              <rects>
                <_>
                  3 2 3 3 -1.</_>
                <_>
                  4 3 1 1 9.</_></rects>
              <tilted>0</tilted></feature>
            <threshold>-0.4362407028675079</threshold>
            <left_val>0.4203521907329559</left_val>
            <right_val>-0.0916797295212746</right_val></_></_></trees>
      <stage_threshold>-1.3675249814987183</stage_threshold>
      <parent>4</parent>
      <next>-1</next></_>
    <_>
      <!-- stage 6 -->
      <trees>
        <_>
          <!-- tree 0 -->
          <_>
            <!-- root node -->
            <feature>
              <rects>
                <_>
                  1 1 4 3 -1.</_>
                <_>
                  1 2 4 1 3.</_></rects>
              <tilted>0</tilted></feature>
            <threshold>-0.4173125922679901</threshold>
            <left_val>0.4615635871887207</left_val>
            <right_val>-0.2221017032861710</right_val></_></_>
        <_>
          <!-- tree 1 -->
          <_>
            <!-- root node -->
            <feature>
              <rects>
                <_>
                  2 0 2 1 -1.</_>
                <_>
                  3 0 1 1 2.</_></rects>
              <tilted>0</tilted></feature>
            <threshold>1.4878540532663465e-003</threshold>
            <left_val>-0.3647410869598389</left_val>
            <right_val>0.2515364885330200</right_val></_></_>
        <_>
          <!-- tree 2 -->
          <_>
            <!-- root node -->
            <feature>
              <rects>
                <_>
                  2 0 3 1 -1.</_>
                <_>
                  3 0 1 1 3.</_></rects>
              <tilted>0</tilted></feature>
            <threshold>0.0478941015899181</threshold>
            <left_val>0.1012327000498772</left_val>
            <right_val>-0.6900256276130676</right_val></_></_>
        <_>
          <!-- tree 3 -->
          <_>
            <!-- root node -->
            <feature>
              <rects>
                <_>
                  0 2 4 4 -1.</_>
                <_>
                  2 2 2 4 2.</_></rects>
              <tilted>0</tilted></feature>
            <threshold>-1.0254710214212537e-003</threshold>
            <left_val>0.1672132015228272</left_val>
            <right_val>-0.5781424045562744</right_val></_></_>
        <_>
          <!-- tree 4 -->
          <_>
            <!-- root node -->
            <feature>
              <rects>
                <_>
                  0 0 3 2 -1.</_>
                <_>
                  1 0 1 2 3.</_></rects>
              <tilted>0</tilted></feature>
            <threshold>0.0318854004144669</threshold>
            <left_val>0.0951296463608742</left_val>
            <right_val>-0.5078796744346619</right_val></_></_>
        <_>
          <!-- tree 5 -->
          <_>
            <!-- root node -->
            <feature>
              <rects>
                <_>
                  2 0 1 2 -1.</_>
                <_>
                  2 0 1 1 2.</_></rects>
              <tilted>1</tilted></feature>
            <threshold>-0.0800445526838303</threshold>
            <left_val>-0.4213910996913910</left_val>
            <right_val>0.1322612017393112</right_val></_></_>
        <_>
          <!-- tree 6 -->
          <_>
            <!-- root node -->
            <feature>
              <rects>
                <_>
                  2 5 3 1 -1.</_>
                <_>
                  3 5 1 1 3.</_></rects>
              <tilted>0</tilted></feature>
            <threshold>0.0317243412137032</threshold>
            <left_val>0.0759718269109726</left_val>
            <right_val>-0.6532706022262573</right_val></_></_>
        <_>
          <!-- tree 7 -->
          <_>
            <!-- root node -->
            <feature>
              <rects>
                <_>
                  0 1 6 3 -1.</_>
                <_>
                  2 1 2 3 3.</_></rects>
              <tilted>0</tilted></feature>
            <threshold>-0.1993177980184555</threshold>
            <left_val>0.1423573940992355</left_val>
            <right_val>-0.3691729009151459</right_val></_></_>
        <_>
          <!-- tree 8 -->
          <_>
            <!-- root node -->
            <feature>
              <rects>
                <_>
                  2 5 3 1 -1.</_>
                <_>
                  3 5 1 1 3.</_></rects>
              <tilted>0</tilted></feature>
            <threshold>-0.0302781797945499</threshold>
            <left_val>-0.4951348900794983</left_val>
            <right_val>0.1430027037858963</right_val></_></_>
        <_>
          <!-- tree 9 -->
          <_>
            <!-- root node -->
            <feature>
              <rects>
                <_>
                  1 5 3 1 -1.</_>
                <_>
                  2 5 1 1 3.</_></rects>
              <tilted>0</tilted></feature>
            <threshold>0.0380744189023972</threshold>
            <left_val>0.0632996633648872</left_val>
            <right_val>-0.5802984833717346</right_val></_></_>
        <_>
          <!-- tree 10 -->
          <_>
            <!-- root node -->
            <feature>
              <rects>
                <_>
                  3 3 1 2 -1.</_>
                <_>
                  3 4 1 1 2.</_></rects>
              <tilted>0</tilted></feature>
            <threshold>0.0986289903521538</threshold>
            <left_val>-0.1459313929080963</left_val>
            <right_val>0.2971485853195190</right_val></_></_>
        <_>
          <!-- tree 11 -->
          <_>
            <!-- root node -->
            <feature>
              <rects>
                <_>
                  2 5 3 1 -1.</_>
                <_>
                  3 5 1 1 3.</_></rects>
              <tilted>0</tilted></feature>
            <threshold>-4.6176809701137245e-004</threshold>
            <left_val>0.2142754048109055</left_val>
            <right_val>-0.2030586004257202</right_val></_></_>
        <_>
          <!-- tree 12 -->
          <_>
            <!-- root node -->
            <feature>
              <rects>
                <_>
                  3 5 3 1 -1.</_>
                <_>
                  4 5 1 1 3.</_></rects>
              <tilted>0</tilted></feature>
            <threshold>0.0322021096944809</threshold>
            <left_val>0.0920080766081810</left_val>
            <right_val>-0.5078840851783752</right_val></_></_>
        <_>
          <!-- tree 13 -->
          <_>
            <!-- root node -->
            <feature>
              <rects>
                <_>
                  4 4 1 2 -1.</_>
                <_>
                  4 5 1 1 2.</_></rects>
              <tilted>0</tilted></feature>
            <threshold>1.5587019734084606e-003</threshold>
            <left_val>-0.3269248902797699</left_val>
            <right_val>0.1143264025449753</right_val></_></_>
        <_>
          <!-- tree 14 -->
          <_>
            <!-- root node -->
            <feature>
              <rects>
                <_>
                  0 0 6 6 -1.</_>
                <_>
                  0 3 6 3 2.</_></rects>
              <tilted>0</tilted></feature>
            <threshold>2.1270020008087158</threshold>
            <left_val>0.0973719730973244</left_val>
            <right_val>-0.5734043121337891</right_val></_></_>
        <_>
          <!-- tree 15 -->
          <_>
            <!-- root node -->
            <feature>
              <rects>
                <_>
                  4 2 1 4 -1.</_>
                <_>
                  4 3 1 2 2.</_></rects>
              <tilted>0</tilted></feature>
            <threshold>1.6730349743738770e-003</threshold>
            <left_val>-0.2440001964569092</left_val>
            <right_val>0.2040311992168427</right_val></_></_>
        <_>
          <!-- tree 16 -->
          <_>
            <!-- root node -->
            <feature>
              <rects>
                <_>
                  1 0 5 3 -1.</_>
                <_>
                  1 1 5 1 3.</_></rects>
              <tilted>0</tilted></feature>
            <threshold>0.2937614917755127</threshold>
            <left_val>-0.1224014982581139</left_val>
            <right_val>0.3433068990707398</right_val></_></_>
        <_>
          <!-- tree 17 -->
          <_>
            <!-- root node -->
            <feature>
              <rects>
                <_>
                  4 0 2 6 -1.</_>
                <_>
                  4 3 2 3 2.</_></rects>
              <tilted>0</tilted></feature>
            <threshold>-0.3072077035903931</threshold>
            <left_val>-0.7016124129295349</left_val>
            <right_val>0.0613860003650188</right_val></_></_>
        <_>
          <!-- tree 18 -->
          <_>
            <!-- root node -->
            <feature>
              <rects>
                <_>
                  3 4 1 2 -1.</_>
                <_>
                  3 5 1 1 2.</_></rects>
              <tilted>0</tilted></feature>
            <threshold>9.7884295973926783e-004</threshold>
            <left_val>-0.3541100919246674</left_val>
            <right_val>0.0957704633474350</right_val></_></_>
        <_>
          <!-- tree 19 -->
          <_>
            <!-- root node -->
            <feature>
              <rects>
                <_>
                  1 2 3 2 -1.</_>
                <_>
                  2 2 1 2 3.</_></rects>
              <tilted>0</tilted></feature>
            <threshold>-0.1523409038782120</threshold>
            <left_val>0.3468390107154846</left_val>
            <right_val>-0.1068482026457787</right_val></_></_>
        <_>
          <!-- tree 20 -->
          <_>
            <!-- root node -->
            <feature>
              <rects>
                <_>
                  1 3 3 1 -1.</_>
                <_>
                  2 3 1 1 3.</_></rects>
              <tilted>0</tilted></feature>
            <threshold>0.0887373089790344</threshold>
            <left_val>-0.0695139765739441</left_val>
            <right_val>0.6176003813743591</right_val></_></_>
        <_>
          <!-- tree 21 -->
          <_>
            <!-- root node -->
            <feature>
              <rects>
                <_>
                  1 0 3 2 -1.</_>
                <_>
                  2 0 1 2 3.</_></rects>
              <tilted>0</tilted></feature>
            <threshold>-0.0992530211806297</threshold>
            <left_val>-0.5377972126007080</left_val>
            <right_val>0.0774523392319679</right_val></_></_>
        <_>
          <!-- tree 22 -->
          <_>
            <!-- root node -->
            <feature>
              <rects>
                <_>
                  1 0 3 2 -1.</_>
                <_>
                  2 0 1 2 3.</_></rects>
              <tilted>0</tilted></feature>
            <threshold>-1.5962669858708978e-003</threshold>
            <left_val>0.1732548028230667</left_val>
            <right_val>-0.2625539898872376</right_val></_></_>
        <_>
          <!-- tree 23 -->
          <_>
            <!-- root node -->
            <feature>
              <rects>
                <_>
                  0 5 2 1 -1.</_>
                <_>
                  1 5 1 1 2.</_></rects>
              <tilted>0</tilted></feature>
            <threshold>0.0361478887498379</threshold>
            <left_val>0.0597231090068817</left_val>
            <right_val>-0.5163980722427368</right_val></_></_>
        <_>
          <!-- tree 24 -->
          <_>
            <!-- root node -->
            <feature>
              <rects>
                <_>
                  2 4 2 1 -1.</_>
                <_>
                  3 4 1 1 2.</_></rects>
              <tilted>0</tilted></feature>
            <threshold>0.0410520993173122</threshold>
            <left_val>0.0574213005602360</left_val>
            <right_val>-0.5093669891357422</right_val></_></_>
        <_>
          <!-- tree 25 -->
          <_>
            <!-- root node -->
            <feature>
              <rects>
                <_>
                  1 2 3 3 -1.</_>
                <_>
                  2 2 1 3 3.</_></rects>
              <tilted>0</tilted></feature>
            <threshold>-0.0688466131687164</threshold>
            <left_val>0.1782291978597641</left_val>
            <right_val>-0.1772529929876328</right_val></_></_>
        <_>
          <!-- tree 26 -->
          <_>
            <!-- root node -->
            <feature>
              <rects>
                <_>
                  2 1 2 2 -1.</_>
                <_>
                  2 1 1 1 2.</_>
                <_>
                  3 2 1 1 2.</_></rects>
              <tilted>0</tilted></feature>
            <threshold>-1.5629370464012027e-003</threshold>
            <left_val>0.1602039933204651</left_val>
            <right_val>-0.2552866935729981</right_val></_></_>
        <_>
          <!-- tree 27 -->
          <_>
            <!-- root node -->
            <feature>
              <rects>
                <_>
                  1 0 3 2 -1.</_>
                <_>
                  2 0 1 2 3.</_></rects>
              <tilted>0</tilted></feature>
            <threshold>-0.0517855100333691</threshold>
            <left_val>-0.3138160109519959</left_val>
            <right_val>0.1176081970334053</right_val></_></_>
        <_>
          <!-- tree 28 -->
          <_>
            <!-- root node -->
            <feature>
              <rects>
                <_>
                  3 5 2 1 -1.</_>
                <_>
                  4 5 1 1 2.</_></rects>
              <tilted>0</tilted></feature>
            <threshold>1.6514779999852180e-003</threshold>
            <left_val>-0.1915871053934097</left_val>
            <right_val>0.1710774004459381</right_val></_></_>
        <_>
          <!-- tree 29 -->
          <_>
            <!-- root node -->
            <feature>
              <rects>
                <_>
                  3 5 2 1 -1.</_>
                <_>
                  4 5 1 1 2.</_></rects>
              <tilted>0</tilted></feature>
            <threshold>0.0252262800931931</threshold>
            <left_val>0.1096350997686386</left_val>
            <right_val>-0.3497537076473236</right_val></_></_>
        <_>
          <!-- tree 30 -->
          <_>
            <!-- root node -->
            <feature>
              <rects>
                <_>
                  0 1 3 4 -1.</_>
                <_>
                  0 3 3 2 2.</_></rects>
              <tilted>0</tilted></feature>
            <threshold>0.7127187252044678</threshold>
            <left_val>0.0457248203456402</left_val>
            <right_val>-0.5828164219856262</right_val></_></_>
        <_>
          <!-- tree 31 -->
          <_>
            <!-- root node -->
            <feature>
              <rects>
                <_>
                  0 2 3 2 -1.</_>
                <_>
                  1 2 1 2 3.</_></rects>
              <tilted>0</tilted></feature>
            <threshold>-0.0598734505474567</threshold>
            <left_val>0.3225915133953095</left_val>
            <right_val>-0.0957796722650528</right_val></_></_>
        <_>
          <!-- tree 32 -->
          <_>
            <!-- root node -->
            <feature>
              <rects>
                <_>
                  0 3 2 1 -1.</_>
                <_>
                  1 3 1 1 2.</_></rects>
              <tilted>0</tilted></feature>
            <threshold>8.4717181744053960e-004</threshold>
            <left_val>-0.1574386060237885</left_val>
            <right_val>0.2566849887371063</right_val></_></_>
        <_>
          <!-- tree 33 -->
          <_>
            <!-- root node -->
            <feature>
              <rects>
                <_>
                  2 2 2 2 -1.</_>
                <_>
                  2 2 1 2 2.</_></rects>
              <tilted>1</tilted></feature>
            <threshold>-0.2510111033916473</threshold>
            <left_val>-0.5514425039291382</left_val>
            <right_val>0.0604510381817818</right_val></_></_>
        <_>
          <!-- tree 34 -->
          <_>
            <!-- root node -->
            <feature>
              <rects>
                <_>
                  0 1 1 3 -1.</_>
                <_>
                  0 2 1 1 3.</_></rects>
              <tilted>0</tilted></feature>
            <threshold>-7.4863131158053875e-004</threshold>
            <left_val>0.1201423034071922</left_val>
            <right_val>-0.2761858105659485</right_val></_></_>
        <_>
          <!-- tree 35 -->
          <_>
            <!-- root node -->
            <feature>
              <rects>
                <_>
                  0 4 2 2 -1.</_>
                <_>
                  0 5 2 1 2.</_></rects>
              <tilted>0</tilted></feature>
            <threshold>-0.0223472192883492</threshold>
            <left_val>-0.3823269903659821</left_val>
            <right_val>0.0800272375345230</right_val></_></_></trees>
      <stage_threshold>-1.2439789772033691</stage_threshold>
      <parent>5</parent>
      <next>-1</next></_>
    <_>
      <!-- stage 7 -->
      <trees>
        <_>
          <!-- tree 0 -->
          <_>
            <!-- root node -->
            <feature>
              <rects>
                <_>
                  1 3 2 2 -1.</_>
                <_>
                  1 3 1 1 2.</_>
                <_>
                  2 4 1 1 2.</_></rects>
              <tilted>0</tilted></feature>
            <threshold>0.0446470901370049</threshold>
            <left_val>-0.2302304059267044</left_val>
            <right_val>0.4067232012748718</right_val></_></_>
        <_>
          <!-- tree 1 -->
          <_>
            <!-- root node -->
            <feature>
              <rects>
                <_>
                  4 1 1 3 -1.</_>
                <_>
                  4 2 1 1 3.</_></rects>
              <tilted>0</tilted></feature>
            <threshold>-0.1148222982883453</threshold>
            <left_val>0.3714663982391357</left_val>
            <right_val>-0.2164420932531357</right_val></_></_>
        <_>
          <!-- tree 2 -->
          <_>
            <!-- root node -->
            <feature>
              <rects>
                <_>
                  3 2 2 1 -1.</_>
                <_>
                  4 2 1 1 2.</_></rects>
              <tilted>0</tilted></feature>
            <threshold>1.8616210436448455e-003</threshold>
            <left_val>-0.3576968014240265</left_val>
            <right_val>0.1684239059686661</right_val></_></_>
        <_>
          <!-- tree 3 -->
          <_>
            <!-- root node -->
            <feature>
              <rects>
                <_>
                  2 0 3 2 -1.</_>
                <_>
                  3 0 1 2 3.</_></rects>
              <tilted>0</tilted></feature>
            <threshold>-0.0838566422462463</threshold>
            <left_val>-0.7025421261787415</left_val>
            <right_val>0.0708029493689537</right_val></_></_>
        <_>
          <!-- tree 4 -->
          <_>
            <!-- root node -->
            <feature>
              <rects>
                <_>
                  3 0 2 1 -1.</_>
                <_>
                  4 0 1 1 2.</_></rects>
              <tilted>0</tilted></feature>
            <threshold>1.5295309713110328e-003</threshold>
            <left_val>-0.2671580016613007</left_val>
            <right_val>0.1842755973339081</right_val></_></_>
        <_>
          <!-- tree 5 -->
          <_>
            <!-- root node -->
            <feature>
              <rects>
                <_>
                  5 4 1 2 -1.</_>
                <_>
                  5 5 1 1 2.</_></rects>
              <tilted>0</tilted></feature>
            <threshold>1.5702480450272560e-003</threshold>
            <left_val>-0.3425427079200745</left_val>
            <right_val>0.1599397957324982</right_val></_></_>
        <_>
          <!-- tree 6 -->
          <_>
            <!-- root node -->
            <feature>
              <rects>
                <_>
                  1 1 4 1 -1.</_>
                <_>
                  1 1 2 1 2.</_></rects>
              <tilted>1</tilted></feature>
            <threshold>-0.4264521896839142</threshold>
            <left_val>-0.6316620707511902</left_val>
            <right_val>0.0628223568201065</right_val></_></_>
        <_>
          <!-- tree 7 -->
          <_>
            <!-- root node -->
            <feature>
              <rects>
                <_>
                  3 5 2 1 -1.</_>
                <_>
                  4 5 1 1 2.</_></rects>
              <tilted>0</tilted></feature>
            <threshold>0.0365443602204323</threshold>
            <left_val>0.0648484379053116</left_val>
            <right_val>-0.5400602221488953</right_val></_></_>
        <_>
          <!-- tree 8 -->
          <_>
            <!-- root node -->
            <feature>
              <rects>
                <_>
                  0 1 1 3 -1.</_>
                <_>
                  0 2 1 1 3.</_></rects>
              <tilted>0</tilted></feature>
            <threshold>-7.4863131158053875e-004</threshold>
            <left_val>0.1366306990385056</left_val>
            <right_val>-0.3214203119277954</right_val></_></_>
        <_>
          <!-- tree 9 -->
          <_>
            <!-- root node -->
            <feature>
              <rects>
                <_>
                  0 0 1 4 -1.</_>
                <_>
                  0 2 1 2 2.</_></rects>
              <tilted>0</tilted></feature>
            <threshold>-0.1398531943559647</threshold>
            <left_val>-0.5948827862739563</left_val>
            <right_val>0.0716676786541939</right_val></_></_>
        <_>
          <!-- tree 10 -->
          <_>
            <!-- root node -->
            <feature>
              <rects>
                <_>
                  3 1 3 1 -1.</_>
                <_>
                  4 2 1 1 3.</_></rects>
              <tilted>1</tilted></feature>
            <threshold>-0.1914132982492447</threshold>
            <left_val>0.2129977941513062</left_val>
            <right_val>-0.1978992968797684</right_val></_></_>
        <_>
          <!-- tree 11 -->
          <_>
            <!-- root node -->
            <feature>
              <rects>
                <_>
                  3 5 2 1 -1.</_>
                <_>
                  4 5 1 1 2.</_></rects>
              <tilted>0</tilted></feature>
            <threshold>1.5016619581729174e-003</threshold>
            <left_val>-0.2047107070684433</left_val>
            <right_val>0.1782469004392624</right_val></_></_>
        <_>
          <!-- tree 12 -->
          <_>
            <!-- root node -->
            <feature>
              <rects>
                <_>
                  2 5 2 1 -1.</_>
                <_>
                  3 5 1 1 2.</_></rects>
              <tilted>0</tilted></feature>
            <threshold>0.0318515598773956</threshold>
            <left_val>0.0665607526898384</left_val>
            <right_val>-0.5831786990165710</right_val></_></_>
        <_>
          <!-- tree 13 -->
          <_>
            <!-- root node -->
            <feature>
              <rects>
                <_>
                  3 0 1 3 -1.</_>
                <_>
                  3 1 1 1 3.</_></rects>
              <tilted>0</tilted></feature>
            <threshold>-0.0892106369137764</threshold>
            <left_val>0.4584369063377380</left_val>
            <right_val>-0.0838823467493057</right_val></_></_>
        <_>
          <!-- tree 14 -->
          <_>
            <!-- root node -->
            <feature>
              <rects>
                <_>
                  2 0 3 3 -1.</_>
                <_>
                  2 1 3 1 3.</_></rects>
              <tilted>0</tilted></feature>
            <threshold>0.2788924872875214</threshold>
            <left_val>-0.0942476093769073</left_val>
            <right_val>0.4040316045284271</right_val></_></_>
        <_>
          <!-- tree 15 -->
          <_>
            <!-- root node -->
            <feature>
              <rects>
                <_>
                  3 0 3 1 -1.</_>
                <_>
                  4 0 1 1 3.</_></rects>
              <tilted>0</tilted></feature>
            <threshold>0.0532038100063801</threshold>
            <left_val>0.0680912435054779</left_val>
            <right_val>-0.5383629798889160</right_val></_></_>
        <_>
          <!-- tree 16 -->
          <_>
            <!-- root node -->
            <feature>
              <rects>
                <_>
                  1 3 3 1 -1.</_>
                <_>
                  2 3 1 1 3.</_></rects>
              <tilted>0</tilted></feature>
            <threshold>0.0726413577795029</threshold>
            <left_val>-0.0706005096435547</left_val>
            <right_val>0.5453063845634460</right_val></_></_>
        <_>
          <!-- tree 17 -->
          <_>
            <!-- root node -->
            <feature>
              <rects>
                <_>
                  1 2 3 4 -1.</_>
                <_>
                  2 2 1 4 3.</_></rects>
              <tilted>0</tilted></feature>
            <threshold>-0.0694318935275078</threshold>
            <left_val>0.2033293992280960</left_val>
            <right_val>-0.2186250984668732</right_val></_></_>
        <_>
          <!-- tree 18 -->
          <_>
            <!-- root node -->
            <feature>
              <rects>
                <_>
                  5 3 1 3 -1.</_>
                <_>
                  5 4 1 1 3.</_></rects>
              <tilted>0</tilted></feature>
            <threshold>1.4440489467233419e-003</threshold>
            <left_val>-0.2243832945823669</left_val>
            <right_val>0.1562160998582840</right_val></_></_>
        <_>
          <!-- tree 19 -->
          <_>
            <!-- root node -->
            <feature>
              <rects>
                <_>
                  0 3 2 2 -1.</_>
                <_>
                  0 3 1 1 2.</_>
                <_>
                  1 4 1 1 2.</_></rects>
              <tilted>0</tilted></feature>
            <threshold>-1.8334790365770459e-003</threshold>
            <left_val>0.2096527963876724</left_val>
            <right_val>-0.1690250039100647</right_val></_></_>
        <_>
          <!-- tree 20 -->
          <_>
            <!-- root node -->
            <feature>
              <rects>
                <_>
                  3 5 3 1 -1.</_>
                <_>
                  4 5 1 1 3.</_></rects>
              <tilted>0</tilted></feature>
            <threshold>-0.0400490984320641</threshold>
            <left_val>-0.4749960899353027</left_val>
            <right_val>0.0733714997768402</right_val></_></_>
        <_>
          <!-- tree 21 -->
          <_>
            <!-- root node -->
            <feature>
              <rects>
                <_>
                  0 2 3 2 -1.</_>
                <_>
                  1 2 1 2 3.</_></rects>
              <tilted>0</tilted></feature>
            <threshold>-0.0572888813912869</threshold>
            <left_val>0.3286325037479401</left_val>
            <right_val>-0.1082589030265808</right_val></_></_>
        <_>
          <!-- tree 22 -->
          <_>
            <!-- root node -->
            <feature>
              <rects>
                <_>
                  0 4 2 1 -1.</_>
                <_>
                  1 4 1 1 2.</_></rects>
              <tilted>0</tilted></feature>
            <threshold>-0.0445438586175442</threshold>
            <left_val>-0.3737694919109345</left_val>
            <right_val>0.0996395125985146</right_val></_></_>
        <_>
          <!-- tree 23 -->
          <_>
            <!-- root node -->
            <feature>
              <rects>
                <_>
                  3 3 3 1 -1.</_>
                <_>
                  4 3 1 1 3.</_></rects>
              <tilted>0</tilted></feature>
            <threshold>-0.0649320483207703</threshold>
            <left_val>0.4368130862712860</left_val>
            <right_val>-0.0790731832385063</right_val></_></_>
        <_>
          <!-- tree 24 -->
          <_>
            <!-- root node -->
            <feature>
              <rects>
                <_>
                  4 3 2 2 -1.</_>
                <_>
                  4 3 1 1 2.</_>
                <_>
                  5 4 1 1 2.</_></rects>
              <tilted>0</tilted></feature>
            <threshold>8.0444611376151443e-004</threshold>
            <left_val>-0.1404127031564713</left_val>
            <right_val>0.2166651934385300</right_val></_></_>
        <_>
          <!-- tree 25 -->
          <_>
            <!-- root node -->
            <feature>
              <rects>
                <_>
                  3 5 2 1 -1.</_>
                <_>
                  4 5 1 1 2.</_></rects>
              <tilted>0</tilted></feature>
            <threshold>-4.6176809701137245e-004</threshold>
            <left_val>0.2672908008098602</left_val>
            <right_val>-0.1186581999063492</right_val></_></_>
        <_>
          <!-- tree 26 -->
          <_>
            <!-- root node -->
            <feature>
              <rects>
                <_>
                  2 1 4 3 -1.</_>
                <_>
                  4 1 2 3 2.</_></rects>
              <tilted>0</tilted></feature>
            <threshold>0.1174374967813492</threshold>
            <left_val>-0.2265087962150574</left_val>
            <right_val>0.1557223945856094</right_val></_></_>
        <_>
          <!-- tree 27 -->
          <_>
            <!-- root node -->
            <feature>
              <rects>
                <_>
                  2 1 2 1 -1.</_>
                <_>
                  3 1 1 1 2.</_></rects>
              <tilted>0</tilted></feature>
            <threshold>0.0624180398881435</threshold>
            <left_val>0.0375090017914772</left_val>
            <right_val>-0.6452804803848267</right_val></_></_>
        <_>
          <!-- tree 28 -->
          <_>
            <!-- root node -->
            <feature>
              <rects>
                <_>
                  0 0 3 1 -1.</_>
                <_>
                  1 0 1 1 3.</_></rects>
              <tilted>0</tilted></feature>
            <threshold>-1.2274100445210934e-003</threshold>
            <left_val>0.1171573996543884</left_val>
            <right_val>-0.2195802032947540</right_val></_></_>
        <_>
          <!-- tree 29 -->
          <_>
            <!-- root node -->
            <feature>
              <rects>
                <_>
                  1 0 3 1 -1.</_>
                <_>
                  2 0 1 1 3.</_></rects>
              <tilted>0</tilted></feature>
            <threshold>0.0494401082396507</threshold>
            <left_val>0.0435217507183552</left_val>
            <right_val>-0.5682067275047302</right_val></_></_>
        <_>
          <!-- tree 30 -->
          <_>
            <!-- root node -->
            <feature>
              <rects>
                <_>
                  2 0 4 1 -1.</_>
                <_>
                  2 0 2 1 2.</_></rects>
              <tilted>1</tilted></feature>
            <threshold>-0.4163284897804260</threshold>
            <left_val>-0.6483085751533508</left_val>
            <right_val>0.0370719097554684</right_val></_></_>
        <_>
          <!-- tree 31 -->
          <_>
            <!-- root node -->
            <feature>
              <rects>
                <_>
                  2 2 3 2 -1.</_>
                <_>
                  3 2 1 2 3.</_></rects>
              <tilted>0</tilted></feature>
            <threshold>0.0800804495811462</threshold>
            <left_val>-0.0512031912803650</left_val>
            <right_val>0.5055320858955383</right_val></_></_>
        <_>
          <!-- tree 32 -->
          <_>
            <!-- root node -->
            <feature>
              <rects>
                <_>
                  2 2 3 3 -1.</_>
                <_>
                  3 3 1 1 9.</_></rects>
              <tilted>0</tilted></feature>
            <threshold>-0.4149441123008728</threshold>
            <left_val>0.2442349046468735</left_val>
            <right_val>-0.1029952988028526</right_val></_></_>
        <_>
          <!-- tree 33 -->
          <_>
            <!-- root node -->
            <feature>
              <rects>
                <_>
                  1 2 5 3 -1.</_>
                <_>
                  1 3 5 1 3.</_></rects>
              <tilted>0</tilted></feature>
            <threshold>0.1360577046871185</threshold>
            <left_val>-0.1022642999887466</left_val>
            <right_val>0.2734276950359345</right_val></_></_>
        <_>
          <!-- tree 34 -->
          <_>
            <!-- root node -->
            <feature>
              <rects>
                <_>
                  0 2 4 4 -1.</_>
                <_>
                  0 3 4 2 2.</_></rects>
              <tilted>0</tilted></feature>
            <threshold>0.3670423924922943</threshold>
            <left_val>0.0541637614369392</left_val>
            <right_val>-0.5456038117408752</right_val></_></_>
        <_>
          <!-- tree 35 -->
          <_>
            <!-- root node -->
            <feature>
              <rects>
                <_>
                  4 4 2 2 -1.</_>
                <_>
                  4 4 1 1 2.</_>
                <_>
                  5 5 1 1 2.</_></rects>
              <tilted>0</tilted></feature>
            <threshold>1.6594419721513987e-003</threshold>
            <left_val>-0.1446239948272705</left_val>
            <right_val>0.1750818043947220</right_val></_></_>
        <_>
          <!-- tree 36 -->
          <_>
            <!-- root node -->
            <feature>
              <rects>
                <_>
                  0 0 6 6 -1.</_>
                <_>
                  0 0 3 3 2.</_>
                <_>
                  3 3 3 3 2.</_></rects>
              <tilted>0</tilted></feature>
            <threshold>-0.9068065285682678</threshold>
            <left_val>-0.7257928848266602</left_val>
            <right_val>0.0327726192772388</right_val></_></_>
        <_>
          <!-- tree 37 -->
          <_>
            <!-- root node -->
            <feature>
              <rects>
                <_>
                  1 0 2 1 -1.</_>
                <_>
                  2 0 1 1 2.</_></rects>
              <tilted>0</tilted></feature>
            <threshold>1.5980149619281292e-003</threshold>
            <left_val>-0.1770354062318802</left_val>
            <right_val>0.1539945006370544</right_val></_></_>
        <_>
          <!-- tree 38 -->
          <_>
            <!-- root node -->
            <feature>
              <rects>
                <_>
                  5 3 1 2 -1.</_>
                <_>
                  5 3 1 1 2.</_></rects>
              <tilted>1</tilted></feature>
            <threshold>-9.8621053621172905e-004</threshold>
            <left_val>0.0894301831722260</left_val>
            <right_val>-0.2882871925830841</right_val></_></_>
        <_>
          <!-- tree 39 -->
          <_>
            <!-- root node -->
            <feature>
              <rects>
                <_>
                  1 0 4 6 -1.</_>
                <_>
                  2 0 2 6 2.</_></rects>
              <tilted>0</tilted></feature>
            <threshold>-0.0845573768019676</threshold>
            <left_val>0.1211102008819580</left_val>
            <right_val>-0.2918429076671600</right_val></_></_>
        <_>
          <!-- tree 40 -->
          <_>
            <!-- root node -->
            <feature>
              <rects>
                <_>
                  0 2 4 4 -1.</_>
                <_>
                  0 4 4 2 2.</_></rects>
              <tilted>0</tilted></feature>
            <threshold>1.2335979938507080</threshold>
            <left_val>0.0335134193301201</left_val>
            <right_val>-0.6912624835968018</right_val></_></_>
        <_>
          <!-- tree 41 -->
          <_>
            <!-- root node -->
            <feature>
              <rects>
                <_>
                  1 3 2 2 -1.</_>
                <_>
                  1 3 1 1 2.</_>
                <_>
                  2 4 1 1 2.</_></rects>
              <tilted>0</tilted></feature>
            <threshold>-4.3495188583619893e-004</threshold>
            <left_val>0.2359769940376282</left_val>
            <right_val>-0.1081534996628761</right_val></_></_></trees>
      <stage_threshold>-1.1239370107650757</stage_threshold>
      <parent>6</parent>
      <next>-1</next></_>
    <_>
      <!-- stage 8 -->
      <trees>
        <_>
          <!-- tree 0 -->
          <_>
            <!-- root node -->
            <feature>
              <rects>
                <_>
                  5 1 1 2 -1.</_>
                <_>
                  5 2 1 1 2.</_></rects>
              <tilted>0</tilted></feature>
            <threshold>-1.9557538907974958e-003</threshold>
            <left_val>0.2433677017688751</left_val>
            <right_val>-0.4812653064727783</right_val></_></_>
        <_>
          <!-- tree 1 -->
          <_>
            <!-- root node -->
            <feature>
              <rects>
                <_>
                  2 1 2 1 -1.</_>
                <_>
                  3 1 1 1 2.</_></rects>
              <tilted>0</tilted></feature>
            <threshold>7.2503747651353478e-004</threshold>
            <left_val>-0.2840620875358582</left_val>
            <right_val>0.2214522063732147</right_val></_></_>
        <_>
          <!-- tree 2 -->
          <_>
            <!-- root node -->
            <feature>
              <rects>
                <_>
                  1 2 1 3 -1.</_>
                <_>
                  1 3 1 1 3.</_></rects>
              <tilted>0</tilted></feature>
            <threshold>1.4560359995812178e-003</threshold>
            <left_val>-0.2724393010139465</left_val>
            <right_val>0.2014610022306442</right_val></_></_>
        <_>
          <!-- tree 3 -->
          <_>
            <!-- root node -->
            <feature>
              <rects>
                <_>
                  3 2 1 4 -1.</_>
                <_>
                  3 4 1 2 2.</_></rects>
              <tilted>0</tilted></feature>
            <threshold>0.1991353929042816</threshold>
            <left_val>-0.2938320934772492</left_val>
            <right_val>0.2001060992479324</right_val></_></_>
        <_>
          <!-- tree 4 -->
          <_>
            <!-- root node -->
            <feature>
              <rects>
                <_>
                  2 5 3 1 -1.</_>
                <_>
                  3 5 1 1 3.</_></rects>
              <tilted>0</tilted></feature>
            <threshold>0.0254177600145340</threshold>
            <left_val>0.0657654330134392</left_val>
            <right_val>-0.5853807926177979</right_val></_></_>
        <_>
          <!-- tree 5 -->
          <_>
            <!-- root node -->
            <feature>
              <rects>
                <_>
                  1 0 3 2 -1.</_>
                <_>
                  2 0 1 2 3.</_></rects>
              <tilted>0</tilted></feature>
            <threshold>-0.0782802104949951</threshold>
            <left_val>-0.5115399956703186</left_val>
            <right_val>0.0955979377031326</right_val></_></_>
        <_>
          <!-- tree 6 -->
          <_>
            <!-- root node -->
            <feature>
              <rects>
                <_>
                  3 0 3 1 -1.</_>
                <_>
                  4 0 1 1 3.</_></rects>
              <tilted>0</tilted></feature>
            <threshold>-0.0283924806863070</threshold>
            <left_val>-0.4651683866977692</left_val>
            <right_val>0.0995625033974648</right_val></_></_>
        <_>
          <!-- tree 7 -->
          <_>
            <!-- root node -->
            <feature>
              <rects>
                <_>
                  3 5 3 1 -1.</_>
                <_>
                  4 5 1 1 3.</_></rects>
              <tilted>0</tilted></feature>
            <threshold>0.0185339897871017</threshold>
            <left_val>0.1135244965553284</left_val>
            <right_val>-0.3337146043777466</right_val></_></_>
        <_>
          <!-- tree 8 -->
          <_>
            <!-- root node -->
            <feature>
              <rects>
                <_>
                  2 5 2 1 -1.</_>
                <_>
                  3 5 1 1 2.</_></rects>
              <tilted>0</tilted></feature>
            <threshold>7.0662720827385783e-004</threshold>
            <left_val>-0.1717045009136200</left_val>
            <right_val>0.2324551939964294</right_val></_></_>
        <_>
          <!-- tree 9 -->
          <_>
            <!-- root node -->
            <feature>
              <rects>
                <_>
                  1 0 4 1 -1.</_>
                <_>
                  1 0 2 1 2.</_></rects>
              <tilted>1</tilted></feature>
            <threshold>-0.2510753870010376</threshold>
            <left_val>-0.5314143896102905</left_val>
            <right_val>0.0800897404551506</right_val></_></_>
        <_>
          <!-- tree 10 -->
          <_>
            <!-- root node -->
            <feature>
              <rects>
                <_>
                  2 5 3 1 -1.</_>
                <_>
                  3 5 1 1 3.</_></rects>
              <tilted>0</tilted></feature>
            <threshold>-4.6176809701137245e-004</threshold>
            <left_val>0.1751538068056107</left_val>
            <right_val>-0.2192360013723373</right_val></_></_>
        <_>
          <!-- tree 11 -->
          <_>
            <!-- root node -->
            <feature>
              <rects>
                <_>
                  3 5 2 1 -1.</_>
                <_>
                  4 5 1 1 2.</_></rects>
              <tilted>0</tilted></feature>
            <threshold>0.0251931995153427</threshold>
            <left_val>0.1182449981570244</left_val>
            <right_val>-0.3700641095638275</right_val></_></_>
        <_>
          <!-- tree 12 -->
          <_>
            <!-- root node -->
            <feature>
              <rects>
                <_>
                  2 5 2 1 -1.</_>
                <_>
                  3 5 1 1 2.</_></rects>
              <tilted>0</tilted></feature>
            <threshold>-0.0276026893407106</threshold>
            <left_val>-0.5222281217575073</left_val>
            <right_val>0.0763379633426666</right_val></_></_>
        <_>
          <!-- tree 13 -->
          <_>
            <!-- root node -->
            <feature>
              <rects>
                <_>
                  4 2 2 2 -1.</_>
                <_>
                  5 2 1 2 2.</_></rects>
              <tilted>0</tilted></feature>
            <threshold>0.3692156970500946</threshold>
            <left_val>-0.0521065406501293</left_val>
            <right_val>0.9085748195648193</right_val></_></_>
        <_>
          <!-- tree 14 -->
          <_>
            <!-- root node -->
            <feature>
              <rects>
                <_>
                  3 0 2 2 -1.</_>
                <_>
                  4 0 1 2 2.</_></rects>
              <tilted>0</tilted></feature>
            <threshold>0.0941872298717499</threshold>
            <left_val>0.0758958309888840</left_val>
            <right_val>-0.5452262163162231</right_val></_></_>
        <_>
          <!-- tree 15 -->
          <_>
            <!-- root node -->
            <feature>
              <rects>
                <_>
                  1 0 3 1 -1.</_>
                <_>
                  2 0 1 1 3.</_></rects>
              <tilted>0</tilted></feature>
            <threshold>-1.3112289598211646e-003</threshold>
            <left_val>0.1710378974676132</left_val>
            <right_val>-0.2074784934520721</right_val></_></_>
        <_>
          <!-- tree 16 -->
          <_>
            <!-- root node -->
            <feature>
              <rects>
                <_>
                  1 0 2 1 -1.</_>
                <_>
                  2 0 1 1 2.</_></rects>
              <tilted>0</tilted></feature>
            <threshold>1.5337399672716856e-003</threshold>
            <left_val>-0.2295926958322525</left_val>
            <right_val>0.2008197009563446</right_val></_></_>
        <_>
          <!-- tree 17 -->
          <_>
            <!-- root node -->
            <feature>
              <rects>
                <_>
                  0 0 3 1 -1.</_>
                <_>
                  1 0 1 1 3.</_></rects>
              <tilted>0</tilted></feature>
            <threshold>-0.0743472129106522</threshold>
            <left_val>-0.5797798037528992</left_val>
            <right_val>0.0576437301933765</right_val></_></_>
        <_>
          <!-- tree 18 -->
          <_>
            <!-- root node -->
            <feature>
              <rects>
                <_>
                  2 5 2 1 -1.</_>
                <_>
                  3 5 1 1 2.</_></rects>
              <tilted>0</tilted></feature>
            <threshold>-5.4929271573200822e-004</threshold>
            <left_val>0.2107975035905838</left_val>
            <right_val>-0.1505766957998276</right_val></_></_>
        <_>
          <!-- tree 19 -->
          <_>
            <!-- root node -->
            <feature>
              <rects>
                <_>
                  1 0 4 3 -1.</_>
                <_>
                  1 1 4 1 3.</_></rects>
              <tilted>0</tilted></feature>
            <threshold>0.4396466910839081</threshold>
            <left_val>-0.0700341090559959</left_val>
            <right_val>0.4441033005714417</right_val></_></_>
        <_>
          <!-- tree 20 -->
          <_>
            <!-- root node -->
            <feature>
              <rects>
                <_>
                  1 0 5 3 -1.</_>
                <_>
                  1 1 5 1 3.</_></rects>
              <tilted>0</tilted></feature>
            <threshold>-0.3158909976482391</threshold>
            <left_val>0.4453203082084656</left_val>
            <right_val>-0.0771894976496696</right_val></_></_>
        <_>
          <!-- tree 21 -->
          <_>
            <!-- root node -->
            <feature>
              <rects>
                <_>
                  0 1 6 3 -1.</_>
                <_>
                  2 2 2 1 9.</_></rects>
              <tilted>0</tilted></feature>
            <threshold>-0.9107822179794312</threshold>
            <left_val>0.1751392930746079</left_val>
            <right_val>-0.1743035018444061</right_val></_></_>
        <_>
          <!-- tree 22 -->
          <_>
            <!-- root node -->
            <feature>
              <rects>
                <_>
                  4 0 2 1 -1.</_>
                <_>
                  5 0 1 1 2.</_></rects>
              <tilted>0</tilted></feature>
            <threshold>1.4691869728267193e-003</threshold>
            <left_val>-0.1796927005052567</left_val>
            <right_val>0.1710007041692734</right_val></_></_>
        <_>
          <!-- tree 23 -->
          <_>
            <!-- root node -->
            <feature>
              <rects>
                <_>
                  2 5 4 1 -1.</_>
                <_>
                  3 5 2 1 2.</_></rects>
              <tilted>0</tilted></feature>
            <threshold>7.7977409819141030e-004</threshold>
            <left_val>-0.1351560950279236</left_val>
            <right_val>0.2167094945907593</right_val></_></_>
        <_>
          <!-- tree 24 -->
          <_>
            <!-- root node -->
            <feature>
              <rects>
                <_>
                  3 2 2 2 -1.</_>
                <_>
                  3 2 1 1 2.</_>
                <_>
                  4 3 1 1 2.</_></rects>
              <tilted>0</tilted></feature>
            <threshold>7.1733212098479271e-004</threshold>
            <left_val>-0.1574530005455017</left_val>
            <right_val>0.1774107068777084</right_val></_></_>
        <_>
          <!-- tree 25 -->
          <_>
            <!-- root node -->
            <feature>
              <rects>
                <_>
                  1 4 2 2 -1.</_>
                <_>
                  2 4 1 2 2.</_></rects>
              <tilted>0</tilted></feature>
            <threshold>0.0350695699453354</threshold>
            <left_val>0.0659990385174751</left_val>
            <right_val>-0.4119277000427246</right_val></_></_>
        <_>
          <!-- tree 26 -->
          <_>
            <!-- root node -->
            <feature>
              <rects>
                <_>
                  0 4 3 1 -1.</_>
                <_>
                  1 4 1 1 3.</_></rects>
              <tilted>0</tilted></feature>
            <threshold>-1.7303220229223371e-003</threshold>
            <left_val>0.1867688000202179</left_val>
            <right_val>-0.1468345969915390</right_val></_></_>
        <_>
          <!-- tree 27 -->
          <_>
            <!-- root node -->
            <feature>
              <rects>
                <_>
                  2 4 2 2 -1.</_>
                <_>
                  3 4 1 2 2.</_></rects>
              <tilted>0</tilted></feature>
            <threshold>0.0583259612321854</threshold>
            <left_val>0.0560119003057480</left_val>
            <right_val>-0.4511645138263702</right_val></_></_>
        <_>
          <!-- tree 28 -->
          <_>
            <!-- root node -->
            <feature>
              <rects>
                <_>
                  0 0 3 2 -1.</_>
                <_>
                  1 0 1 2 3.</_></rects>
              <tilted>0</tilted></feature>
            <threshold>0.0786007195711136</threshold>
            <left_val>0.0368922501802444</left_val>
            <right_val>-0.6278948187828064</right_val></_></_>
        <_>
          <!-- tree 29 -->
          <_>
            <!-- root node -->
            <feature>
              <rects>
                <_>
                  0 0 4 6 -1.</_>
                <_>
                  0 3 4 3 2.</_></rects>
              <tilted>0</tilted></feature>
            <threshold>1.3261409997940063</threshold>
            <left_val>0.0773453414440155</left_val>
            <right_val>-0.3170312941074371</right_val></_></_>
        <_>
          <!-- tree 30 -->
          <_>
            <!-- root node -->
            <feature>
              <rects>
                <_>
                  5 4 1 2 -1.</_>
                <_>
                  5 5 1 1 2.</_></rects>
              <tilted>0</tilted></feature>
            <threshold>1.5129710081964731e-003</threshold>
            <left_val>-0.2926042973995209</left_val>
            <right_val>0.0930623263120651</right_val></_></_>
        <_>
          <!-- tree 31 -->
          <_>
            <!-- root node -->
            <feature>
              <rects>
                <_>
                  3 1 2 2 -1.</_>
                <_>
                  4 1 1 2 2.</_></rects>
              <tilted>0</tilted></feature>
            <threshold>-0.0440196692943573</threshold>
            <left_val>-0.4651195108890533</left_val>
            <right_val>0.0532937794923782</right_val></_></_>
        <_>
          <!-- tree 32 -->
          <_>
            <!-- root node -->
            <feature>
              <rects>
                <_>
                  3 0 3 6 -1.</_>
                <_>
                  3 3 3 3 2.</_></rects>
              <tilted>0</tilted></feature>
            <threshold>-0.0741343796253204</threshold>
            <left_val>-0.3595960140228272</left_val>
            <right_val>0.0678452327847481</right_val></_></_>
        <_>
          <!-- tree 33 -->
          <_>
            <!-- root node -->
            <feature>
              <rects>
                <_>
                  2 0 1 2 -1.</_>
                <_>
                  2 0 1 1 2.</_></rects>
              <tilted>1</tilted></feature>
            <threshold>-0.0834898427128792</threshold>
            <left_val>-0.2867931127548218</left_val>
            <right_val>0.0817861407995224</right_val></_></_>
        <_>
          <!-- tree 34 -->
          <_>
            <!-- root node -->
            <feature>
              <rects>
                <_>
                  1 3 2 1 -1.</_>
                <_>
                  1 3 1 1 2.</_></rects>
              <tilted>1</tilted></feature>
            <threshold>-0.1192793026566505</threshold>
            <left_val>-0.3830024898052216</left_val>
            <right_val>0.0698155835270882</right_val></_></_>
        <_>
          <!-- tree 35 -->
          <_>
            <!-- root node -->
            <feature>
              <rects>
                <_>
                  1 0 3 1 -1.</_>
                <_>
                  2 0 1 1 3.</_></rects>
              <tilted>0</tilted></feature>
            <threshold>0.0219168607145548</threshold>
            <left_val>0.0716989412903786</left_val>
            <right_val>-0.3477537035942078</right_val></_></_>
        <_>
          <!-- tree 36 -->
          <_>
            <!-- root node -->
            <feature>
              <rects>
                <_>
                  4 1 1 3 -1.</_>
                <_>
                  3 2 1 1 3.</_></rects>
              <tilted>1</tilted></feature>
            <threshold>-0.2745536863803864</threshold>
            <left_val>0.2745780944824219</left_val>
            <right_val>-0.0930333510041237</right_val></_></_>
        <_>
          <!-- tree 37 -->
          <_>
            <!-- root node -->
            <feature>
              <rects>
                <_>
                  0 0 3 1 -1.</_>
                <_>
                  1 0 1 1 3.</_></rects>
              <tilted>0</tilted></feature>
            <threshold>-6.4981821924448013e-004</threshold>
            <left_val>0.1182548999786377</left_val>
            <right_val>-0.2340455055236816</right_val></_></_>
        <_>
          <!-- tree 38 -->
          <_>
            <!-- root node -->
            <feature>
              <rects>
                <_>
                  1 0 2 4 -1.</_>
                <_>
                  1 0 1 2 2.</_>
                <_>
                  2 2 1 2 2.</_></rects>
              <tilted>0</tilted></feature>
            <threshold>0.0826075822114944</threshold>
            <left_val>-0.0491157509386539</left_val>
            <right_val>0.6318628787994385</right_val></_></_>
        <_>
          <!-- tree 39 -->
          <_>
            <!-- root node -->
            <feature>
              <rects>
                <_>
                  0 0 4 1 -1.</_>
                <_>
                  1 0 2 1 2.</_></rects>
              <tilted>0</tilted></feature>
            <threshold>8.3071721019223332e-004</threshold>
            <left_val>-0.0856999531388283</left_val>
            <right_val>0.2796770930290222</right_val></_></_>
        <_>
          <!-- tree 40 -->
          <_>
            <!-- root node -->
            <feature>
              <rects>
                <_>
                  0 3 2 1 -1.</_>
                <_>
                  1 3 1 1 2.</_></rects>
