<?xml version="1.0"?>
<opencv_storage>
<N-W0H05-03 type_id="opencv-haar-classifier">
  <size>
    5 5</size>
  <stages>
    <_>
      <!-- stage 0 -->
      <trees>
        <_>
          <!-- tree 0 -->
          <_>
            <!-- root node -->
            <feature>
              <rects>
                <_>
                  2 2 1 2 -1.</_>
                <_>
                  2 3 1 1 2.</_></rects>
              <tilted>0</tilted></feature>
            <threshold>-0.0977545976638794</threshold>
            <left_val>0.6872736215591431</left_val>
            <right_val>-0.7757828235626221</right_val></_></_>
        <_>
          <!-- tree 1 -->
          <_>
            <!-- root node -->
            <feature>
              <rects>
                <_>
                  1 0 3 1 -1.</_>
                <_>
                  2 0 1 1 3.</_></rects>
              <tilted>0</tilted></feature>
            <threshold>0.0221402291208506</threshold>
            <left_val>-0.7649009823799133</left_val>
            <right_val>0.4388968944549561</right_val></_></_>
        <_>
          <!-- tree 2 -->
          <_>
            <!-- root node -->
            <feature>
              <rects>
                <_>
                  1 0 2 4 -1.</_>
                <_>
                  1 2 2 2 2.</_></rects>
              <tilted>0</tilted></feature>
            <threshold>-7.9963114112615585e-003</threshold>
            <left_val>0.2398419976234436</left_val>
            <right_val>-0.8071746230125427</right_val></_></_>
        <_>
          <!-- tree 3 -->
          <_>
            <!-- root node -->
            <feature>
              <rects>
                <_>
                  2 0 3 4 -1.</_>
                <_>
                  2 1 3 2 2.</_></rects>
              <tilted>0</tilted></feature>
            <threshold>0.0332266613841057</threshold>
            <left_val>-0.5196818113327026</left_val>
            <right_val>0.2029428929090500</right_val></_></_>
        <_>
          <!-- tree 4 -->
          <_>
            <!-- root node -->
            <feature>
              <rects>
                <_>
                  0 0 1 3 -1.</_>
                <_>
                  0 1 1 1 3.</_></rects>
              <tilted>0</tilted></feature>
            <threshold>2.2752950899302959e-003</threshold>
            <left_val>-0.4361841976642609</left_val>
            <right_val>0.2855967879295349</right_val></_></_>
        <_>
          <!-- tree 5 -->
          <_>
            <!-- root node -->
            <feature>
              <rects>
                <_>
                  3 3 2 1 -1.</_>
                <_>
                  3 3 1 1 2.</_></rects>
              <tilted>0</tilted></feature>
            <threshold>-0.0132309896871448</threshold>
            <left_val>0.3923757076263428</left_val>
            <right_val>-0.5380672812461853</right_val></_></_>
        <_>
          <!-- tree 6 -->
          <_>
            <!-- root node -->
            <feature>
              <rects>
                <_>
                  1 1 2 1 -1.</_>
                <_>
                  2 1 1 1 2.</_></rects>
              <tilted>0</tilted></feature>
            <threshold>3.5258159041404724e-003</threshold>
            <left_val>-0.3893350958824158</left_val>
            <right_val>0.2521431148052216</right_val></_></_>
        <_>
          <!-- tree 7 -->
          <_>
            <!-- root node -->
            <feature>
              <rects>
                <_>
                  1 3 3 2 -1.</_>
                <_>
                  1 4 3 1 2.</_></rects>
              <tilted>0</tilted></feature>
            <threshold>8.7966825813055038e-003</threshold>
            <left_val>-0.3935152888298035</left_val>
            <right_val>0.2622826993465424</right_val></_></_>
        <_>
          <!-- tree 8 -->
          <_>
            <!-- root node -->
            <feature>
              <rects>
                <_>
                  1 1 2 1 -1.</_>
                <_>
                  1 1 1 1 2.</_></rects>
              <tilted>1</tilted></feature>
            <threshold>4.8766611143946648e-003</threshold>
            <left_val>-0.4993199110031128</left_val>
            <right_val>0.1848855018615723</right_val></_></_>
        <_>
          <!-- tree 9 -->
          <_>
            <!-- root node -->
            <feature>
              <rects>
                <_>
                  1 0 4 4 -1.</_>
                <_>
                  3 0 2 2 2.</_>
                <_>
                  1 2 2 2 2.</_></rects>
              <tilted>0</tilted></feature>
            <threshold>-0.4573164880275726</threshold>
            <left_val>-0.5405259132385254</left_val>
            <right_val>0.0317367687821388</right_val></_></_>
        <_>
          <!-- tree 10 -->
          <_>
            <!-- root node -->
            <feature>
              <rects>
                <_>
                  0 1 4 1 -1.</_>
                <_>
                  1 1 2 1 2.</_></rects>
              <tilted>0</tilted></feature>
            <threshold>0.0215922500938177</threshold>
            <left_val>-0.3078832030296326</left_val>
            <right_val>0.3541438877582550</right_val></_></_>
        <_>
          <!-- tree 11 -->
          <_>
            <!-- root node -->
            <feature>
              <rects>
                <_>
                  3 3 2 2 -1.</_>
                <_>
                  3 3 1 2 2.</_></rects>
              <tilted>0</tilted></feature>
            <threshold>0.0107640298083425</threshold>
            <left_val>-0.2426322996616364</left_val>
            <right_val>0.2020410001277924</right_val></_></_>
        <_>
          <!-- tree 12 -->
          <_>
            <!-- root node -->
            <feature>
              <rects>
                <_>
                  2 0 1 4 -1.</_>
                <_>
                  2 2 1 2 2.</_></rects>
              <tilted>0</tilted></feature>
            <threshold>-4.4207978062331676e-003</threshold>
            <left_val>0.2183690965175629</left_val>
            <right_val>-0.6215127706527710</right_val></_></_>
        <_>
          <!-- tree 13 -->
          <_>
            <!-- root node -->
            <feature>
              <rects>
                <_>
                  1 3 3 2 -1.</_>
                <_>
                  2 3 1 2 3.</_></rects>
              <tilted>0</tilted></feature>
            <threshold>3.0955020338296890e-003</threshold>
            <left_val>-0.3247705101966858</left_val>
            <right_val>0.3702890872955322</right_val></_></_></trees>
      <stage_threshold>-1.7509390115737915</stage_threshold>
      <parent>-1</parent>
      <next>-1</next></_>
    <_>
      <!-- stage 1 -->
      <trees>
        <_>
          <!-- tree 0 -->
          <_>
            <!-- root node -->
            <feature>
              <rects>
                <_>
                  2 2 1 2 -1.</_>
                <_>
                  2 3 1 1 2.</_></rects>
              <tilted>0</tilted></feature>
            <threshold>-0.1063636988401413</threshold>
            <left_val>0.5617213845252991</left_val>
            <right_val>-0.7420042157173157</right_val></_></_>
        <_>
          <!-- tree 1 -->
          <_>
            <!-- root node -->
            <feature>
              <rects>
                <_>
                  1 0 3 1 -1.</_>
                <_>
                  2 0 1 1 3.</_></rects>
              <tilted>0</tilted></feature>
            <threshold>0.0322948694229126</threshold>
            <left_val>-0.7237179875373840</left_val>
            <right_val>0.3350211977958679</right_val></_></_>
        <_>
          <!-- tree 2 -->
          <_>
            <!-- root node -->
            <feature>
              <rects>
                <_>
                  1 1 2 1 -1.</_>
                <_>
                  1 1 1 1 2.</_></rects>
              <tilted>1</tilted></feature>
            <threshold>4.8847920261323452e-003</threshold>
            <left_val>-0.7262356877326965</left_val>
            <right_val>0.2328788042068481</right_val></_></_>
        <_>
          <!-- tree 3 -->
          <_>
            <!-- root node -->
            <feature>
              <rects>
                <_>
                  2 0 1 4 -1.</_>
                <_>
                  2 1 1 2 2.</_></rects>
              <tilted>0</tilted></feature>
            <threshold>6.2518669292330742e-003</threshold>
            <left_val>-0.7511363029479981</left_val>
            <right_val>0.2116857022047043</right_val></_></_>
        <_>
          <!-- tree 4 -->
          <_>
            <!-- root node -->
            <feature>
              <rects>
                <_>
                  2 0 1 4 -1.</_>
                <_>
                  2 2 1 2 2.</_></rects>
              <tilted>0</tilted></feature>
            <threshold>-3.8787820376455784e-003</threshold>
            <left_val>0.1364447027444840</left_val>
            <right_val>-0.8482909798622131</right_val></_></_>
        <_>
          <!-- tree 5 -->
          <_>
            <!-- root node -->
            <feature>
              <rects>
                <_>
                  1 3 3 1 -1.</_>
                <_>
                  2 3 1 1 3.</_></rects>
              <tilted>0</tilted></feature>
            <threshold>8.7933223694562912e-003</threshold>
            <left_val>-0.3884072899818420</left_val>
            <right_val>0.4041760861873627</right_val></_></_>
        <_>
          <!-- tree 6 -->
          <_>
            <!-- root node -->
            <feature>
              <rects>
                <_>
                  1 3 3 2 -1.</_>
                <_>
                  1 4 3 1 2.</_></rects>
              <tilted>0</tilted></feature>
            <threshold>0.0681490823626518</threshold>
            <left_val>-0.4486750960350037</left_val>
            <right_val>0.3762251138687134</right_val></_></_>
        <_>
          <!-- tree 7 -->
          <_>
            <!-- root node -->
            <feature>
              <rects>
                <_>
                  0 1 5 4 -1.</_>
                <_>
                  0 3 5 2 2.</_></rects>
              <tilted>0</tilted></feature>
            <threshold>-0.0111264502629638</threshold>
            <left_val>0.2001361995935440</left_val>
            <right_val>-0.7367615103721619</right_val></_></_>
        <_>
          <!-- tree 8 -->
          <_>
            <!-- root node -->
            <feature>
              <rects>
                <_>
                  1 0 2 1 -1.</_>
                <_>
                  2 0 1 1 2.</_></rects>
              <tilted>0</tilted></feature>
            <threshold>0.0120718600228429</threshold>
            <left_val>-0.5122483968734741</left_val>
            <right_val>0.2584668993949890</right_val></_></_>
        <_>
          <!-- tree 9 -->
          <_>
            <!-- root node -->
            <feature>
              <rects>
                <_>
                  1 2 4 2 -1.</_>
                <_>
                  1 3 4 1 2.</_></rects>
              <tilted>0</tilted></feature>
            <threshold>0.1055444031953812</threshold>
            <left_val>-0.2654649913311005</left_val>
            <right_val>0.7176110744476318</right_val></_></_>
        <_>
          <!-- tree 10 -->
          <_>
            <!-- root node -->
            <feature>
              <rects>
                <_>
                  2 1 1 4 -1.</_>
                <_>
                  2 3 1 2 2.</_></rects>
              <tilted>0</tilted></feature>
            <threshold>-0.0237885508686304</threshold>
            <left_val>0.2566586136817932</left_val>
            <right_val>-0.7867199778556824</right_val></_></_>
        <_>
          <!-- tree 11 -->
          <_>
            <!-- root node -->
            <feature>
              <rects>
                <_>
                  4 0 1 3 -1.</_>
                <_>
                  4 1 1 1 3.</_></rects>
              <tilted>0</tilted></feature>
            <threshold>3.5833679139614105e-003</threshold>
            <left_val>-0.5262672901153565</left_val>
            <right_val>0.2742567956447601</right_val></_></_>
        <_>
          <!-- tree 12 -->
          <_>
            <!-- root node -->
            <feature>
              <rects>
                <_>
                  0 0 1 3 -1.</_>
                <_>
                  0 1 1 1 3.</_></rects>
              <tilted>0</tilted></feature>
            <threshold>3.5636429674923420e-003</threshold>
            <left_val>-0.5021703839302063</left_val>
            <right_val>0.2188041955232620</right_val></_></_>
        <_>
          <!-- tree 13 -->
          <_>
            <!-- root node -->
            <feature>
              <rects>
                <_>
                  3 3 2 1 -1.</_>
                <_>
                  3 3 1 1 2.</_></rects>
              <tilted>0</tilted></feature>
            <threshold>-6.6598700359463692e-003</threshold>
            <left_val>0.3331820964813232</left_val>
            <right_val>-0.5900266170501709</right_val></_></_>
        <_>
          <!-- tree 14 -->
          <_>
            <!-- root node -->
            <feature>
              <rects>
                <_>
                  0 1 5 3 -1.</_>
                <_>
                  0 2 5 1 3.</_></rects>
              <tilted>0</tilted></feature>
            <threshold>0.5623621940612793</threshold>
            <left_val>-0.2540759146213532</left_val>
            <right_val>0.5013064742088318</right_val></_></_>
        <_>
          <!-- tree 15 -->
          <_>
            <!-- root node -->
            <feature>
              <rects>
                <_>
                  2 0 1 3 -1.</_>
                <_>
                  2 1 1 1 3.</_></rects>
              <tilted>0</tilted></feature>
            <threshold>4.9279178492724895e-003</threshold>
            <left_val>-0.5308182835578919</left_val>
            <right_val>0.3316622078418732</right_val></_></_>
        <_>
          <!-- tree 16 -->
          <_>
            <!-- root node -->
            <feature>
              <rects>
                <_>
                  0 0 4 1 -1.</_>
                <_>
                  2 0 2 1 2.</_></rects>
              <tilted>0</tilted></feature>
            <threshold>-3.5874799359589815e-003</threshold>
            <left_val>0.3785722851753235</left_val>
            <right_val>-0.5059685707092285</right_val></_></_>
        <_>
          <!-- tree 17 -->
          <_>
            <!-- root node -->
            <feature>
              <rects>
                <_>
                  1 0 4 1 -1.</_>
                <_>
                  1 0 2 1 2.</_></rects>
              <tilted>0</tilted></feature>
            <threshold>8.1430505961179733e-003</threshold>
            <left_val>-0.2724125981330872</left_val>
            <right_val>0.2678082883358002</right_val></_></_>
        <_>
          <!-- tree 18 -->
          <_>
            <!-- root node -->
            <feature>
              <rects>
                <_>
                  0 0 4 1 -1.</_>
                <_>
                  2 0 2 1 2.</_></rects>
              <tilted>0</tilted></feature>
            <threshold>3.3469758927822113e-003</threshold>
            <left_val>-0.5401844978332520</left_val>
            <right_val>0.5265548825263977</right_val></_></_>
        <_>
          <!-- tree 19 -->
          <_>
            <!-- root node -->
            <feature>
              <rects>
                <_>
                  3 3 2 1 -1.</_>
                <_>
                  3 3 1 1 2.</_></rects>
              <tilted>0</tilted></feature>
            <threshold>6.7591639235615730e-003</threshold>
            <left_val>-0.4290094077587128</left_val>
            <right_val>0.4632310867309570</right_val></_></_>
        <_>
          <!-- tree 20 -->
          <_>
            <!-- root node -->
            <feature>
              <rects>
                <_>
                  0 3 2 1 -1.</_>
                <_>
                  1 3 1 1 2.</_></rects>
              <tilted>0</tilted></feature>
            <threshold>-3.5210279747843742e-003</threshold>
            <left_val>0.4767116904258728</left_val>
            <right_val>-0.7010965943336487</right_val></_></_>
        <_>
          <!-- tree 21 -->
          <_>
            <!-- root node -->
            <feature>
              <rects>
                <_>
                  3 3 2 1 -1.</_>
                <_>
                  3 3 1 1 2.</_></rects>
              <tilted>0</tilted></feature>
            <threshold>-3.3990740776062012e-003</threshold>
            <left_val>0.4359964132308960</left_val>
            <right_val>-0.5727800130844116</right_val></_></_>
        <_>
          <!-- tree 22 -->
          <_>
            <!-- root node -->
            <feature>
              <rects>
                <_>
                  0 3 2 1 -1.</_>
                <_>
                  1 3 1 1 2.</_></rects>
              <tilted>0</tilted></feature>
            <threshold>2.8883588965982199e-003</threshold>
            <left_val>-0.3783738017082214</left_val>
            <right_val>0.7210959792137146</right_val></_></_>
        <_>
          <!-- tree 23 -->
          <_>
            <!-- root node -->
            <feature>
              <rects>
                <_>
                  2 0 3 1 -1.</_>
                <_>
                  3 0 1 1 3.</_></rects>
              <tilted>0</tilted></feature>
            <threshold>-6.7710322327911854e-003</threshold>
            <left_val>0.3243755996227264</left_val>
            <right_val>-0.5408266186714172</right_val></_></_>
        <_>
          <!-- tree 24 -->
          <_>
            <!-- root node -->
            <feature>
              <rects>
                <_>
                  0 3 3 1 -1.</_>
                <_>
                  1 3 1 1 3.</_></rects>
              <tilted>0</tilted></feature>
            <threshold>-0.0567661598324776</threshold>
            <left_val>0.4628092944622040</left_val>
            <right_val>-0.3553709089756012</right_val></_></_>
        <_>
          <!-- tree 25 -->
          <_>
            <!-- root node -->
            <feature>
              <rects>
                <_>
                  2 3 2 1 -1.</_>
                <_>
                  2 3 1 1 2.</_></rects>
              <tilted>0</tilted></feature>
            <threshold>5.4423878900706768e-003</threshold>
            <left_val>-0.2120887935161591</left_val>
            <right_val>0.3211612999439240</right_val></_></_>
        <_>
          <!-- tree 26 -->
          <_>
            <!-- root node -->
            <feature>
              <rects>
                <_>
                  1 3 3 1 -1.</_>
                <_>
                  2 3 1 1 3.</_></rects>
              <tilted>0</tilted></feature>
            <threshold>-5.5310698226094246e-003</threshold>
            <left_val>0.4564903974533081</left_val>
            <right_val>-0.4366767108440399</right_val></_></_>
        <_>
          <!-- tree 27 -->
          <_>
            <!-- root node -->
            <feature>
              <rects>
                <_>
                  4 1 1 2 -1.</_>
                <_>
                  4 1 1 1 2.</_></rects>
              <tilted>1</tilted></feature>
            <threshold>-0.3587959110736847</threshold>
            <left_val>0.8949167132377625</left_val>
            <right_val>-0.0875355526804924</right_val></_></_>
        <_>
          <!-- tree 28 -->
          <_>
            <!-- root node -->
            <feature>
              <rects>
                <_>
                  1 1 2 1 -1.</_>
                <_>
                  1 1 1 1 2.</_></rects>
              <tilted>1</tilted></feature>
            <threshold>-3.0029010958969593e-003</threshold>
            <left_val>0.6307091116905212</left_val>
            <right_val>-0.1604762971401215</right_val></_></_>
        <_>
          <!-- tree 29 -->
          <_>
            <!-- root node -->
            <feature>
              <rects>
                <_>
                  0 0 5 4 -1.</_>
                <_>
                  0 2 5 2 2.</_></rects>
              <tilted>0</tilted></feature>
            <threshold>-0.0124956397339702</threshold>
            <left_val>0.2436628937721252</left_val>
            <right_val>-0.4568704962730408</right_val></_></_>
        <_>
          <!-- tree 30 -->
          <_>
            <!-- root node -->
            <feature>
              <rects>
                <_>
                  2 1 1 4 -1.</_>
                <_>
                  2 3 1 2 2.</_></rects>
              <tilted>0</tilted></feature>
            <threshold>7.2821569629013538e-003</threshold>
            <left_val>-0.1628165990114212</left_val>
            <right_val>0.7371975183486939</right_val></_></_>
        <_>
          <!-- tree 31 -->
          <_>
            <!-- root node -->
            <feature>
              <rects>
                <_>
                  1 1 4 4 -1.</_>
                <_>
                  3 1 2 2 2.</_>
                <_>
                  1 3 2 2 2.</_></rects>
              <tilted>0</tilted></feature>
            <threshold>-0.0160763394087553</threshold>
            <left_val>0.0971880033612251</left_val>
            <right_val>-0.2855061888694763</right_val></_></_>
        <_>
          <!-- tree 32 -->
          <_>
            <!-- root node -->
            <feature>
              <rects>
                <_>
                  0 1 4 4 -1.</_>
                <_>
                  0 1 2 2 2.</_>
                <_>
                  2 3 2 2 2.</_></rects>
              <tilted>0</tilted></feature>
            <threshold>-4.1656577959656715e-003</threshold>
            <left_val>0.3022117912769318</left_val>
            <right_val>-0.4047566950321198</right_val></_></_>
        <_>
          <!-- tree 33 -->
          <_>
            <!-- root node -->
            <feature>
              <rects>
                <_>
                  1 4 3 1 -1.</_>
                <_>
                  2 4 1 1 3.</_></rects>
              <tilted>0</tilted></feature>
            <threshold>4.2025712318718433e-003</threshold>
            <left_val>-0.2773438096046448</left_val>
            <right_val>0.2989383935928345</right_val></_></_>
        <_>
          <!-- tree 34 -->
          <_>
            <!-- root node -->
            <feature>
              <rects>
                <_>
                  1 0 3 1 -1.</_>
                <_>
                  2 0 1 1 3.</_></rects>
              <tilted>0</tilted></feature>
            <threshold>-3.7404398899525404e-003</threshold>
            <left_val>0.5624775290489197</left_val>
            <right_val>-0.2023413032293320</right_val></_></_>
        <_>
          <!-- tree 35 -->
          <_>
            <!-- root node -->
            <feature>
              <rects>
                <_>
                  2 3 1 2 -1.</_>
                <_>
                  2 4 1 1 2.</_></rects>
              <tilted>0</tilted></feature>
            <threshold>-0.0350208505988121</threshold>
            <left_val>0.3692407011985779</left_val>
            <right_val>-0.1879265010356903</right_val></_></_>
        <_>
          <!-- tree 36 -->
          <_>
            <!-- root node -->
            <feature>
              <rects>
                <_>
                  0 2 5 3 -1.</_>
                <_>
                  0 3 5 1 3.</_></rects>
              <tilted>0</tilted></feature>
            <threshold>-0.5528442859649658</threshold>
            <left_val>0.3929593861103058</left_val>
            <right_val>-0.2344179004430771</right_val></_></_>
        <_>
          <!-- tree 37 -->
          <_>
            <!-- root node -->
            <feature>
              <rects>
                <_>
                  1 1 3 3 -1.</_>
                <_>
                  1 2 3 1 3.</_></rects>
              <tilted>0</tilted></feature>
            <threshold>-0.6360619068145752</threshold>
            <left_val>0.7418577075004578</left_val>
            <right_val>-0.1164045035839081</right_val></_></_>
        <_>
          <!-- tree 38 -->
          <_>
            <!-- root node -->
            <feature>
              <rects>
                <_>
                  1 1 2 3 -1.</_>
                <_>
                  1 2 2 1 3.</_></rects>
              <tilted>0</tilted></feature>
            <threshold>0.2576620876789093</threshold>
            <left_val>-0.1757646054029465</left_val>
            <right_val>0.3273116946220398</right_val></_></_>
        <_>
          <!-- tree 39 -->
          <_>
            <!-- root node -->
            <feature>
              <rects>
                <_>
                  2 1 2 4 -1.</_>
                <_>
                  3 1 1 2 2.</_>
                <_>
                  2 3 1 2 2.</_></rects>
              <tilted>0</tilted></feature>
            <threshold>-9.5847360789775848e-003</threshold>
            <left_val>0.1256666034460068</left_val>
            <right_val>-0.2527328133583069</right_val></_></_>
        <_>
          <!-- tree 40 -->
          <_>
            <!-- root node -->
            <feature>
              <rects>
                <_>
                  1 2 1 2 -1.</_>
                <_>
                  1 3 1 1 2.</_></rects>
              <tilted>0</tilted></feature>
            <threshold>0.0218154396861792</threshold>
            <left_val>-0.1590332984924316</left_val>
            <right_val>0.4199745059013367</right_val></_></_>
        <_>
          <!-- tree 41 -->
          <_>
            <!-- root node -->
            <feature>
              <rects>
                <_>
                  0 0 5 4 -1.</_>
                <_>
                  0 1 5 2 2.</_></rects>
              <tilted>0</tilted></feature>
            <threshold>5.5860728025436401e-003</threshold>
            <left_val>-0.5205988287925720</left_val>
            <right_val>0.1479848027229309</right_val></_></_>
        <_>
          <!-- tree 42 -->
          <_>
            <!-- root node -->
            <feature>
              <rects>
                <_>
                  0 3 2 2 -1.</_>
                <_>
                  0 3 1 1 2.</_>
                <_>
                  1 4 1 1 2.</_></rects>
              <tilted>0</tilted></feature>
            <threshold>5.4628900252282619e-003</threshold>
            <left_val>-0.3439908921718597</left_val>
            <right_val>0.1883630007505417</right_val></_></_>
        <_>
          <!-- tree 43 -->
          <_>
            <!-- root node -->
            <feature>
              <rects>
                <_>
                  2 0 2 4 -1.</_>
                <_>
                  2 2 2 2 2.</_></rects>
              <tilted>0</tilted></feature>
            <threshold>-4.6113519929349422e-003</threshold>
            <left_val>0.1154581010341644</left_val>
            <right_val>-0.4505319893360138</right_val></_></_>
        <_>
          <!-- tree 44 -->
          <_>
            <!-- root node -->
            <feature>
              <rects>
                <_>
                  0 0 4 4 -1.</_>
                <_>
                  0 2 4 2 2.</_></rects>
              <tilted>0</tilted></feature>
            <threshold>0.0678285211324692</threshold>
            <left_val>-0.1446651071310043</left_val>
            <right_val>0.5507565140724182</right_val></_></_>
        <_>
          <!-- tree 45 -->
          <_>
            <!-- root node -->
            <feature>
              <rects>
                <_>
                  2 0 2 4 -1.</_>
                <_>
                  2 2 2 2 2.</_></rects>
              <tilted>0</tilted></feature>
            <threshold>-0.0765967518091202</threshold>
            <left_val>0.1086599975824356</left_val>
            <right_val>-0.4032936990261078</right_val></_></_>
        <_>
          <!-- tree 46 -->
          <_>
            <!-- root node -->
            <feature>
              <rects>
                <_>
                  1 1 3 2 -1.</_>
                <_>
                  1 2 3 1 2.</_></rects>
              <tilted>0</tilted></feature>
            <threshold>0.0214068908244371</threshold>
            <left_val>-0.1872503012418747</left_val>
            <right_val>0.3913995027542114</right_val></_></_>
        <_>
          <!-- tree 47 -->
          <_>
            <!-- root node -->
            <feature>
              <rects>
                <_>
                  3 1 1 2 -1.</_>
                <_>
                  3 2 1 1 2.</_></rects>
              <tilted>0</tilted></feature>
            <threshold>-3.2632621005177498e-003</threshold>
            <left_val>0.2130647003650665</left_val>
            <right_val>-0.3298256099224091</right_val></_></_>
        <_>
          <!-- tree 48 -->
          <_>
            <!-- root node -->
            <feature>
              <rects>
                <_>
                  1 1 1 2 -1.</_>
                <_>
                  1 2 1 1 2.</_></rects>
              <tilted>0</tilted></feature>
            <threshold>-5.6959539651870728e-003</threshold>
            <left_val>0.2888349890708923</left_val>
            <right_val>-0.3377143144607544</right_val></_></_>
        <_>
          <!-- tree 49 -->
          <_>
            <!-- root node -->
            <feature>
              <rects>
                <_>
                  1 1 3 2 -1.</_>
                <_>
                  1 2 3 1 2.</_></rects>
              <tilted>0</tilted></feature>
            <threshold>8.2025527954101563e-003</threshold>
            <left_val>-0.2052343040704727</left_val>
            <right_val>0.3715040087699890</right_val></_></_>
        <_>
          <!-- tree 50 -->
          <_>
            <!-- root node -->
            <feature>
              <rects>
                <_>
                  1 0 2 4 -1.</_>
                <_>
                  1 2 2 2 2.</_></rects>
              <tilted>0</tilted></feature>
            <threshold>-6.3937618397176266e-003</threshold>
            <left_val>0.1175289005041122</left_val>
            <right_val>-0.5043432116508484</right_val></_></_>
        <_>
          <!-- tree 51 -->
          <_>
            <!-- root node -->
            <feature>
              <rects>
                <_>
                  1 0 3 4 -1.</_>
                <_>
                  1 2 3 2 2.</_></rects>
              <tilted>0</tilted></feature>
            <threshold>3.1932219862937927e-003</threshold>
            <left_val>-0.1530214995145798</left_val>
            <right_val>0.5293208956718445</right_val></_></_>
        <_>
          <!-- tree 52 -->
          <_>
            <!-- root node -->
            <feature>
              <rects>
                <_>
                  0 0 1 4 -1.</_>
                <_>
                  0 2 1 2 2.</_></rects>
              <tilted>0</tilted></feature>
            <threshold>-5.9142010286450386e-003</threshold>
            <left_val>0.2149564027786255</left_val>
            <right_val>-0.3522158861160278</right_val></_></_>
        <_>
          <!-- tree 53 -->
          <_>
            <!-- root node -->
            <feature>
              <rects>
                <_>
                  1 0 4 5 -1.</_>
                <_>
                  1 0 2 5 2.</_></rects>
              <tilted>0</tilted></feature>
            <threshold>1.7684869766235352</threshold>
            <left_val>-0.0894067063927650</left_val>
            <right_val>0.6218984723091126</right_val></_></_>
        <_>
          <!-- tree 54 -->
          <_>
            <!-- root node -->
            <feature>
              <rects>
                <_>
                  2 1 1 4 -1.</_>
                <_>
                  2 3 1 2 2.</_></rects>
              <tilted>0</tilted></feature>
            <threshold>-5.9042731299996376e-003</threshold>
            <left_val>0.1114723980426788</left_val>
            <right_val>-0.5667607784271240</right_val></_></_>
        <_>
          <!-- tree 55 -->
          <_>
            <!-- root node -->
            <feature>
              <rects>
                <_>
                  1 1 3 4 -1.</_>
                <_>
                  1 3 3 2 2.</_></rects>
              <tilted>0</tilted></feature>
            <threshold>0.0164007991552353</threshold>
            <left_val>-0.1613802015781403</left_val>
            <right_val>0.6524410247802734</right_val></_></_>
        <_>
          <!-- tree 56 -->
          <_>
            <!-- root node -->
            <feature>
              <rects>
                <_>
                  1 1 3 4 -1.</_>
                <_>
                  1 3 3 2 2.</_></rects>
              <tilted>0</tilted></feature>
            <threshold>-0.0907960981130600</threshold>
            <left_val>0.1566873043775559</left_val>
            <right_val>-0.5751100182533264</right_val></_></_>
        <_>
          <!-- tree 57 -->
          <_>
            <!-- root node -->
            <feature>
              <rects>
                <_>
                  1 1 3 4 -1.</_>
                <_>
                  1 3 3 2 2.</_></rects>
              <tilted>0</tilted></feature>
            <threshold>7.7925450168550014e-003</threshold>
            <left_val>-0.1503475010395050</left_val>
            <right_val>0.6047180294990540</right_val></_></_>
        <_>
          <!-- tree 58 -->
          <_>
            <!-- root node -->
            <feature>
              <rects>
                <_>
                  1 1 3 4 -1.</_>
                <_>
                  1 3 3 2 2.</_></rects>
              <tilted>0</tilted></feature>
            <threshold>-0.0130610801279545</threshold>
            <left_val>0.1551408022642136</left_val>
            <right_val>-0.5983939766883850</right_val></_></_>
        <_>
          <!-- tree 59 -->
          <_>
            <!-- root node -->
            <feature>
              <rects>
                <_>
                  1 1 3 4 -1.</_>
                <_>
                  1 3 3 2 2.</_></rects>
              <tilted>0</tilted></feature>
            <threshold>7.7925450168550014e-003</threshold>
            <left_val>-0.1527619957923889</left_val>
            <right_val>0.6007720232009888</right_val></_></_>
        <_>
          <!-- tree 60 -->
          <_>
            <!-- root node -->
            <feature>
              <rects>
                <_>
                  1 1 3 4 -1.</_>
                <_>
                  1 3 3 2 2.</_></rects>
              <tilted>0</tilted></feature>
            <threshold>-6.3950330950319767e-003</threshold>
            <left_val>0.1526854932308197</left_val>
            <right_val>-0.5962458252906799</right_val></_></_>
        <_>
          <!-- tree 61 -->
          <_>
            <!-- root node -->
            <feature>
              <rects>
                <_>
                  1 1 3 4 -1.</_>
                <_>
                  1 3 3 2 2.</_></rects>
              <tilted>0</tilted></feature>
            <threshold>6.3163931481540203e-003</threshold>
            <left_val>-0.1511404961347580</left_val>
            <right_val>0.5982028245925903</right_val></_></_>
        <_>
          <!-- tree 62 -->
          <_>
            <!-- root node -->
            <feature>
              <rects>
                <_>
                  1 1 3 4 -1.</_>
                <_>
                  1 3 3 2 2.</_></rects>
              <tilted>0</tilted></feature>
            <threshold>-6.3950330950319767e-003</threshold>
            <left_val>0.1511930972337723</left_val>
            <right_val>-0.5920838117599487</right_val></_></_>
        <_>
          <!-- tree 63 -->
          <_>
            <!-- root node -->
            <feature>
              <rects>
                <_>
                  1 1 3 4 -1.</_>
                <_>
                  1 3 3 2 2.</_></rects>
              <tilted>0</tilted></feature>
            <threshold>4.6357940882444382e-003</threshold>
            <left_val>-0.1489932984113693</left_val>
            <right_val>0.5939916968345642</right_val></_></_>
        <_>
          <!-- tree 64 -->
          <_>
            <!-- root node -->
            <feature>
              <rects>
                <_>
                  0 1 4 4 -1.</_>
                <_>
                  0 3 4 2 2.</_></rects>
              <tilted>0</tilted></feature>
            <threshold>-0.0199213903397322</threshold>
            <left_val>0.1416054964065552</left_val>
            <right_val>-0.6059054732322693</right_val></_></_>
        <_>
          <!-- tree 65 -->
          <_>
            <!-- root node -->
            <feature>
              <rects>
                <_>
                  1 1 4 4 -1.</_>
                <_>
                  1 3 4 2 2.</_></rects>
              <tilted>0</tilted></feature>
            <threshold>0.0147200804203749</threshold>
            <left_val>-0.1414605975151062</left_val>
            <right_val>0.5145589709281921</right_val></_></_>
        <_>
          <!-- tree 66 -->
          <_>
            <!-- root node -->
            <feature>
              <rects>
                <_>
                  1 1 3 4 -1.</_>
                <_>
                  1 3 3 2 2.</_></rects>
              <tilted>0</tilted></feature>
            <threshold>-6.3950330950319767e-003</threshold>
            <left_val>0.1498831957578659</left_val>
            <right_val>-0.5605145096778870</right_val></_></_>
        <_>
          <!-- tree 67 -->
          <_>
            <!-- root node -->
            <feature>
              <rects>
                <_>
                  1 1 4 4 -1.</_>
                <_>
                  1 3 4 2 2.</_></rects>
              <tilted>0</tilted></feature>
            <threshold>0.1058864966034889</threshold>
            <left_val>-0.1118040978908539</left_val>
            <right_val>0.4868209958076477</right_val></_></_>
        <_>
          <!-- tree 68 -->
          <_>
            <!-- root node -->
            <feature>
              <rects>
                <_>
                  0 0 5 2 -1.</_>
                <_>
                  0 1 5 1 2.</_></rects>
              <tilted>0</tilted></feature>
            <threshold>8.7360525503754616e-003</threshold>
            <left_val>-0.3854613900184631</left_val>
            <right_val>0.1949063986539841</right_val></_></_>
        <_>
          <!-- tree 69 -->
          <_>
            <!-- root node -->
            <feature>
              <rects>
                <_>
                  1 0 3 4 -1.</_>
                <_>
                  1 2 3 2 2.</_></rects>
              <tilted>0</tilted></feature>
            <threshold>-2.3525829892605543e-003</threshold>
            <left_val>0.1670317947864533</left_val>
            <right_val>-0.5369145274162293</right_val></_></_>
        <_>
          <!-- tree 70 -->
          <_>
            <!-- root node -->
            <feature>
              <rects>
                <_>
                  1 0 3 4 -1.</_>
                <_>
                  1 2 3 2 2.</_></rects>
              <tilted>0</tilted></feature>
            <threshold>3.1932219862937927e-003</threshold>
            <left_val>-0.1634490936994553</left_val>
            <right_val>0.5383182168006897</right_val></_></_>
        <_>
          <!-- tree 71 -->
          <_>
            <!-- root node -->
            <feature>
              <rects>
                <_>
                  1 0 3 4 -1.</_>
                <_>
                  1 2 3 2 2.</_></rects>
              <tilted>0</tilted></feature>
            <threshold>-2.3525829892605543e-003</threshold>
            <left_val>0.1635881960391998</left_val>
            <right_val>-0.5200796723365784</right_val></_></_>
        <_>
          <!-- tree 72 -->
          <_>
            <!-- root node -->
            <feature>
              <rects>
                <_>
                  0 0 5 3 -1.</_>
                <_>
                  0 1 5 1 3.</_></rects>
              <tilted>0</tilted></feature>
            <threshold>-7.9182973131537437e-003</threshold>
            <left_val>0.4332461953163147</left_val>
            <right_val>-0.1918292045593262</right_val></_></_>
        <_>
          <!-- tree 73 -->
          <_>
            <!-- root node -->
            <feature>
              <rects>
                <_>
                  0 0 5 3 -1.</_>
                <_>
                  0 1 5 1 3.</_></rects>
              <tilted>0</tilted></feature>
            <threshold>7.9435901716351509e-003</threshold>
            <left_val>-0.3272874951362610</left_val>
            <right_val>0.1887090057134628</right_val></_></_>
        <_>
          <!-- tree 74 -->
          <_>
            <!-- root node -->
            <feature>
              <rects>
                <_>
                  0 0 5 4 -1.</_>
                <_>
                  0 2 5 2 2.</_></rects>
              <tilted>0</tilted></feature>
            <threshold>8.0874059349298477e-003</threshold>
            <left_val>-0.1861941069364548</left_val>
            <right_val>0.4666509032249451</right_val></_></_>
        <_>
          <!-- tree 75 -->
          <_>
            <!-- root node -->
            <feature>
              <rects>
                <_>
                  0 0 5 4 -1.</_>
                <_>
                  0 2 5 2 2.</_></rects>
              <tilted>0</tilted></feature>
            <threshold>-7.6559870503842831e-003</threshold>
            <left_val>0.1782650053501129</left_val>
            <right_val>-0.5140386819839478</right_val></_></_>
        <_>
          <!-- tree 76 -->
          <_>
            <!-- root node -->
            <feature>
              <rects>
                <_>
                  0 0 5 4 -1.</_>
                <_>
                  0 2 5 2 2.</_></rects>
              <tilted>0</tilted></feature>
            <threshold>8.0874059349298477e-003</threshold>
            <left_val>-0.1716299057006836</left_val>
            <right_val>0.5035675764083862</right_val></_></_>
        <_>
          <!-- tree 77 -->
          <_>
            <!-- root node -->
            <feature>
              <rects>
                <_>
                  0 0 5 4 -1.</_>
                <_>
                  0 2 5 2 2.</_></rects>
              <tilted>0</tilted></feature>
            <threshold>-7.6559870503842831e-003</threshold>
            <left_val>0.1714594066143036</left_val>
            <right_val>-0.5005344152450562</right_val></_></_>
        <_>
          <!-- tree 78 -->
          <_>
            <!-- root node -->
            <feature>
              <rects>
                <_>
                  0 0 5 4 -1.</_>
                <_>
                  0 2 5 2 2.</_></rects>
              <tilted>0</tilted></feature>
            <threshold>7.2323968634009361e-003</threshold>
            <left_val>-0.1682453006505966</left_val>
            <right_val>0.5012125968933106</right_val></_></_>
        <_>
          <!-- tree 79 -->
          <_>
            <!-- root node -->
            <feature>
              <rects>
                <_>
                  0 0 5 4 -1.</_>
                <_>
                  0 2 5 2 2.</_></rects>
              <tilted>0</tilted></feature>
            <threshold>-2.1159860771149397e-003</threshold>
            <left_val>0.1683585941791534</left_val>
            <right_val>-0.4924474954605103</right_val></_></_>
        <_>
          <!-- tree 80 -->
          <_>
            <!-- root node -->
            <feature>
              <rects>
                <_>
                  0 0 5 4 -1.</_>
                <_>
                  0 2 5 2 2.</_></rects>
              <tilted>0</tilted></feature>
            <threshold>4.3075447902083397e-003</threshold>
            <left_val>-0.1634466946125031</left_val>
            <right_val>0.4945056140422821</right_val></_></_>
        <_>
          <!-- tree 81 -->
          <_>
            <!-- root node -->
            <feature>
              <rects>
                <_>
                  1 0 4 4 -1.</_>
                <_>
                  1 2 4 2 2.</_></rects>
              <tilted>0</tilted></feature>
            <threshold>-5.8195008896291256e-003</threshold>
            <left_val>0.1580590009689331</left_val>
            <right_val>-0.4985255002975464</right_val></_></_>
        <_>
          <!-- tree 82 -->
          <_>
            <!-- root node -->
            <feature>
              <rects>
                <_>
                  1 0 3 4 -1.</_>
                <_>
                  1 2 3 2 2.</_></rects>
              <tilted>0</tilted></feature>
            <threshold>2.1067999769002199e-003</threshold>
            <left_val>-0.1535965055227280</left_val>
            <right_val>0.5350703001022339</right_val></_></_>
        <_>
          <!-- tree 83 -->
          <_>
            <!-- root node -->
            <feature>
              <rects>
                <_>
                  1 0 4 4 -1.</_>
                <_>
                  1 2 4 2 2.</_></rects>
              <tilted>0</tilted></feature>
            <threshold>-0.5807018280029297</threshold>
            <left_val>0.2476591020822525</left_val>
            <right_val>-0.3095004856586456</right_val></_></_>
        <_>
          <!-- tree 84 -->
          <_>
            <!-- root node -->
            <feature>
              <rects>
                <_>
                  0 0 4 4 -1.</_>
                <_>
                  2 0 2 4 2.</_></rects>
              <tilted>0</tilted></feature>
            <threshold>0.7404326796531677</threshold>
            <left_val>-0.1611451953649521</left_val>
            <right_val>0.5246880054473877</right_val></_></_>
        <_>
          <!-- tree 85 -->
          <_>
            <!-- root node -->
            <feature>
              <rects>
                <_>
                  1 0 4 1 -1.</_>
                <_>
                  1 0 2 1 2.</_></rects>
              <tilted>0</tilted></feature>
            <threshold>0.0163911506533623</threshold>
            <left_val>-0.3611032068729401</left_val>
            <right_val>0.1999754011631012</right_val></_></_>
        <_>
          <!-- tree 86 -->
          <_>
            <!-- root node -->
            <feature>
              <rects>
                <_>
                  1 0 2 4 -1.</_>
                <_>
                  1 1 2 2 2.</_></rects>
              <tilted>0</tilted></feature>
            <threshold>5.0805700011551380e-003</threshold>
            <left_val>-0.5794618725776672</left_val>
            <right_val>0.2246533036231995</right_val></_></_>
        <_>
          <!-- tree 87 -->
          <_>
            <!-- root node -->
            <feature>
              <rects>
                <_>
                  2 2 3 2 -1.</_>
                <_>
                  2 3 3 1 2.</_></rects>
              <tilted>0</tilted></feature>
            <threshold>-0.0336977206170559</threshold>
            <left_val>0.0976618081331253</left_val>
            <right_val>-0.5149992704391480</right_val></_></_>
        <_>
          <!-- tree 88 -->
          <_>
            <!-- root node -->
            <feature>
              <rects>
                <_>
                  0 2 3 2 -1.</_>
                <_>
                  0 3 3 1 2.</_></rects>
              <tilted>0</tilted></feature>
            <threshold>0.0654169768095016</threshold>
            <left_val>-0.2602772116661072</left_val>
            <right_val>0.8436946868896484</right_val></_></_>
        <_>
          <!-- tree 89 -->
          <_>
            <!-- root node -->
            <feature>
              <rects>
                <_>
                  3 1 2 2 -1.</_>
                <_>
                  3 1 2 1 2.</_></rects>
              <tilted>1</tilted></feature>
            <threshold>3.0815938953310251e-003</threshold>
            <left_val>-0.5890566110610962</left_val>
            <right_val>0.1939547955989838</right_val></_></_>
        <_>
          <!-- tree 90 -->
          <_>
            <!-- root node -->
            <feature>
              <rects>
                <_>
                  0 2 4 2 -1.</_>
                <_>
                  2 2 2 2 2.</_></rects>
              <tilted>0</tilted></feature>
            <threshold>-0.0161396693438292</threshold>
            <left_val>0.4226531088352203</left_val>
            <right_val>-0.6081510782241821</right_val></_></_>
        <_>
          <!-- tree 91 -->
          <_>
            <!-- root node -->
            <feature>
              <rects>
                <_>
                  1 2 4 2 -1.</_>
                <_>
                  1 2 2 2 2.</_></rects>
              <tilted>0</tilted></feature>
            <threshold>-0.1574455946683884</threshold>
            <left_val>0.5171874761581421</left_val>
            <right_val>-0.3264166116714478</right_val></_></_>
        <_>
          <!-- tree 92 -->
          <_>
            <!-- root node -->
            <feature>
              <rects>
                <_>
                  1 3 3 2 -1.</_>
                <_>
                  2 3 1 2 3.</_></rects>
              <tilted>0</tilted></feature>
            <threshold>3.7159048952162266e-003</threshold>
            <left_val>-0.3166379928588867</left_val>
            <right_val>0.4787335991859436</right_val></_></_>
        <_>
          <!-- tree 93 -->
          <_>
            <!-- root node -->
            <feature>
              <rects>
                <_>
                  2 1 1 3 -1.</_>
                <_>
                  2 2 1 1 3.</_></rects>
              <tilted>0</tilted></feature>
            <threshold>6.4672888256609440e-003</threshold>
            <left_val>-0.5749533176422119</left_val>
            <right_val>0.2466434985399246</right_val></_></_>
        <_>
          <!-- tree 94 -->
          <_>
            <!-- root node -->
            <feature>
              <rects>
                <_>
                  0 1 5 4 -1.</_>
                <_>
                  0 2 5 2 2.</_></rects>
              <tilted>0</tilted></feature>
            <threshold>-6.7527070641517639e-003</threshold>
            <left_val>0.2852460145950317</left_val>
            <right_val>-0.6159840822219849</right_val></_></_>
        <_>
          <!-- tree 95 -->
          <_>
            <!-- root node -->
            <feature>
              <rects>
                <_>
                  0 1 5 4 -1.</_>
                <_>
                  0 2 5 2 2.</_></rects>
              <tilted>0</tilted></feature>
            <threshold>2.6163309812545776e-003</threshold>
            <left_val>-0.3344458043575287</left_val>
            <right_val>0.5886542201042175</right_val></_></_>
        <_>
          <!-- tree 96 -->
          <_>
            <!-- root node -->
            <feature>
              <rects>
                <_>
                  0 1 5 4 -1.</_>
                <_>
                  0 2 5 2 2.</_></rects>
              <tilted>0</tilted></feature>
            <threshold>-6.7527070641517639e-003</threshold>
            <left_val>0.3323999047279358</left_val>
            <right_val>-0.5901951789855957</right_val></_></_>
        <_>
          <!-- tree 97 -->
          <_>
            <!-- root node -->
            <feature>
              <rects>
                <_>
                  0 1 5 4 -1.</_>
                <_>
                  0 2 5 2 2.</_></rects>
              <tilted>0</tilted></feature>
            <threshold>2.6163309812545776e-003</threshold>
            <left_val>-0.3231574892997742</left_val>
            <right_val>0.5896828770637512</right_val></_></_>
        <_>
          <!-- tree 98 -->
          <_>
            <!-- root node -->
            <feature>
              <rects>
                <_>
                  0 1 4 4 -1.</_>
                <_>
                  0 2 4 2 2.</_></rects>
              <tilted>0</tilted></feature>
            <threshold>-5.6011080741882324e-003</threshold>
            <left_val>0.3345459997653961</left_val>
            <right_val>-0.5841953158378601</right_val></_></_>
        <_>
          <!-- tree 99 -->
          <_>
            <!-- root node -->
            <feature>
              <rects>
                <_>
                  1 3 4 2 -1.</_>
                <_>
                  1 4 4 1 2.</_></rects>
              <tilted>0</tilted></feature>
            <threshold>-0.0990579128265381</threshold>
            <left_val>0.4656237959861755</left_val>
            <right_val>-0.3198902904987335</right_val></_></_>
        <_>
          <!-- tree 100 -->
          <_>
            <!-- root node -->
            <feature>
              <rects>
                <_>
                  0 1 2 2 -1.</_>
                <_>
                  0 2 2 1 2.</_></rects>
              <tilted>0</tilted></feature>
            <threshold>1.7949650064110756e-003</threshold>
            <left_val>-0.2091355025768280</left_val>
            <right_val>0.5362098813056946</right_val></_></_>
        <_>
          <!-- tree 101 -->
          <_>
            <!-- root node -->
            <feature>
              <rects>
                <_>
                  2 0 2 4 -1.</_>
                <_>
                  2 2 2 2 2.</_></rects>
              <tilted>0</tilted></feature>
            <threshold>-0.0117150899022818</threshold>
            <left_val>0.1256553977727890</left_val>
            <right_val>-0.5107499957084656</right_val></_></_>
        <_>
          <!-- tree 102 -->
          <_>
            <!-- root node -->
            <feature>
              <rects>
                <_>
                  2 1 1 3 -1.</_>
                <_>
                  2 2 1 1 3.</_></rects>
              <tilted>0</tilted></feature>
            <threshold>-0.0556674115359783</threshold>
            <left_val>0.6860088706016541</left_val>
            <right_val>-0.2087613046169281</right_val></_></_>
        <_>
          <!-- tree 103 -->
          <_>
            <!-- root node -->
            <feature>
              <rects>
                <_>
                  2 1 1 2 -1.</_>
                <_>
                  2 2 1 1 2.</_></rects>
              <tilted>0</tilted></feature>
            <threshold>2.8952748980373144e-003</threshold>
            <left_val>-0.2384606003761292</left_val>
            <right_val>0.5448812842369080</right_val></_></_>
        <_>
          <!-- tree 104 -->
          <_>
            <!-- root node -->
            <feature>
              <rects>
                <_>
                  0 1 2 2 -1.</_>
                <_>
                  0 2 2 1 2.</_></rects>
              <tilted>0</tilted></feature>
            <threshold>-8.0117303878068924e-003</threshold>
            <left_val>0.2483561038970947</left_val>
            <right_val>-0.4760195910930634</right_val></_></_>
        <_>
          <!-- tree 105 -->
          <_>
            <!-- root node -->
            <feature>
              <rects>
                <_>
                  3 1 2 2 -1.</_>
                <_>
                  3 2 2 1 2.</_></rects>
              <tilted>0</tilted></feature>
            <threshold>0.0168280191719532</threshold>
            <left_val>-0.1672466993331909</left_val>
            <right_val>0.3521758913993835</right_val></_></_>
        <_>
          <!-- tree 106 -->
          <_>
            <!-- root node -->
            <feature>
              <rects>
                <_>
                  0 0 4 4 -1.</_>
                <_>
                  0 0 2 2 2.</_>
                <_>
                  2 2 2 2 2.</_></rects>
              <tilted>0</tilted></feature>
            <threshold>-3.2412579748779535e-003</threshold>
            <left_val>0.2649821937084198</left_val>
            <right_val>-0.4294559955596924</right_val></_></_>
        <_>
          <!-- tree 107 -->
          <_>
            <!-- root node -->
            <feature>
              <rects>
                <_>
                  1 0 4 2 -1.</_>
                <_>
                  3 0 2 1 2.</_>
                <_>
                  1 1 2 1 2.</_></rects>
              <tilted>0</tilted></feature>
            <threshold>4.7690258361399174e-003</threshold>
            <left_val>-0.1907013952732086</left_val>
            <right_val>0.2591732144355774</right_val></_></_>
        <_>
          <!-- tree 108 -->
          <_>
            <!-- root node -->
            <feature>
              <rects>
                <_>
                  0 0 4 2 -1.</_>
                <_>
                  0 0 2 1 2.</_>
                <_>
                  2 1 2 1 2.</_></rects>
              <tilted>0</tilted></feature>
            <threshold>9.6255782991647720e-003</threshold>
            <left_val>-0.3882338106632233</left_val>
            <right_val>0.4192700088024139</right_val></_></_>
        <_>
          <!-- tree 109 -->
          <_>
            <!-- root node -->
            <feature>
              <rects>
                <_>
                  4 2 1 2 -1.</_>
                <_>
                  4 2 1 1 2.</_></rects>
              <tilted>1</tilted></feature>
            <threshold>-0.1425316035747528</threshold>
            <left_val>0.5807960033416748</left_val>
            <right_val>-0.2732118070125580</right_val></_></_>
        <_>
          <!-- tree 110 -->
          <_>
            <!-- root node -->
            <feature>
              <rects>
                <_>
                  0 1 2 4 -1.</_>
                <_>
                  0 3 2 2 2.</_></rects>
              <tilted>0</tilted></feature>
            <threshold>-0.0154848201200366</threshold>
            <left_val>0.3654397130012512</left_val>
            <right_val>-0.5163229107856751</right_val></_></_>
        <_>
          <!-- tree 111 -->
          <_>
            <!-- root node -->
            <feature>
              <rects>
                <_>
                  1 1 3 4 -1.</_>
                <_>
                  2 1 1 4 3.</_></rects>
              <tilted>0</tilted></feature>
            <threshold>-2.7387279551476240e-003</threshold>
            <left_val>0.4286366999149323</left_val>
            <right_val>-0.2822577953338623</right_val></_></_>
        <_>
          <!-- tree 112 -->
          <_>
            <!-- root node -->
            <feature>
              <rects>
                <_>
                  0 2 4 2 -1.</_>
                <_>
                  2 2 2 2 2.</_></rects>
              <tilted>0</tilted></feature>
            <threshold>7.3190932162106037e-003</threshold>
            <left_val>-0.2409598976373673</left_val>
            <right_val>0.4042985141277313</right_val></_></_>
        <_>
          <!-- tree 113 -->
          <_>
            <!-- root node -->
            <feature>
              <rects>
                <_>
                  3 1 2 4 -1.</_>
                <_>
                  3 3 2 2 2.</_></rects>
              <tilted>0</tilted></feature>
            <threshold>-0.0118972696363926</threshold>
            <left_val>0.0888944789767265</left_val>
            <right_val>-0.3174920976161957</right_val></_></_>
        <_>
          <!-- tree 114 -->
          <_>
            <!-- root node -->
            <feature>
              <rects>
                <_>
                  0 1 4 4 -1.</_>
                <_>
                  0 3 4 2 2.</_></rects>
              <tilted>0</tilted></feature>
            <threshold>2.5927969254553318e-003</threshold>
            <left_val>-0.2048202008008957</left_val>
            <right_val>0.8248779177665710</right_val></_></_>
        <_>
          <!-- tree 115 -->
          <_>
            <!-- root node -->
            <feature>
              <rects>
                <_>
                  4 2 1 2 -1.</_>
                <_>
                  4 2 1 1 2.</_></rects>
              <tilted>1</tilted></feature>
            <threshold>-3.7374310195446014e-003</threshold>
            <left_val>0.3462882936000824</left_val>
            <right_val>-0.2805174887180328</right_val></_></_>
        <_>
          <!-- tree 116 -->
          <_>
            <!-- root node -->
            <feature>
              <rects>
                <_>
                  2 1 1 4 -1.</_>
                <_>
                  2 3 1 2 2.</_></rects>
              <tilted>0</tilted></feature>
            <threshold>-5.9042731299996376e-003</threshold>
            <left_val>0.2730241119861603</left_val>
            <right_val>-0.6797972917556763</right_val></_></_>
        <_>
          <!-- tree 117 -->
          <_>
            <!-- root node -->
            <feature>
              <rects>
                <_>
                  2 0 3 4 -1.</_>
                <_>
                  2 2 3 2 2.</_></rects>
              <tilted>0</tilted></feature>
            <threshold>0.0178170800209045</threshold>
            <left_val>-0.1515527069568634</left_val>
            <right_val>0.3990682959556580</right_val></_></_>
        <_>
          <!-- tree 118 -->
          <_>
            <!-- root node -->
            <feature>
              <rects>
                <_>
                  1 2 2 1 -1.</_>
                <_>
                  1 2 1 1 2.</_></rects>
              <tilted>1</tilted></feature>
            <threshold>3.7605890538543463e-003</threshold>
            <left_val>-0.5090950727462769</left_val>
            <right_val>0.2052731066942215</right_val></_></_>
        <_>
          <!-- tree 119 -->
          <_>
            <!-- root node -->
            <feature>
              <rects>
                <_>
                  0 1 5 4 -1.</_>
                <_>
                  0 2 5 2 2.</_></rects>
              <tilted>0</tilted></feature>
            <threshold>-4.6254829503595829e-003</threshold>
            <left_val>0.1652466952800751</left_val>
            <right_val>-0.4548667967319489</right_val></_></_>
        <_>
          <!-- tree 120 -->
          <_>
            <!-- root node -->
            <feature>
              <rects>
                <_>
                  0 1 4 4 -1.</_>
                <_>
                  0 2 4 2 2.</_></rects>
              <tilted>0</tilted></feature>
            <threshold>0.0144045902416110</threshold>
            <left_val>-0.2381031960248947</left_val>
            <right_val>0.4894028007984161</right_val></_></_>
        <_>
          <!-- tree 121 -->
          <_>
            <!-- root node -->
            <feature>
              <rects>
                <_>
                  2 1 1 2 -1.</_>
                <_>
                  2 2 1 1 2.</_></rects>
              <tilted>0</tilted></feature>
            <threshold>-5.9542851522564888e-003</threshold>
            <left_val>0.2422640025615692</left_val>
            <right_val>-0.4111098051071167</right_val></_></_>
        <_>
          <!-- tree 122 -->
          <_>
            <!-- root node -->
            <feature>
              <rects>
                <_>
                  2 0 1 3 -1.</_>
                <_>
                  2 1 1 1 3.</_></rects>
              <tilted>0</tilted></feature>
            <threshold>-3.2256850972771645e-003</threshold>
            <left_val>0.4483154118061066</left_val>
            <right_val>-0.2020892053842545</right_val></_></_>
        <_>
          <!-- tree 123 -->
          <_>
            <!-- root node -->
            <feature>
              <rects>
                <_>
                  3 1 2 4 -1.</_>
                <_>
                  3 3 2 2 2.</_></rects>
              <tilted>0</tilted></feature>
            <threshold>3.1457908917218447e-003</threshold>
            <left_val>-0.0724738165736198</left_val>
            <right_val>0.2958123087882996</right_val></_></_>
        <_>
          <!-- tree 124 -->
          <_>
            <!-- root node -->
            <feature>
              <rects>
                <_>
                  0 1 1 4 -1.</_>
                <_>
                  0 2 1 2 2.</_></rects>
              <tilted>0</tilted></feature>
            <threshold>-0.0183948408812284</threshold>
            <left_val>0.2608357965946198</left_val>
            <right_val>-0.2850804030895233</right_val></_></_>
        <_>
          <!-- tree 125 -->
          <_>
            <!-- root node -->
            <feature>
              <rects>
                <_>
                  2 0 3 4 -1.</_>
                <_>
                  2 2 3 2 2.</_></rects>
              <tilted>0</tilted></feature>
            <threshold>-5.1706768572330475e-003</threshold>
            <left_val>0.0939320325851440</left_val>
            <right_val>-0.2461543977260590</right_val></_></_>
        <_>
          <!-- tree 126 -->
          <_>
            <!-- root node -->
            <feature>
              <rects>
                <_>
                  0 0 3 4 -1.</_>
                <_>
                  0 2 3 2 2.</_></rects>
              <tilted>0</tilted></feature>
            <threshold>0.0166544690728188</threshold>
            <left_val>-0.1731909960508347</left_val>
            <right_val>0.5660442709922791</right_val></_></_>
        <_>
          <!-- tree 127 -->
          <_>
            <!-- root node -->
            <feature>
              <rects>
                <_>
                  2 0 3 4 -1.</_>
                <_>
                  2 2 3 2 2.</_></rects>
              <tilted>0</tilted></feature>
            <threshold>-0.0158386491239071</threshold>
            <left_val>0.0878415629267693</left_val>
            <right_val>-0.3560060858726502</right_val></_></_>
        <_>
          <!-- tree 128 -->
          <_>
            <!-- root node -->
            <feature>
              <rects>
                <_>
                  1 0 3 4 -1.</_>
                <_>
                  1 1 3 2 2.</_></rects>
              <tilted>0</tilted></feature>
            <threshold>0.5238689780235291</threshold>
            <left_val>-0.1953411996364594</left_val>
            <right_val>0.3189314007759094</right_val></_></_>
        <_>
          <!-- tree 129 -->
          <_>
            <!-- root node -->
            <feature>
              <rects>
                <_>
                  2 1 3 2 -1.</_>
                <_>
                  3 1 1 2 3.</_></rects>
              <tilted>0</tilted></feature>
            <threshold>-0.1420502960681915</threshold>
            <left_val>0.2080969065427780</left_val>
            <right_val>-0.2070122063159943</right_val></_></_>
        <_>
          <!-- tree 130 -->
          <_>
            <!-- root node -->
            <feature>
              <rects>
                <_>
                  0 1 3 2 -1.</_>
                <_>
                  1 1 1 2 3.</_></rects>
              <tilted>0</tilted></feature>
            <threshold>-0.0225436091423035</threshold>
            <left_val>0.2448644936084747</left_val>
            <right_val>-0.3204672932624817</right_val></_></_>
        <_>
          <!-- tree 131 -->
          <_>
            <!-- root node -->
            <feature>
              <rects>
                <_>
                  2 0 3 5 -1.</_>
                <_>
                  3 0 1 5 3.</_></rects>
              <tilted>0</tilted></feature>
            <threshold>0.1163548007607460</threshold>
            <left_val>-0.1710889041423798</left_val>
            <right_val>0.4531565904617310</right_val></_></_>
        <_>
          <!-- tree 132 -->
          <_>
            <!-- root node -->
            <feature>
              <rects>
                <_>
                  0 0 3 5 -1.</_>
                <_>
                  1 0 1 5 3.</_></rects>
              <tilted>0</tilted></feature>
            <threshold>8.7517984211444855e-003</threshold>
            <left_val>-0.2764393091201782</left_val>
            <right_val>0.4550229012966156</right_val></_></_>
        <_>
          <!-- tree 133 -->
          <_>
            <!-- root node -->
            <feature>
              <rects>
                <_>
                  2 0 3 1 -1.</_>
                <_>
                  3 0 1 1 3.</_></rects>
              <tilted>0</tilted></feature>
            <threshold>4.2305579409003258e-003</threshold>
            <left_val>-0.2660509049892426</left_val>
            <right_val>0.2858232855796814</right_val></_></_>
        <_>
          <!-- tree 134 -->
          <_>
            <!-- root node -->
            <feature>
              <rects>
                <_>
                  1 0 3 1 -1.</_>
                <_>
                  2 0 1 1 3.</_></rects>
              <tilted>0</tilted></feature>
            <threshold>2.9954400379210711e-003</threshold>
            <left_val>-0.5412272810935974</left_val>
            <right_val>0.2560864090919495</right_val></_></_>
        <_>
          <!-- tree 135 -->
          <_>
            <!-- root node -->
            <feature>
              <rects>
                <_>
                  4 1 1 2 -1.</_>
                <_>
                  4 1 1 1 2.</_></rects>
              <tilted>1</tilted></feature>
            <threshold>0.0216096304357052</threshold>
            <left_val>-0.5351393222808838</left_val>
            <right_val>0.2192578017711639</right_val></_></_>
        <_>
          <!-- tree 136 -->
          <_>
            <!-- root node -->
            <feature>
              <rects>
                <_>
                  0 1 4 1 -1.</_>
                <_>
                  2 1 2 1 2.</_></rects>
              <tilted>0</tilted></feature>
            <threshold>-0.0349990501999855</threshold>
            <left_val>0.4760844111442566</left_val>
            <right_val>-0.4917950034141541</right_val></_></_>
        <_>
          <!-- tree 137 -->
          <_>
            <!-- root node -->
            <feature>
              <rects>
                <_>
                  2 1 2 1 -1.</_>
                <_>
                  2 1 1 1 2.</_></rects>
              <tilted>0</tilted></feature>
            <threshold>0.0102611295878887</threshold>
            <left_val>-0.3452101945877075</left_val>
            <right_val>0.3223196864128113</right_val></_></_>
        <_>
          <!-- tree 138 -->
          <_>
            <!-- root node -->
            <feature>
              <rects>
                <_>
                  0 1 4 1 -1.</_>
                <_>
                  2 1 2 1 2.</_></rects>
              <tilted>0</tilted></feature>
            <threshold>4.9370122142136097e-003</threshold>
            <left_val>-0.5604075789451599</left_val>
            <right_val>0.4884563982486725</right_val></_></_>
        <_>
          <!-- tree 139 -->
          <_>
            <!-- root node -->
            <feature>
              <rects>
                <_>
                  4 1 1 2 -1.</_>
                <_>
                  4 1 1 1 2.</_></rects>
              <tilted>1</tilted></feature>
            <threshold>-0.0598964802920818</threshold>
            <left_val>0.4536961019039154</left_val>
            <right_val>-0.4259886145591736</right_val></_></_>
        <_>
          <!-- tree 140 -->
          <_>
            <!-- root node -->
            <feature>
              <rects>
                <_>
                  1 0 2 4 -1.</_>
                <_>
                  1 2 2 2 2.</_></rects>
              <tilted>0</tilted></feature>
            <threshold>-5.5381101556122303e-003</threshold>
            <left_val>0.4181017875671387</left_val>
            <right_val>-0.6748136878013611</right_val></_></_>
        <_>
          <!-- tree 141 -->
          <_>
            <!-- root node -->
            <feature>
              <rects>
                <_>
                  1 0 3 3 -1.</_>
                <_>
                  2 0 1 3 3.</_></rects>
              <tilted>0</tilted></feature>
            <threshold>-0.0202002692967653</threshold>
            <left_val>0.6977146267890930</left_val>
            <right_val>-0.2486511021852493</right_val></_></_>
        <_>
          <!-- tree 142 -->
          <_>
            <!-- root node -->
            <feature>
              <rects>
                <_>
                  1 0 2 4 -1.</_>
                <_>
                  1 2 2 2 2.</_></rects>
              <tilted>0</tilted></feature>
            <threshold>2.0433540921658278e-003</threshold>
            <left_val>-0.1785285025835037</left_val>
            <right_val>0.8367826938629150</right_val></_></_>
        <_>
          <!-- tree 143 -->
          <_>
            <!-- root node -->
            <feature>
              <rects>
                <_>
                  4 1 1 2 -1.</_>
                <_>
                  4 1 1 1 2.</_></rects>
              <tilted>1</tilted></feature>
            <threshold>4.8305047675967216e-003</threshold>
            <left_val>-0.5053650140762329</left_val>
            <right_val>0.2607203125953674</right_val></_></_>
        <_>
          <!-- tree 144 -->
          <_>
            <!-- root node -->
            <feature>
              <rects>
                <_>
                  1 2 3 1 -1.</_>
                <_>
                  2 2 1 1 3.</_></rects>
              <tilted>0</tilted></feature>
            <threshold>5.5716792121529579e-003</threshold>
            <left_val>-0.6872320771217346</left_val>
            <right_val>0.3806332945823669</right_val></_></_>
        <_>
          <!-- tree 145 -->
          <_>
            <!-- root node -->
            <feature>
              <rects>
                <_>
                  2 0 2 4 -1.</_>
                <_>
                  2 2 2 2 2.</_></rects>
              <tilted>0</tilted></feature>
            <threshold>-2.6216479018330574e-003</threshold>
            <left_val>0.0674336031079292</left_val>
            <right_val>-0.6542658805847168</right_val></_></_>
        <_>
          <!-- tree 146 -->
          <_>
            <!-- root node -->
            <feature>
              <rects>
                <_>
                  1 1 3 2 -1.</_>
                <_>
                  1 2 3 1 2.</_></rects>
              <tilted>0</tilted></feature>
            <threshold>0.0560744106769562</threshold>
            <left_val>-0.3139615058898926</left_val>
            <right_val>0.6264423727989197</right_val></_></_>
        <_>
          <!-- tree 147 -->
          <_>
            <!-- root node -->
            <feature>
              <rects>
                <_>
                  2 0 3 3 -1.</_>
                <_>
                  2 1 3 1 3.</_></rects>
              <tilted>0</tilted></feature>
            <threshold>1.2305940035730600e-003</threshold>
            <left_val>-0.6422371268272400</left_val>
            <right_val>0.3273132145404816</right_val></_></_>
        <_>
          <!-- tree 148 -->
          <_>
            <!-- root node -->
            <feature>
              <rects>
                <_>
                  1 1 2 1 -1.</_>
                <_>
                  1 1 1 1 2.</_></rects>
              <tilted>1</tilted></feature>
            <threshold>2.4562980979681015e-003</threshold>
            <left_val>-0.7506691813468933</left_val>
            <right_val>0.3051935136318207</right_val></_></_>
        <_>
          <!-- tree 149 -->
          <_>
            <!-- root node -->
            <feature>
              <rects>
                <_>
                  2 1 3 3 -1.</_>
                <_>
                  3 2 1 1 9.</_></rects>
              <tilted>0</tilted></feature>
            <threshold>-0.5660465955734253</threshold>
            <left_val>0.5473241806030273</left_val>
            <right_val>-0.6019921898841858</right_val></_></_>
        <_>
          <!-- tree 150 -->
          <_>
            <!-- root node -->
            <feature>
              <rects>
                <_>
                  0 1 5 3 -1.</_>
                <_>
                  0 2 5 1 3.</_></rects>
              <tilted>0</tilted></feature>
            <threshold>0.1068632006645203</threshold>
            <left_val>-0.6455485224723816</left_val>
            <right_val>0.6365017890930176</right_val></_></_>
        <_>
          <!-- tree 151 -->
          <_>
            <!-- root node -->
            <feature>
              <rects>
                <_>
                  2 0 2 4 -1.</_>
                <_>
                  2 2 2 2 2.</_></rects>
              <tilted>0</tilted></feature>
            <threshold>4.0176520124077797e-003</threshold>
            <left_val>-0.5609452724456787</left_val>
            <right_val>0.8907544016838074</right_val></_></_>
        <_>
          <!-- tree 152 -->
          <_>
            <!-- root node -->
            <feature>
              <rects>
                <_>
                  1 0 2 4 -1.</_>
                <_>
                  1 2 2 2 2.</_></rects>
              <tilted>0</tilted></feature>
            <threshold>-4.0122158825397491e-003</threshold>
            <left_val>0.7058367729187012</left_val>
            <right_val>-0.9565492272377014</right_val></_></_>
        <_>
          <!-- tree 153 -->
          <_>
            <!-- root node -->
            <feature>
              <rects>
                <_>
                  3 2 2 2 -1.</_>
                <_>
                  3 2 1 2 2.</_></rects>
              <tilted>0</tilted></feature>
            <threshold>-1.9561119843274355e-003</threshold>
            <left_val>0.1737357974052429</left_val>
            <right_val>-0.7000408768653870</right_val></_></_>
        <_>
          <!-- tree 154 -->
          <_>
            <!-- root node -->
            <feature>
              <rects>
                <_>
                  0 1 5 4 -1.</_>
                <_>
                  0 3 5 2 2.</_></rects>
              <tilted>0</tilted></feature>
            <threshold>-7.8591685742139816e-003</threshold>
            <left_val>0.3088740110397339</left_val>
            <right_val>-0.7112166881561279</right_val></_></_>
        <_>
          <!-- tree 155 -->
          <_>
            <!-- root node -->
            <feature>
              <rects>
                <_>
                  0 1 5 3 -1.</_>
                <_>
                  0 2 5 1 3.</_></rects>
              <tilted>0</tilted></feature>
            <threshold>-0.1241772025823593</threshold>
            <left_val>0.7253460288047791</left_val>
            <right_val>-0.3991171121597290</right_val></_></_>
        <_>
          <!-- tree 156 -->
          <_>
            <!-- root node -->
            <feature>
              <rects>
                <_>
                  1 1 2 1 -1.</_>
                <_>
                  1 1 1 1 2.</_></rects>
              <tilted>1</tilted></feature>
            <threshold>-1.7466719727963209e-003</threshold>
            <left_val>0.8296660780906677</left_val>
            <right_val>-0.2995148003101349</right_val></_></_>
        <_>
          <!-- tree 157 -->
          <_>
            <!-- root node -->
            <feature>
              <rects>
                <_>
                  3 1 2 4 -1.</_>
                <_>
                  3 3 2 2 2.</_></rects>
              <tilted>0</tilted></feature>
            <threshold>0.1113613024353981</threshold>
            <left_val>-0.0399638302624226</left_val>
            <right_val>0.5338286161422730</right_val></_></_>
        <_>
          <!-- tree 158 -->
          <_>
            <!-- root node -->
            <feature>
              <rects>
                <_>
                  0 2 4 2 -1.</_>
                <_>
                  0 2 2 1 2.</_>
                <_>
                  2 3 2 1 2.</_></rects>
              <tilted>0</tilted></feature>
            <threshold>-4.5477310195565224e-003</threshold>
            <left_val>0.2896544933319092</left_val>
            <right_val>-0.5577762722969055</right_val></_></_>
        <_>
          <!-- tree 159 -->
          <_>
            <!-- root node -->
            <feature>
              <rects>
                <_>
                  1 2 3 1 -1.</_>
                <_>
                  2 2 1 1 3.</_></rects>
              <tilted>0</tilted></feature>
            <threshold>-8.3600208163261414e-003</threshold>
            <left_val>0.5149865150451660</left_val>
            <right_val>-0.2179491072893143</right_val></_></_>
        <_>
          <!-- tree 160 -->
          <_>
            <!-- root node -->
            <feature>
              <rects>
                <_>
                  1 0 2 4 -1.</_>
                <_>
                  1 2 2 2 2.</_></rects>
              <tilted>0</tilted></feature>
            <threshold>2.0433540921658278e-003</threshold>
            <left_val>-0.1291875988245010</left_val>
            <right_val>0.8022168278694153</right_val></_></_>
        <_>
          <!-- tree 161 -->
          <_>
            <!-- root node -->
            <feature>
              <rects>
                <_>
                  2 0 3 4 -1.</_>
                <_>
                  2 2 3 2 2.</_></rects>
              <tilted>0</tilted></feature>
            <threshold>-5.8213430456817150e-003</threshold>
            <left_val>0.1823485940694809</left_val>
            <right_val>-0.5857719779014587</right_val></_></_>
        <_>
          <!-- tree 162 -->
          <_>
            <!-- root node -->
            <feature>
              <rects>
                <_>
                  1 1 3 3 -1.</_>
                <_>
                  2 2 1 1 9.</_></rects>
              <tilted>0</tilted></feature>
            <threshold>0.0130243599414825</threshold>
            <left_val>-0.5090351104736328</left_val>
            <right_val>0.2070571929216385</right_val></_></_>
        <_>
          <!-- tree 163 -->
          <_>
            <!-- root node -->
            <feature>
              <rects>
                <_>
                  1 2 4 2 -1.</_>
                <_>
                  3 2 2 1 2.</_>
                <_>
                  1 3 2 1 2.</_></rects>
              <tilted>0</tilted></feature>
            <threshold>9.3363355845212936e-003</threshold>
            <left_val>-0.2543371021747589</left_val>
            <right_val>0.1937856972217560</right_val></_></_>
        <_>
          <!-- tree 164 -->
          <_>
            <!-- root node -->
            <feature>
              <rects>
                <_>
                  0 2 4 2 -1.</_>
                <_>
                  0 2 2 1 2.</_>
                <_>
                  2 3 2 1 2.</_></rects>
              <tilted>0</tilted></feature>
            <threshold>5.7163191959261894e-003</threshold>
            <left_val>-0.2871071994304657</left_val>
            <right_val>0.6536539196968079</right_val></_></_>
        <_>
          <!-- tree 165 -->
          <_>
            <!-- root node -->
            <feature>
              <rects>
                <_>
                  1 2 4 2 -1.</_>
                <_>
                  3 2 2 1 2.</_>
                <_>
                  1 3 2 1 2.</_></rects>
              <tilted>0</tilted></feature>
            <threshold>-1.9777528941631317e-003</threshold>
            <left_val>0.3061034977436066</left_val>
            <right_val>-0.5023581981658936</right_val></_></_>
        <_>
          <!-- tree 166 -->
          <_>
            <!-- root node -->
            <feature>
              <rects>
                <_>
                  0 2 4 2 -1.</_>
                <_>
                  0 2 2 1 2.</_>
                <_>
                  2 3 2 1 2.</_></rects>
              <tilted>0</tilted></feature>
            <threshold>-4.5477310195565224e-003</threshold>
            <left_val>0.3552989959716797</left_val>
            <right_val>-0.5967209935188294</right_val></_></_>
        <_>
          <!-- tree 167 -->
          <_>
            <!-- root node -->
            <feature>
              <rects>
                <_>
                  1 2 4 1 -1.</_>
                <_>
                  2 2 2 1 2.</_></rects>
              <tilted>0</tilted></feature>
            <threshold>0.0941379815340042</threshold>
            <left_val>-0.2447306066751480</left_val>
            <right_val>0.3189814984798431</right_val></_></_>
        <_>
          <!-- tree 168 -->
          <_>
            <!-- root node -->
            <feature>
              <rects>
                <_>
                  0 2 4 1 -1.</_>
                <_>
                  2 2 2 1 2.</_></rects>
              <tilted>0</tilted></feature>
            <threshold>-0.0308642107993364</threshold>
            <left_val>0.5142093896865845</left_val>
            <right_val>-0.3717850148677826</right_val></_></_>
        <_>
          <!-- tree 169 -->
          <_>
            <!-- root node -->
            <feature>
              <rects>
                <_>
                  1 2 4 1 -1.</_>
                <_>
                  1 2 2 1 2.</_></rects>
              <tilted>0</tilted></feature>
            <threshold>-7.8831966966390610e-003</threshold>
            <left_val>0.3393850922584534</left_val>
            <right_val>-0.2508895099163055</right_val></_></_>
        <_>
          <!-- tree 170 -->
          <_>
            <!-- root node -->
            <feature>
              <rects>
                <_>
                  0 0 4 5 -1.</_>
                <_>
                  1 0 2 5 2.</_></rects>
              <tilted>0</tilted></feature>
            <threshold>0.0569375604391098</threshold>
            <left_val>-0.2685540914535523</left_val>
            <right_val>0.3651447892189026</right_val></_></_>
        <_>
          <!-- tree 171 -->
          <_>
            <!-- root node -->
            <feature>
              <rects>
                <_>
                  0 3 5 2 -1.</_>
                <_>
                  0 4 5 1 2.</_></rects>
              <tilted>0</tilted></feature>
            <threshold>0.0115361595526338</threshold>
            <left_val>-0.3696560859680176</left_val>
            <right_val>0.3380652070045471</right_val></_></_>
        <_>
          <!-- tree 172 -->
          <_>
            <!-- root node -->
            <feature>
              <rects>
                <_>
                  0 3 4 2 -1.</_>
                <_>
                  0 4 4 1 2.</_></rects>
              <tilted>0</tilted></feature>
            <threshold>-0.0114773996174335</threshold>
            <left_val>0.4013040959835053</left_val>
            <right_val>-0.4116253852844238</right_val></_></_>
        <_>
          <!-- tree 173 -->
          <_>
            <!-- root node -->
            <feature>
              <rects>
                <_>
                  2 3 3 2 -1.</_>
                <_>
                  2 4 3 1 2.</_></rects>
              <tilted>0</tilted></feature>
            <threshold>0.0335365496575832</threshold>
            <left_val>-0.2897646129131317</left_val>
            <right_val>0.3751890063285828</right_val></_></_>
        <_>
          <!-- tree 174 -->
          <_>
            <!-- root node -->
            <feature>
              <rects>
                <_>
                  1 0 3 1 -1.</_>
                <_>
                  2 1 1 1 3.</_></rects>
              <tilted>1</tilted></feature>
            <threshold>-0.0633238628506660</threshold>
            <left_val>0.4038321077823639</left_val>
            <right_val>-0.3696452081203461</right_val></_></_>
        <_>
          <!-- tree 175 -->
          <_>
            <!-- root node -->
            <feature>
              <rects>
                <_>
                  2 1 3 3 -1.</_>
                <_>
                  3 2 1 1 9.</_></rects>
              <tilted>0</tilted></feature>
            <threshold>0.1158097013831139</threshold>
            <left_val>-0.3121553957462311</left_val>
            <right_val>0.4435251951217651</right_val></_></_>
        <_>
          <!-- tree 176 -->
          <_>
            <!-- root node -->
            <feature>
              <rects>
                <_>
                  0 2 4 2 -1.</_>
                <_>
                  0 2 2 1 2.</_>
                <_>
                  2 3 2 1 2.</_></rects>
              <tilted>0</tilted></feature>
            <threshold>5.9444247744977474e-003</threshold>
            <left_val>-0.3088468015193939</left_val>
            <right_val>0.5406801104545593</right_val></_></_>
        <_>
          <!-- tree 177 -->
          <_>
            <!-- root node -->
            <feature>
              <rects>
                <_>
                  1 0 3 2 -1.</_>
                <_>
                  2 0 1 2 3.</_></rects>
              <tilted>0</tilted></feature>
            <threshold>9.6620395779609680e-003</threshold>
            <left_val>-0.6442880034446716</left_val>
            <right_val>0.2620187997817993</right_val></_></_>
        <_>
          <!-- tree 178 -->
          <_>
            <!-- root node -->
            <feature>
              <rects>
                <_>
                  1 3 2 2 -1.</_>
                <_>
                  2 3 1 2 2.</_></rects>
              <tilted>0</tilted></feature>
            <threshold>-5.8042500168085098e-003</threshold>
            <left_val>0.3831534087657929</left_val>
            <right_val>-0.6078320145606995</right_val></_></_>
        <_>
          <!-- tree 179 -->
          <_>
            <!-- root node -->
            <feature>
              <rects>
                <_>
                  2 3 3 2 -1.</_>
                <_>
                  3 3 1 2 3.</_></rects>
              <tilted>0</tilted></feature>
            <threshold>0.0331123918294907</threshold>
            <left_val>-0.3339546918869019</left_val>
            <right_val>0.4289563894271851</right_val></_></_>
        <_>
          <!-- tree 180 -->
          <_>
            <!-- root node -->
            <feature>
              <rects>
                <_>
                  2 0 2 2 -1.</_>
                <_>
                  2 0 2 1 2.</_></rects>
              <tilted>1</tilted></feature>
            <threshold>0.0113142300397158</threshold>
            <left_val>-0.5745903253555298</left_val>
            <right_val>0.3362863957881928</right_val></_></_>
        <_>
          <!-- tree 181 -->
          <_>
            <!-- root node -->
            <feature>
              <rects>
                <_>
                  4 1 1 2 -1.</_>
                <_>
                  4 1 1 1 2.</_></rects>
              <tilted>1</tilted></feature>
            <threshold>4.8305047675967216e-003</threshold>
            <left_val>-0.5512912869453430</left_val>
            <right_val>0.2044681012630463</right_val></_></_>
        <_>
          <!-- tree 182 -->
          <_>
            <!-- root node -->
            <feature>
              <rects>
                <_>
                  2 0 3 2 -1.</_>
                <_>
                  2 0 3 1 2.</_></rects>
              <tilted>1</tilted></feature>
            <threshold>-0.0233308598399162</threshold>
            <left_val>0.7563186287879944</left_val>
            <right_val>-0.5214750766754150</right_val></_></_>
        <_>
          <!-- tree 183 -->
          <_>
            <!-- root node -->
            <feature>
              <rects>
                <_>
                  3 0 2 3 -1.</_>
                <_>
                  3 0 1 3 2.</_></rects>
              <tilted>1</tilted></feature>
            <threshold>0.0175706893205643</threshold>
            <left_val>-0.5538179874420166</left_val>
            <right_val>0.3751583993434906</right_val></_></_>
        <_>
          <!-- tree 184 -->
          <_>
            <!-- root node -->
            <feature>
              <rects>
                <_>
                  0 2 4 2 -1.</_>
                <_>
                  2 2 2 2 2.</_></rects>
              <tilted>0</tilted></feature>
            <threshold>4.2256698943674564e-003</threshold>
            <left_val>-0.6076173782348633</left_val>
            <right_val>0.6511151790618897</right_val></_></_>
        <_>
          <!-- tree 185 -->
          <_>
            <!-- root node -->
            <feature>
              <rects>
                <_>
                  1 2 4 2 -1.</_>
                <_>
                  1 2 2 2 2.</_></rects>
              <tilted>0</tilted></feature>
            <threshold>1.7750370316207409e-003</threshold>
            <left_val>-0.6630192995071411</left_val>
            <right_val>0.5664762854576111</right_val></_></_>
        <_>
          <!-- tree 186 -->
          <_>
            <!-- root node -->
            <feature>
              <rects>
                <_>
                  2 0 3 2 -1.</_>
                <_>
                  2 0 3 1 2.</_></rects>
              <tilted>1</tilted></feature>
            <threshold>2.4745808914303780e-003</threshold>
            <left_val>-0.8543335795402527</left_val>
            <right_val>0.5091462135314941</right_val></_></_>
        <_>
          <!-- tree 187 -->
          <_>
            <!-- root node -->
            <feature>
              <rects>
                <_>
                  1 2 4 2 -1.</_>
                <_>
                  1 2 2 2 2.</_></rects>
              <tilted>0</tilted></feature>
            <threshold>-4.0199891664087772e-003</threshold>
            <left_val>0.4624406099319458</left_val>
            <right_val>-0.8120170831680298</right_val></_></_>
        <_>
          <!-- tree 188 -->
          <_>
            <!-- root node -->
            <feature>
              <rects>
                <_>
                  0 2 4 2 -1.</_>
                <_>
                  2 2 2 2 2.</_></rects>
              <tilted>0</tilted></feature>
            <threshold>-5.3071361035108566e-003</threshold>
            <left_val>0.7505037784576416</left_val>
            <right_val>-0.7856091260910034</right_val></_></_>
        <_>
          <!-- tree 189 -->
          <_>
            <!-- root node -->
            <feature>
              <rects>
                <_>
                  1 2 3 3 -1.</_>
                <_>
                  2 2 1 3 3.</_></rects>
              <tilted>0</tilted></feature>
            <threshold>5.2450657822191715e-003</threshold>
            <left_val>-0.5585343837738037</left_val>
            <right_val>0.5703858137130737</right_val></_></_>
        <_>
          <!-- tree 190 -->
          <_>
            <!-- root node -->
            <feature>
              <rects>
                <_>
                  0 0 4 1 -1.</_>
                <_>
                  1 0 2 1 2.</_></rects>
              <tilted>0</tilted></feature>
            <threshold>-1.6683730063959956e-003</threshold>
            <left_val>0.6792011857032776</left_val>
            <right_val>-0.6399313807487488</right_val></_></_>
        <_>
          <!-- tree 191 -->
          <_>
            <!-- root node -->
            <feature>
              <rects>
                <_>
                  1 0 4 1 -1.</_>
                <_>
                  2 0 2 1 2.</_></rects>
              <tilted>0</tilted></feature>
            <threshold>-7.2082090191543102e-003</threshold>
            <left_val>0.6048256158828735</left_val>
            <right_val>-0.2831754982471466</right_val></_></_>
        <_>
          <!-- tree 192 -->
          <_>
            <!-- root node -->
            <feature>
              <rects>
                <_>
                  0 0 4 1 -1.</_>
                <_>
                  1 0 2 1 2.</_></rects>
              <tilted>0</tilted></feature>
            <threshold>2.6018449570983648e-003</threshold>
            <left_val>-0.5022336244583130</left_val>
            <right_val>0.5646749138832092</right_val></_></_>
        <_>
          <!-- tree 193 -->
          <_>
            <!-- root node -->
            <feature>
              <rects>
                <_>
                  2 0 3 1 -1.</_>
                <_>
                  3 0 1 1 3.</_></rects>
              <tilted>0</tilted></feature>
            <threshold>4.2305579409003258e-003</threshold>
            <left_val>-0.5929198861122131</left_val>
            <right_val>0.5186945199966431</right_val></_></_>
        <_>
          <!-- tree 194 -->
          <_>
            <!-- root node -->
            <feature>
              <rects>
                <_>
                  1 0 3 1 -1.</_>
                <_>
                  2 0 1 1 3.</_></rects>
              <tilted>0</tilted></feature>
            <threshold>7.0642437785863876e-003</threshold>
            <left_val>-0.7434707283973694</left_val>
            <right_val>0.4081079065799713</right_val></_></_>
        <_>
          <!-- tree 195 -->
